<?xml version="1.0"?>
<opencv_storage>
<opencv_ml_svm>
  <format>3</format>
  <svmType>C_SVC</svmType>
  <kernel>
    <type>LINEAR</type></kernel>
  <C>1.</C>
  <term_criteria><iterations>100</iterations></term_criteria>
  <var_count>4096</var_count>
  <class_count>3</class_count>
  <class_labels type_id="opencv-matrix">
    <rows>3</rows>
    <cols>1</cols>
    <dt>i</dt>
    <data>
      0 1 2</data></class_labels>
  <sv_total>3</sv_total>
  <support_vectors>
    <_>
      -1.92202356e-06 -1.92202356e-06 -1.92202356e-06 -1.92202356e-06
      -1.92202356e-06 -1.92202356e-06 -1.92202356e-06 -1.92202356e-06
      -1.98312478e-06 -1.92202356e-06 -1.92202356e-06 -1.92202356e-06
      -1.86092211e-06 -1.92202356e-06 -1.86092211e-06 -1.86092211e-06
      -1.79982078e-06 -1.79982078e-06 -1.79982078e-06 -1.73871945e-06
      -1.73871945e-06 -1.67761800e-06 -1.67761800e-06 -1.67761800e-06
      -1.69962220e-06 -1.63852087e-06 -1.57741954e-06 -1.51631809e-06
      -1.57741954e-06 -3.21063931e-06 -3.19354626e-06 -3.08352537e-06
      -2.99276394e-06 1.77551328e-06 9.01730891e-06 1.04664532e-05
      8.95031008e-06 6.45674027e-06 5.22095752e-06 5.31565456e-06
      6.33335821e-06 8.35717310e-06 9.81103585e-06 8.58684416e-06
      5.15867669e-06 -1.23831683e-06 -1.31100990e-06 -1.23831683e-06
      -1.31100990e-06 -1.24990856e-06 -1.24990856e-06 -1.24990856e-06
      -1.24990856e-06 -1.24990856e-06 -1.24990856e-06 -1.24990856e-06
      -1.24990856e-06 -1.24990856e-06 -1.24990856e-06 -1.24990856e-06
      -1.24990856e-06 -1.24990856e-06 -1.24990856e-06 -1.24990856e-06
      -1.98312478e-06 -1.92202356e-06 -1.92202356e-06 -1.92202356e-06
      -1.92202356e-06 -1.92202356e-06 -1.92202356e-06 -1.92202356e-06
      -1.98312478e-06 -1.98312478e-06 -1.92202356e-06 -1.92202356e-06
      -1.86092211e-06 -1.86092211e-06 -1.86092211e-06 -1.79982078e-06
      -1.79982078e-06 -1.73871945e-06 -1.73871945e-06 -1.73871945e-06
      -1.67761800e-06 -1.67761800e-06 -1.67761800e-06 -1.67761800e-06
      -1.67761800e-06 -1.63852087e-06 -3.55602538e-06 -2.90258095e-06
      1.07077938e-06 5.10974269e-06 -1.06485277e-05 -1.86219550e-05
      -1.94886143e-05 -1.80096049e-05 -1.07345295e-05 1.10974736e-06
      8.17230193e-06 1.29991195e-05 1.34352786e-05 1.27187595e-05
      1.08287386e-05 9.88372904e-06 8.65953734e-06 6.03099397e-06
      2.68711096e-06 7.01591603e-08 -1.23831683e-06 -8.74851253e-07
      6.24907307e-06 -1.24990856e-06 -1.24990856e-06 -1.24990856e-06
      -1.24990856e-06 -1.24990856e-06 -1.24990856e-06 -1.24990856e-06
      -1.24990856e-06 -1.24990856e-06 -1.24990856e-06 -1.24990856e-06
      -1.24990856e-06 -1.24990856e-06 -1.24990856e-06 -1.24990856e-06
      -1.98312478e-06 -1.98312478e-06 -1.98312478e-06 -1.92202356e-06
      -1.92202356e-06 -1.92202356e-06 -1.92202356e-06 -1.92202356e-06
      -1.98312478e-06 -1.98312478e-06 -1.92202356e-06 -1.92202356e-06
      -1.92202356e-06 -1.86092211e-06 -1.79982078e-06 -1.79982078e-06
      -1.79982078e-06 -1.73871945e-06 -1.73871945e-06 -1.73871945e-06
      -1.67761800e-06 -1.67761800e-06 -1.67761800e-06 -1.67761800e-06
      -2.29373472e-06 -2.98077521e-06 -1.14767618e-05 -2.96089584e-05
      -1.83125303e-05 -6.20923265e-06 -1.41926569e-06 2.12744385e-06
      4.16763987e-06 5.33842103e-06 7.04772538e-06 8.08744517e-06
      5.89975389e-06 5.84172817e-08 9.61841488e-06 1.52526063e-05
      1.54084046e-05 1.56264832e-05 1.65103938e-05 1.54199970e-05
      7.04869763e-06 -1.47920161e-07 -1.31100990e-06 1.27187595e-05
      1.40272359e-05 4.94726066e-07 6.03099397e-06 -1.24990856e-06
      -1.24990856e-06 -1.24990856e-06 -1.24990856e-06 -1.24990856e-06
      -1.24990856e-06 -1.24990856e-06 -1.24990856e-06 -1.24990856e-06
      -1.24990856e-06 -1.24990856e-06 -1.24990856e-06 -1.18880712e-06
      -2.04422622e-06 -1.98312478e-06 -1.92202356e-06 -1.92202356e-06
      -1.92202356e-06 -1.92202356e-06 -1.92202356e-06 -1.92202356e-06
      -1.98312478e-06 -1.92202356e-06 -1.92202356e-06 -1.92202356e-06
      -1.86092211e-06 -1.79982078e-06 -1.79982078e-06 -1.79982078e-06
      -1.73871945e-06 -1.73871945e-06 -1.69962220e-06 -1.69962220e-06
      -1.69962220e-06 -1.69962220e-06 -1.73871945e-06 -2.57978900e-06
      -2.90985167e-06 -5.72532826e-06 -1.33217536e-05 -1.30217304e-05
      -9.56303757e-06 -5.21827542e-06 -2.58177079e-06 1.50024982e-06
      5.28194914e-06 1.26453997e-05 1.46002531e-05 1.41257487e-05
      1.19599345e-05 9.73073475e-06 1.87562284e-06 1.16393649e-05
      1.26492696e-05 1.18244379e-05 1.25796751e-05 1.48174595e-05
      1.53137080e-05 1.50956284e-05 1.48995532e-05 1.59172560e-05
      1.64872090e-05 1.33614058e-05 1.65599031e-05 5.67419136e-07
      7.90942340e-06 -1.24990856e-06 -1.24990856e-06 -1.24990856e-06
      -1.24990856e-06 -1.24990856e-06 -1.24990856e-06 -1.24990856e-06
      -1.24990856e-06 -1.24990856e-06 -1.24990856e-06 -1.18880712e-06
      -2.04422622e-06 -1.98312478e-06 -1.98312478e-06 -1.98312478e-06
      -1.92202356e-06 -1.92202356e-06 -1.92202356e-06 -1.92202356e-06
      -1.92202356e-06 -1.92202356e-06 -1.92202356e-06 -1.86092211e-06
      -1.86092211e-06 -1.79982078e-06 -1.79982078e-06 -1.73871945e-06
      -1.67761800e-06 -1.67761800e-06 -1.67761800e-06 -1.67761800e-06
      -1.81328107e-06 -1.81328107e-06 -1.87929356e-06 4.66552166e-07
      6.51422351e-06 6.12277927e-06 1.99500737e-05 7.57587759e-06
      7.13621694e-06 7.17120747e-06 9.25951008e-06 1.91676299e-05
      2.13454077e-05 2.16706176e-05 2.30194419e-05 2.48861270e-05
      2.51615893e-05 2.10477720e-05 2.08952824e-05 3.11625481e-05
      3.25072288e-05 3.28014758e-05 3.18931707e-05 3.14603858e-05
      3.15141770e-05 1.95452121e-05 1.65875190e-05 1.12872240e-05
      1.43127181e-05 1.53968122e-05 1.48995532e-05 1.53241199e-05
      1.50333472e-05 -1.17721538e-06 -1.24990856e-06 -1.24990856e-06
      -1.24990856e-06 -1.24990856e-06 -1.18880712e-06 -1.24990856e-06
      -1.24990856e-06 -1.24990856e-06 -1.24990856e-06 -1.24990856e-06
      -2.04422622e-06 -1.98312478e-06 -1.98312478e-06 -1.92202356e-06
      -1.92202356e-06 -1.92202356e-06 -1.92202356e-06 -1.92202356e-06
      -1.92202356e-06 -1.92202356e-06 -1.92202356e-06 -1.92202356e-06
      -1.79982078e-06 -1.79982078e-06 -1.73871945e-06 -1.73871945e-06
      -1.67761800e-06 -1.67761800e-06 -1.69962220e-06 -2.22772223e-06
      -2.31937702e-06 -2.29737293e-06 -3.92568154e-06 1.19098240e-05
      2.70142918e-05 2.00156919e-05 3.03353481e-05 2.76112205e-05
      2.76455157e-05 2.22200943e-05 2.42430797e-05 1.15757439e-05
      4.67360678e-06 2.83127883e-06 1.26067982e-06 -6.06812250e-07
      -1.62296760e-06 -6.60651813e-06 -4.54063456e-06 7.23599578e-06
      1.50876758e-05 1.57218365e-05 1.69140221e-05 1.61878834e-05
      1.55678063e-05 1.74934648e-05 2.96867256e-05 3.11706281e-05
      3.22406122e-05 1.73784319e-05 1.27987669e-05 1.53241199e-05
      1.38702580e-05 2.23936058e-06 -1.24990856e-06 -1.24990856e-06
      -1.24990856e-06 -1.24990856e-06 -1.24990856e-06 -1.24990856e-06
      -1.24990856e-06 -1.24990856e-06 -1.18880712e-06 -1.24990856e-06
      -2.10532767e-06 -1.98312478e-06 -2.04422622e-06 -1.98312478e-06
      -1.98312478e-06 -1.92202356e-06 -1.92202356e-06 -1.92202356e-06
      -1.92202356e-06 -1.98312478e-06 -1.86092211e-06 -1.88292631e-06
      -1.79982078e-06 -1.82182498e-06 -1.73871945e-06 -1.69962220e-06
      -1.67761800e-06 -3.35357299e-06 -2.16534772e-06 -2.25700251e-06
      -3.62617220e-06 -3.36212224e-06 1.01648118e-06 2.26430020e-05
      3.07882983e-05 2.01116418e-05 2.83513600e-05 2.98114574e-05
      1.64303365e-05 1.27322046e-05 1.39693775e-05 1.08863305e-05
      4.51382493e-06 3.36946869e-06 2.92370896e-06 1.44799583e-06
      8.47903323e-07 -8.79886670e-07 -3.09047573e-06 1.57005579e-05
      1.52848643e-05 1.57080049e-05 1.46487937e-05 1.67479211e-05
      1.73175249e-05 1.50270280e-05 1.54929239e-05 1.74862816e-05
      1.76301874e-05 3.05222457e-05 3.27886082e-05 2.98187588e-05
      1.59752599e-05 6.60094702e-06 -1.24990856e-06 -1.24990856e-06
      -1.24990856e-06 -1.24990856e-06 -1.18880712e-06 -1.24990856e-06
      -1.24990856e-06 -1.24990856e-06 -1.18880712e-06 -1.24990856e-06
      -2.04422622e-06 -1.98312478e-06 -1.98312478e-06 -1.92202356e-06
      -1.92202356e-06 -1.92202356e-06 -1.92202356e-06 -1.92202356e-06
      -1.92202356e-06 -1.86092211e-06 -1.92202356e-06 -1.88292631e-06
      -1.82182498e-06 -1.82182498e-06 -1.69962220e-06 -2.64580149e-06
      -3.92204356e-06 -2.39393876e-06 -1.94294125e-06 -3.20081699e-06
      -2.82310793e-06 7.14305497e-06 -9.14225154e-07 5.60407580e-06
      1.08186214e-05 2.06513232e-05 1.71709435e-05 1.02675704e-05
      8.09708126e-06 6.45256750e-06 4.83291342e-06 1.38239920e-05
      2.17213965e-05 2.12512277e-05 1.69819177e-05 3.91438562e-06
      1.09335542e-06 -1.26075221e-08 -1.30192836e-06 2.23083898e-05
      2.51395886e-05 3.25135807e-05 3.38064237e-05 3.36688317e-05
      3.45247427e-05 3.41618143e-05 3.13867931e-05 1.60442742e-05
      1.57080558e-05 1.75165278e-05 1.35248638e-05 3.09087081e-05
      3.21536754e-05 3.47514356e-06 -1.24990856e-06 -1.24990856e-06
      -1.24990856e-06 -1.24990856e-06 -1.18880712e-06 -1.24990856e-06
      -1.24990856e-06 -1.24990856e-06 -1.24990856e-06 -1.18880712e-06
      -2.04422622e-06 -1.92202356e-06 -1.98312478e-06 -1.92202356e-06
      -1.92202356e-06 -1.92202356e-06 -1.92202356e-06 -1.86092211e-06
      -1.86092211e-06 -1.86092211e-06 -1.92202356e-06 -1.79982078e-06
      -1.82182498e-06 -1.76072353e-06 -3.94404742e-06 -2.38175153e-06
      -2.14461670e-06 -2.92203890e-06 -3.07006508e-06 -2.51632264e-06
      6.15714407e-06 -3.01302475e-06 2.62646068e-07 -3.28569217e-06
      5.05121579e-06 1.60821237e-05 1.05514355e-05 2.04350090e-05
      1.56639944e-05 1.74999659e-05 1.68554561e-05 1.57164523e-05
      1.35711925e-05 1.26777131e-05 1.18091657e-05 9.84670805e-06
      9.35371645e-06 7.15535271e-06 2.09797145e-05 1.63798395e-05
      1.52849952e-05 1.54683421e-05 1.50080514e-05 1.45203921e-05
      1.81115520e-05 2.93097983e-05 3.20247200e-05 3.58810394e-05
      3.11567819e-05 1.35742630e-05 1.30242788e-05 1.74152065e-05
      5.52164556e-06 8.54545488e-06 9.32840248e-06 -1.17721538e-06
      -1.24990856e-06 -1.24990856e-06 -1.24990856e-06 -1.24990856e-06
      -1.24990856e-06 -1.18880712e-06 -1.24990856e-06 -1.18880712e-06
      -2.04422622e-06 -1.98312478e-06 -1.92202356e-06 -1.92202356e-06
      -1.92202356e-06 -1.92202356e-06 -1.92202356e-06 -1.92202356e-06
      -1.86092211e-06 -1.86092211e-06 -1.92202356e-06 -1.82182498e-06
      -2.39884457e-06 -3.82911549e-06 -2.16534772e-06 -2.67635482e-06
      -2.78637572e-06 -2.63979859e-06 -2.35865559e-06 -2.22234735e-06
      2.71101521e-06 1.79094677e-05 2.94463807e-05 3.72691356e-05
      3.79892590e-05 3.48038702e-05 4.54037436e-05 4.23892889e-05
      4.00829376e-05 4.00892750e-05 3.70609087e-05 3.23149325e-05
      3.11126096e-05 2.90987773e-05 2.88794654e-05 2.71352692e-05
      2.47480602e-05 2.76374649e-05 2.86249688e-05 1.73632016e-05
      2.78009356e-05 1.29990331e-05 1.22660076e-05 1.28975607e-05
      1.32092382e-05 1.31283978e-05 1.41405890e-05 1.58172952e-05
      3.17123049e-05 3.10017385e-05 1.32567102e-05 -3.20399658e-06
      -1.27191265e-06 -1.24990856e-06 3.56877831e-06 1.18809994e-05
      -1.24990856e-06 -1.18880712e-06 -1.24990856e-06 -1.24990856e-06
      -1.24990856e-06 -1.18880712e-06 -1.18880712e-06 -1.18880712e-06
      -1.98312478e-06 -1.98312478e-06 -1.92202356e-06 -1.92202356e-06
      -1.86092211e-06 -1.92202356e-06 -1.86092211e-06 -1.86092211e-06
      -1.79982078e-06 -1.88292631e-06 -1.82182498e-06 -3.75819195e-06
      -4.31320723e-06 -1.98931457e-06 -2.29737293e-06 -2.69835914e-06
      -2.84875023e-06 -2.44667217e-06 -2.31464719e-06 4.21131381e-06
      -3.44523301e-06 3.97957810e-05 3.41787891e-05 4.82604082e-05
      4.62615171e-05 4.90259008e-05 5.11561921e-05 4.70739906e-05
      4.67518039e-05 4.36984956e-05 4.07724910e-05 3.59356636e-05
      3.34222605e-05 2.91391771e-05 2.75895309e-05 2.83034096e-05
      2.86359827e-05 3.15115285e-05 1.90546598e-05 1.39457616e-05
      1.14031545e-05 1.39372014e-05 2.75866259e-05 1.74743946e-05
      1.67247890e-05 2.22775634e-05 1.25603501e-05 1.53679557e-05
      1.35287346e-05 1.63797049e-05 1.16641804e-05 -4.45698151e-06
      -3.31830051e-06 -1.27191265e-06 -1.24990856e-06 7.40989137e-08
      -9.70727797e-07 -1.24990856e-06 -1.18880712e-06 -1.18880712e-06
      -1.24990856e-06 -1.18880712e-06 -1.18880712e-06 -1.18880712e-06
      -1.98312478e-06 -1.98312478e-06 -1.86092211e-06 -1.92202356e-06
      -1.92202356e-06 -1.92202356e-06 -1.86092211e-06 -1.86092211e-06
      -1.79982078e-06 -1.82182498e-06 -4.04424600e-06 -4.66527399e-06
      -2.42084866e-06 -2.34138110e-06 -2.97950214e-06 -2.67635482e-06
      -2.26700081e-06 -2.49431855e-06 -2.29264288e-06 9.97581992e-06
      -4.90085358e-06 1.86772868e-05 4.75501729e-05 4.34113681e-05
      3.98302291e-05 4.47048005e-05 4.18864693e-05 2.31836311e-05
      1.60278341e-05 1.44571695e-05 1.93565120e-05 2.38565844e-05
      2.40558275e-05 2.42478491e-05 2.51458732e-05 2.47191438e-05
      2.68681142e-05 2.47393691e-05 2.20381171e-05 1.99345777e-05
      1.83889460e-05 2.03187647e-05 2.14817119e-05 2.33736246e-05
      2.91721153e-05 2.60143770e-05 2.72280486e-05 7.16754948e-06
      1.11410427e-05 1.48729314e-05 1.60173495e-05 -4.98136205e-06
      -4.64220739e-06 -3.40631709e-06 -1.24990856e-06 -1.02552747e-06
      1.53107449e-05 -1.03081743e-06 -1.18880712e-06 -1.24990856e-06
      -1.18880712e-06 -1.18880712e-06 -1.18880712e-06 -1.18880712e-06
      -1.98312478e-06 -1.92202356e-06 -1.86092211e-06 -1.86092211e-06
      -1.86092211e-06 -1.86092211e-06 -1.86092211e-06 -1.79982078e-06
      -1.79982078e-06 -3.93913660e-06 -4.64326968e-06 -4.55525333e-06
      -2.20571815e-06 -2.93549374e-06 -2.67635482e-06 -3.00641750e-06
      -2.59579019e-06 -2.73636442e-06 -3.01496652e-06 4.76841024e-06
      -9.15358669e-07 -6.92617874e-08 1.68301794e-05 1.67660182e-05
      2.17119123e-05 4.14492388e-06 -8.42666032e-06 -8.11951031e-06
      -1.52909968e-06 7.60649982e-06 7.50136769e-06 7.89194200e-06
      8.11097016e-06 6.80038829e-06 4.20682727e-06 9.00826365e-07
      6.91681043e-06 7.53022960e-06 4.87763373e-06 1.81571959e-05
      1.53826459e-05 1.41112332e-05 1.54686622e-05 1.75177047e-05
      1.92189309e-05 1.19932320e-05 3.06130642e-05 -3.14212889e-06
      1.11502795e-05 7.16729164e-06 1.43595971e-05 1.53864603e-05
      -5.46553565e-06 -4.85859255e-06 -3.51633798e-06 -1.18880712e-06
      -1.10981227e-06 6.55358099e-06 -1.18880712e-06 -1.24990856e-06
      -1.18880712e-06 -1.18880712e-06 -1.18880712e-06 -1.18880712e-06
      -1.92202356e-06 -1.86092211e-06 -1.82182498e-06 -1.88292631e-06
      -1.82182498e-06 -1.82182498e-06 -1.82182498e-06 -1.79982078e-06
      -3.05896970e-06 -4.53324901e-06 -5.96843120e-06 -2.22772223e-06
      -2.60179308e-06 -3.17753961e-06 -2.58106206e-06 -2.98441319e-06
      -2.39775272e-06 -6.86643489e-06 -1.23242580e-05 -3.76612661e-06
      3.83344741e-06 -3.44120764e-07 1.75680179e-05 5.06753031e-06
      2.15931323e-06 1.06825030e-06 -1.16476849e-05 -2.44460625e-05
      -2.53356684e-05 -2.61791101e-05 -2.77785857e-05 -2.83686040e-05
      -2.81139073e-05 -2.77583385e-05 -2.71086301e-05 -2.73702608e-05
      -2.20631173e-05 -2.04797398e-05 -2.34797390e-05 -2.29060661e-05
      -1.81726828e-05 -2.20963443e-06 2.97947486e-06 9.54516599e-06
      1.38968426e-05 1.68218212e-05 9.57752127e-06 -9.16001136e-06
      8.53714937e-06 1.16142464e-05 1.30227772e-05 1.44695987e-05
      -3.61718526e-06 -5.54072176e-06 -4.72656757e-06 -3.93932851e-06
      -1.03081743e-06 1.08221120e-05 -1.24990856e-06 -1.24990856e-06
      -1.18880712e-06 -1.18880712e-06 -1.18880712e-06 -1.18880712e-06
      -1.98312478e-06 -1.86092211e-06 -1.82182498e-06 -1.82182498e-06
      -1.82182498e-06 -1.79982078e-06 -1.79982078e-06 -1.91475283e-06
      -4.29120291e-06 -5.70438124e-06 -1.98567636e-06 -2.52616246e-06
      -2.51868755e-06 -2.99679914e-06 -2.43558202e-06 -5.18177421e-06
      -1.24754497e-05 -1.07076830e-05 -1.28300853e-05 1.50718288e-05
      2.48507672e-06 5.33604680e-06 -6.60596243e-06 -9.32942748e-06
      -1.24010267e-05 -1.21002104e-05 -1.12739981e-05 -2.48603119e-05
      -2.61263485e-05 -2.63784204e-05 -2.73179521e-05 -2.74362519e-05
      -2.78940406e-05 -2.73740043e-05 -2.67663581e-05 -2.84711368e-05
      -2.36671294e-05 -2.03551444e-05 -2.11919269e-05 -2.13418734e-05
      -2.32865423e-05 -2.38861903e-05 -7.11327948e-06 -1.05806857e-05
      -1.04067976e-05 -1.13371216e-05 -1.21678058e-05 -2.23444458e-05
      -2.28362546e-06 1.48037880e-05 1.23002146e-05 1.14218637e-05
      -2.03288505e-06 -5.18865500e-06 -5.49671313e-06 -4.26939096e-06
      -2.95816267e-06 -3.98858504e-07 -9.64426135e-07 -1.18880712e-06
      -1.18880712e-06 -1.18880712e-06 -1.18880712e-06 -1.18880712e-06
      -1.92202356e-06 -1.92202356e-06 -1.88292631e-06 -1.82182498e-06
      -3.36211679e-06 -4.41831708e-06 -2.65798349e-06 -3.93913660e-06
      -5.41832696e-06 -3.34993501e-06 -2.63618335e-06 -2.74620402e-06
      -3.30869420e-06 -2.29684811e-05 -2.86778977e-05 -9.78631761e-06
      -1.18001708e-05 -1.00411526e-05 8.38837241e-06 1.19242222e-05
      1.78809591e-06 -1.06995421e-05 -3.12271595e-06 -3.45954959e-06
      -1.01949845e-05 -1.19003571e-05 -1.34833426e-05 -2.69299398e-05
      -2.84160178e-05 -2.85360657e-05 -2.84458929e-05 -2.88254869e-05
      -2.91459310e-05 -2.31519389e-05 -2.54938441e-05 -2.23097104e-05
      -2.18120858e-05 -2.03331401e-05 -2.04046864e-05 -2.10579619e-05
      -2.19827616e-05 -2.24256128e-05 -2.26704251e-05 -6.28893667e-06
      -9.54599182e-06 -1.02802987e-05 -1.24138214e-05 -1.29294640e-05
      -5.78164827e-06 -6.21011623e-06 -5.22304026e-06 4.63657307e-06
      -3.06603079e-06 -2.35502807e-06 -5.38669246e-06 -5.54072176e-06
      -3.60926583e-06 -1.15382068e-06 9.86684699e-06 -1.18880712e-06
      -1.18880712e-06 -1.18880712e-06 -1.18880712e-06 -1.18880712e-06
      -1.92202356e-06 -1.88292631e-06 -1.79982078e-06 -4.00023782e-06
      -3.20808772e-06 -3.34502374e-06 -3.80711140e-06 -4.56016414e-06
      -6.12246049e-06 -2.13970566e-06 -3.05917365e-06 -2.69159082e-05
      -2.79633186e-05 -2.99143940e-05 -1.02458644e-05 -9.50153662e-06
      -1.37035995e-05 -1.36882709e-05 2.38196553e-05 1.74750257e-05
      3.85893554e-06 -1.40759357e-05 -5.78703794e-06 -6.57456985e-06
      -1.00768402e-05 -1.15336961e-05 -1.54550016e-05 -2.51660113e-05
      -2.57697538e-05 -2.72790476e-05 -2.79079577e-05 -2.76496230e-05
      -2.88826850e-05 -2.68032873e-05 -2.79872256e-05 -2.76697410e-05
      -2.61404602e-05 -2.11109236e-05 -1.96822366e-05 -2.01598741e-05
      -2.03997770e-05 -2.09678019e-05 -2.23719853e-05 -2.31476661e-05
      -8.67060226e-06 -9.52109531e-06 -9.89422369e-06 -1.26446121e-05
      -9.46513046e-06 -1.73078806e-05 -8.02606246e-06 -5.68387168e-06
      -2.19619105e-05 -2.02079464e-05 -4.43089493e-06 -5.41360760e-06
      -4.97352448e-06 -3.97035456e-06 8.77335151e-06 -1.46524314e-06
      -1.21081132e-06 -1.21081132e-06 -1.21081132e-06 -1.21081132e-06
      -1.94402764e-06 -1.94402764e-06 -3.75819195e-06 -3.31810838e-06
      -3.62616697e-06 -2.61888613e-06 -3.79001835e-06 -5.61636443e-06
      -2.88784736e-06 -1.67751696e-05 -3.00331612e-05 -2.97663446e-05
      -2.84501766e-05 -1.03560842e-05 -1.13250962e-05 -1.06989355e-05
      -1.32120331e-05 -1.44688629e-05 5.17128547e-06 1.67199632e-05
      -9.21695937e-06 -9.63123966e-06 -5.27987322e-06 -8.76241756e-06
      -1.76347876e-05 -2.33063365e-05 -2.40306726e-05 -2.61863133e-05
      -2.69295451e-05 -2.65870840e-05 -2.70510573e-05 -2.76714236e-05
      -2.58120726e-05 -2.83425961e-05 -2.87194398e-05 -2.75174789e-05
      -2.63131496e-05 -2.50139365e-05 -2.38909597e-05 -2.27846813e-05
      -2.06005807e-05 -2.07182802e-05 -2.12786272e-05 -2.15110558e-05
      -2.00428804e-05 -8.03851344e-06 -8.91843138e-06 -1.22394258e-05
      -5.45925786e-06 -1.86734524e-05 -1.56326878e-05 -1.90929804e-05
      -2.31291815e-05 -2.42636997e-05 -2.24785945e-05 -2.45029787e-05
      -2.12846971e-05 -5.07550158e-06 5.51688026e-06 -4.84149950e-06
      -2.68509075e-06 -1.23281552e-06 -1.18880712e-06 -1.18880712e-06
      -1.92202356e-06 -1.94402764e-06 -3.47213768e-06 -3.20808772e-06
      -3.97352642e-06 -4.32559318e-06 -4.96862549e-06 -9.18802743e-06
      -3.02730641e-05 -2.73416663e-05 -2.96247017e-05 -2.91963788e-05
      -9.91727393e-06 -9.93052981e-06 -1.22988149e-05 -1.12861972e-05
      -1.04008977e-05 2.50713288e-06 1.28670729e-06 1.66488553e-05
      -9.85805218e-06 -6.18324657e-06 -5.39394296e-06 -1.14735958e-05
      -2.19783178e-05 -2.43182712e-05 -2.42334172e-05 -2.46864984e-05
      -2.65545295e-05 -2.74398244e-05 -2.80992881e-05 -2.93779176e-05
      -2.92561126e-05 -2.92300010e-05 -2.99221792e-05 -2.93333633e-05
      -2.81519060e-05 -2.77656636e-05 -2.74733356e-05 -2.53574053e-05
      -2.26962675e-05 -2.04096104e-05 -2.05422475e-05 -2.10462003e-05
      -2.20543097e-05 -6.91032983e-06 -8.66110804e-06 -9.79300239e-06
      -6.50153697e-06 -1.94491349e-05 -1.72014716e-05 -2.06561235e-05
      -2.24438209e-05 -2.58541604e-05 -2.47340904e-05 -2.21690843e-05
      -2.48275064e-05 -2.46418549e-05 -1.42765857e-05 -2.24978321e-05
      -4.72054489e-06 -3.92971015e-06 -1.44323894e-06 -1.21081132e-06
      -1.94402764e-06 -2.14206511e-06 -3.23009181e-06 -3.49414177e-06
      -2.89532204e-06 -6.02627779e-06 -1.67728904e-05 -3.26770532e-05
      -2.75939547e-05 -3.13149394e-05 -3.62647006e-05 -9.44280055e-06
      -1.02253325e-05 -9.47806075e-06 -1.42439103e-05 -1.02066970e-05
      -9.61559817e-06 8.65834409e-06 5.53788823e-06 1.82498970e-05
      -1.14660497e-05 -1.03276343e-05 -1.24529961e-05 -2.05632714e-05
      -2.25303866e-05 -2.25074054e-05 -2.27298060e-05 -2.29431898e-05
      -2.29229663e-05 -2.24907526e-05 -2.43403174e-05 -1.01622991e-05
      -1.11770669e-05 -1.01314754e-05 -1.10105902e-05 8.11610334e-06
      -7.26336157e-06 1.45292609e-06 1.99612009e-06 3.08815788e-06
      3.36748667e-06 -4.49139770e-06 -1.55727848e-05 -2.02088213e-05
      -2.05202432e-05 -9.61261594e-06 -6.95188146e-06 -7.05103002e-06
      -1.04465771e-05 -1.98020334e-05 -1.83905249e-05 -2.17943798e-05
      -2.39152723e-05 -2.17317684e-05 -2.87389867e-05 -2.55482446e-05
      -1.93043215e-05 -2.46046966e-05 -1.25801944e-05 -2.09712416e-05
      -2.27715009e-05 -1.71836200e-05 -4.44542411e-06 -1.42123474e-06
      -1.94402764e-06 -5.15663669e-06 -3.26918894e-06 -1.03541815e-05
      -1.89443854e-05 -1.59174942e-05 -2.97200550e-05 -2.76475803e-05
      -3.30278053e-05 -4.17816555e-05 -9.11958887e-06 -1.05801664e-05
      -9.06596233e-06 -1.66356713e-05 -1.11943436e-05 -1.16363244e-05
      -1.06382367e-05 1.79922517e-05 6.87747979e-06 1.76820740e-05
      -1.32551286e-05 -1.21776038e-05 -1.69034247e-05 -2.36646119e-05
      -2.53100607e-05 -2.85741207e-05 -2.87889543e-05 -2.83777681e-05
      -2.77465406e-05 -2.76512947e-05 -2.90152857e-05 -1.62443712e-06
      -3.13242208e-06 -2.08639267e-06 4.41829752e-06 2.07001431e-05
      -4.88627484e-06 -1.88421436e-05 -1.66309037e-05 -1.61453609e-05
      -1.56625301e-05 1.96177530e-06 6.41895849e-06 -1.52781722e-05
      -2.03764430e-05 -2.11611314e-05 -6.78666720e-06 -7.01413001e-06
      -1.07707501e-05 -1.87353689e-05 -1.69560717e-05 -2.17958695e-05
      -2.42921105e-05 -2.34811687e-05 -2.17881625e-05 -3.09532406e-05
      -2.56142575e-05 -2.07272697e-05 -1.12716243e-05 -2.36145097e-05
      -2.13549301e-05 -2.08584534e-05 -9.35394382e-06 -1.42123474e-06
      -1.94402764e-06 -5.24824918e-06 -1.90742667e-05 -1.89710954e-05
      -1.79335075e-05 -1.38474461e-05 -2.91988054e-05 -3.45152985e-05
      -4.29830943e-05 -1.15049661e-05 -9.81195990e-06 -1.02941121e-05
      -3.49410584e-05 -8.63764035e-06 -8.86044927e-06 -8.96960046e-06
      -1.02921504e-05 3.19939545e-06 -7.00831970e-06 1.48213826e-06
      -2.05163542e-05 -2.14075535e-05 -2.19506364e-05 -2.74234280e-05
      -2.73061778e-05 -2.77099316e-05 -2.76353094e-05 -2.79748292e-05
      -3.03794277e-05 -2.71169429e-05 -1.51103777e-05 1.72878699e-05
      1.19574779e-05 2.70830951e-05 2.75100647e-05 4.80416347e-05
      1.97170284e-05 1.69481500e-05 1.97145782e-05 1.15374642e-05
      3.84578334e-06 6.55066697e-06 4.41709562e-06 -2.65650342e-05
      -2.26448337e-05 -2.02540359e-05 -5.95518259e-06 -6.50815809e-06
      -9.91152774e-06 -1.59981209e-05 -1.63229033e-05 -2.13236817e-05
      -2.47349617e-05 -2.39020155e-05 -2.38236171e-05 -2.27962719e-05
      -3.20190593e-05 -2.11523802e-05 -1.94556269e-05 -2.38056964e-05
      -2.08048259e-05 -2.11568931e-05 -2.25390722e-05 -1.44323894e-06
      -1.94402764e-06 -1.68944007e-05 -1.80612460e-05 -1.76089816e-05
      -1.51127542e-05 -2.15513228e-05 -3.27994603e-05 -4.23469137e-05
      -2.93578832e-05 -9.00956729e-06 -9.83887549e-06 -1.04481414e-05
      -1.14878731e-05 -1.02503082e-05 -9.09434857e-06 -7.84598524e-06
      -8.79423806e-06 -5.51291851e-06 -1.76226949e-05 -1.95066987e-05
      -2.22472627e-05 -2.22076051e-05 -2.20961811e-05 -2.74385693e-05
      -2.67739269e-05 -2.66900497e-05 -2.62446792e-05 -2.60839897e-05
      -3.12546799e-05 -1.31078586e-05 -1.35971004e-05 1.79220970e-05
      1.35380542e-05 3.16811165e-05 2.86025297e-05 2.79939904e-05
      2.90743228e-05 1.84848050e-05 2.16852641e-05 1.13357573e-05
      5.02542798e-06 9.75393050e-06 -1.98277321e-05 -2.76426654e-05
      -2.70797991e-05 -2.38190587e-05 -7.02423404e-06 -5.54744884e-06
      -6.14821147e-06 -1.38393434e-05 -1.53120636e-05 -2.21374739e-05
      -2.42838451e-05 -2.52181835e-05 -2.43544855e-05 -2.35471816e-05
      -4.11525180e-05 -2.16094049e-05 -1.67587004e-05 -2.39624933e-05
      -1.95450521e-05 -2.09340833e-05 -2.14993415e-05 -1.65089477e-06
      -2.92459708e-06 -1.88762297e-05 -1.83549801e-05 -1.81206124e-05
      -1.28764950e-05 -2.19179201e-05 -3.83668339e-05 -5.11044018e-05
      -1.27367548e-05 -9.18923888e-06 -9.86942905e-06 -1.04786950e-05
      -1.06622028e-05 -1.18732605e-05 -1.00128536e-05 -7.18456022e-06
      -1.63882087e-05 -9.92214973e-06 -1.68743973e-05 -2.09520476e-05
      -1.97408590e-05 -2.19092799e-05 -2.33799092e-05 -2.86056056e-05
      -2.78076022e-05 -2.52858008e-05 -2.08465681e-05 -2.37340919e-05
      -3.02069111e-05 -1.35401306e-05 -1.08742279e-05 2.23252482e-05
      2.27500295e-05 3.61548555e-05 3.48969152e-05 1.26685736e-05
      2.71391145e-05 2.18700025e-05 2.71190147e-05 1.36030394e-05
      8.81440792e-06 2.29505986e-06 -2.52744139e-05 -2.55227551e-05
      -2.72897832e-05 -2.64318460e-05 -2.34117779e-05 -2.19697413e-05
      -2.49669083e-05 -1.32179493e-05 -1.64178527e-05 -2.10473645e-05
      -2.25422209e-05 -2.41124399e-05 -2.52745776e-05 -2.47093194e-05
      -2.34927975e-05 -4.22734156e-05 -1.74364704e-05 -2.29667694e-05
      -1.82165004e-05 -2.37672230e-05 -2.00387622e-05 -4.92266554e-06
      -6.74335206e-06 -1.75256719e-05 -1.74521847e-05 -1.68704573e-05
      -1.29892833e-05 -1.69163486e-05 -4.39794858e-05 -4.20617289e-05
      -1.03684697e-05 -1.41755563e-05 -1.18048238e-05 -9.95273876e-06
      -9.97838106e-06 -1.01169044e-05 -1.04271612e-05 -1.79614490e-05
      -1.77540114e-05 -2.19707654e-05 -2.42244023e-05 -2.11089773e-05
      -2.29873222e-05 -1.49134657e-05 -2.12813957e-05 -2.96698418e-05
      -3.15820434e-05 -3.14887729e-05 -2.32800503e-05 -2.24458581e-05
      -6.32205956e-06 7.39130655e-06 5.90866921e-06 2.12817722e-05
      2.14818101e-05 3.37001984e-05 3.82461585e-05 1.55127109e-05
      4.85387391e-05 4.37008384e-05 2.21806531e-05 2.41087619e-05
      2.05853594e-05 6.65866310e-06 -1.00812686e-05 -1.07370097e-05
      -1.77204183e-05 -2.29064281e-05 -2.48553170e-05 -2.06084478e-05
      -2.49030727e-05 -1.76231697e-05 -1.31266643e-05 -1.37419656e-05
      -2.18513633e-05 -2.51802321e-05 -2.50539233e-05 -2.61192090e-05
      -1.76017402e-05 -3.17646300e-05 -1.92290991e-05 -2.70060555e-05
      -2.15144955e-05 -2.22062426e-05 -3.30767143e-05 -5.27196471e-06
      -8.44342594e-06 -1.81783344e-05 -1.91182753e-05 -1.85336885e-05
      -1.74121669e-05 -1.60925447e-05 -3.34233009e-05 -3.51614981e-05
      -9.96153994e-06 -1.72656328e-05 -1.63068726e-05 -1.22164165e-05
      -9.40252812e-06 -7.34713831e-06 -1.80302959e-05 -1.76066151e-05
      -2.20267957e-05 -2.58614255e-05 -2.85680890e-05 -2.19098602e-05
      -1.45965969e-05 -1.39081421e-05 -2.59207463e-05 -2.27622058e-05
      -1.61557491e-05 -1.75474725e-05 -1.58793173e-05 -1.16703459e-05
      1.12202979e-05 1.24835733e-05 1.56724109e-05 1.80615298e-05
      2.52839782e-05 1.64229532e-05 4.49375148e-05 4.94498163e-05
      5.57738131e-05 4.54537367e-05 1.85322315e-05 2.39707879e-05
      1.98180369e-05 1.95179364e-05 9.40091013e-06 -9.48941306e-06
      -1.41111186e-05 -1.50126752e-05 -1.81210889e-05 -1.67590815e-06
      -2.10863309e-05 -2.46067248e-05 -1.16772799e-05 -1.67585622e-05
      -2.63537368e-05 -3.22834021e-05 -2.69536558e-05 -2.66844654e-05
      -2.05563119e-05 -2.64820392e-05 -1.03684069e-05 -2.26903339e-05
      -2.21773880e-05 -2.42760871e-05 -2.79511164e-06 -5.07392679e-06
      -5.55547922e-06 -7.82195275e-06 -1.80069037e-05 -1.96039728e-05
      -1.12980706e-05 -1.39160475e-05 -6.01121974e-06 -2.71496938e-05
      -1.11825830e-05 -1.89532639e-05 -2.16258122e-05 -1.39022804e-05
      -9.08294987e-06 -1.93254582e-05 -1.86960206e-05 -1.89581824e-05
      -2.43299455e-05 -2.67231280e-05 -2.87952662e-05 -2.34191648e-05
      -1.70099393e-05 -1.54860791e-05 -1.84092369e-05 -1.59353021e-05
      -1.25357255e-05 -1.28236015e-05 -1.32318291e-05 -2.40690360e-06
      -8.01395709e-06 2.29931466e-05 2.41470061e-05 4.66183374e-05
      4.62472744e-05 6.24324894e-05 5.66149065e-05 4.43869285e-05
      5.07017030e-05 4.73338550e-05 3.35699951e-05 1.97953486e-05
      2.17522484e-05 9.98937958e-06 5.72069985e-06 9.67337746e-06
      6.38443817e-06 -5.65883784e-06 -9.71297686e-06 -4.26345923e-06
      -1.53438232e-05 -7.97906796e-06 -1.00949073e-05 -1.79098479e-05
      -2.20644870e-05 -2.94724632e-05 -2.41493453e-05 -2.81098419e-05
      -1.42090603e-05 -2.06149543e-05 -1.08456479e-05 -2.21904920e-05
      -1.22613983e-05 -3.10317000e-06 -2.83911982e-06 -4.68747021e-06
      -5.34935589e-06 -1.50256219e-05 -8.99703355e-06 -5.22646224e-06
      -1.35906630e-05 -1.90737446e-05 -7.46919704e-06 -4.98058762e-06
      -2.41120924e-05 -2.12712403e-05 -1.47700102e-05 -1.44945197e-05
      -2.12354407e-05 -2.63130223e-05 -2.48921333e-05 -2.30229816e-05
      -1.09312750e-05 -2.85934802e-05 -2.14895081e-05 -1.69320429e-05
      -1.06254183e-05 3.27798080e-06 -8.69309224e-06 -4.66050142e-06
      -7.92826995e-06 -8.62722936e-06 -2.78927223e-06 -4.52026796e-07
      1.35794808e-05 5.44200384e-06 1.53276560e-05 2.06778805e-05
      2.60992038e-05 3.62099127e-05 3.28465030e-05 2.42986935e-05
      1.04620094e-05 2.29650741e-05 2.32995681e-05 2.41160888e-05
      1.27318999e-05 1.30859453e-05 1.18065755e-05 1.03061511e-05
      -1.08599613e-06 1.57977183e-06 -9.84610051e-06 -3.25833594e-06
      -7.97834946e-06 1.83605716e-05 -1.48181300e-06 -1.85824422e-06
      -1.96295587e-05 -2.55763880e-05 -1.65742731e-05 -1.87294390e-05
      1.56100072e-07 -2.01597177e-05 -1.30741710e-05 -2.98380019e-05
      -2.13498652e-06 -3.44561840e-06 -2.81711573e-06 -4.92951585e-06
      -4.66820302e-06 -4.46909644e-06 -8.77049297e-06 -1.48440104e-05
      -1.04026885e-05 -8.12311191e-06 -7.24870119e-07 1.18002354e-05
      1.51756813e-05 1.38865116e-05 -2.13749063e-05 -1.50198639e-05
      -3.05189351e-05 -2.95773916e-05 -2.52621649e-05 -2.18123423e-05
      3.02042304e-06 -2.35841253e-05 -1.57107661e-05 8.42802547e-06
      1.22548997e-07 1.03808652e-05 3.04292530e-06 2.53561802e-06
      -5.06275956e-06 -5.25434507e-06 -5.75706963e-06 -7.25224709e-06
      -6.65474954e-06 7.31480213e-06 7.09582582e-06 1.22235633e-05
      1.04280034e-05 1.24258431e-05 3.01017735e-06 9.38027824e-06
      1.96417168e-05 1.10156980e-05 1.73856170e-05 1.98765665e-05
      2.28970748e-05 1.02684098e-05 -7.27188080e-06 -4.18146465e-06
      1.04564231e-06 -1.27396843e-05 8.17886871e-07 -3.18313323e-06
      1.09727616e-05 1.47425144e-05 -9.26977918e-06 -9.08618495e-06
      -1.70709591e-05 -1.81110063e-05 -1.49594052e-05 -1.10943183e-05
      1.35329105e-06 -8.06816479e-06 -1.09435241e-05 -3.75873810e-06
      -2.32340585e-06 -3.24758093e-06 -2.77310733e-06 -4.33540345e-06
      -3.71670581e-06 -5.13449822e-06 -5.41466488e-06 -3.54922167e-06
      -1.68648476e-05 -1.09484290e-05 -1.22813390e-06 7.36709762e-06
      1.79137223e-05 -1.17801017e-06 5.01943077e-06 -1.74847646e-05
      -3.83306760e-05 -3.43581378e-05 -3.76346361e-05 -3.79417870e-05
      -4.99458065e-06 -1.84647943e-05 -1.53332658e-05 -1.80352743e-06
      9.35138723e-06 1.10238116e-05 9.20024104e-06 1.27587430e-06
      4.22339838e-07 9.55978157e-06 7.50417894e-06 2.46306377e-06
      8.01634656e-07 -4.19536536e-06 3.99737564e-06 5.00849001e-06
      3.67550319e-06 3.26971804e-06 5.06271090e-06 7.75381159e-06
      -1.02785737e-06 5.52582651e-06 5.38476797e-06 8.20374316e-06
      7.51561538e-06 1.10924257e-05 1.20092145e-05 4.79581922e-06
      -8.42636473e-06 6.52219069e-06 3.67819234e-06 1.43983589e-05
      1.10189376e-07 1.00015341e-05 -3.50343566e-06 -1.01600772e-05
      -1.15076937e-05 -8.06073967e-06 -8.53868096e-06 -9.56277017e-06
      -1.14653185e-05 -1.46906596e-05 -2.34626586e-05 -3.72434806e-06
      -2.20099901e-06 -2.77310733e-06 -2.92713662e-06 -3.69728264e-06
      -3.43808483e-06 -4.29036027e-06 -4.64733785e-06 -5.45335524e-06
      -4.37651261e-06 1.04408048e-06 -1.89396735e-06 5.62674313e-06
      2.47073058e-05 -2.51892970e-07 -1.58402672e-05 -4.83664280e-06
      -2.30089281e-05 -3.00974752e-05 -3.97040567e-05 -3.68532528e-05
      -1.08959193e-05 -2.57557804e-05 -8.40730809e-06 -6.75148840e-06
      -1.04083056e-05 2.38209122e-06 1.22712245e-05 1.36787939e-05
      -8.48968921e-06 -5.22770642e-06 2.40990994e-06 -2.50374001e-06
      -7.00525061e-06 1.27719943e-06 2.91016795e-06 3.90713649e-06
      5.09779568e-07 4.72313604e-06 3.52780899e-06 6.55841950e-06
      8.81874621e-06 5.22248183e-06 3.21436733e-06 1.85410670e-06
      4.87902298e-06 1.29017010e-07 2.04189723e-06 1.31099259e-05
      2.01684520e-06 7.84714393e-06 1.77086458e-05 4.64024242e-06
      1.39264021e-05 2.48472061e-05 -3.63600975e-06 -1.23619911e-05
      -1.42954914e-05 -1.00252582e-05 -2.06434993e-06 -1.70484836e-05
      -1.07686910e-05 -1.11181953e-05 -3.19806622e-06 -3.63440427e-06
      -2.50905737e-06 -2.79511164e-06 -3.76329513e-06 -2.33302399e-06
      -3.54474059e-06 -4.76085734e-06 -4.07775178e-06 -4.82953146e-06
      -5.16372756e-06 -3.96630958e-06 -7.78446793e-06 -1.50651158e-05
      -5.02493367e-06 7.10355550e-07 -2.24665928e-06 -2.00684499e-05
      -1.23382233e-05 -1.26176028e-05 -1.98391590e-05 -3.42465355e-05
      -2.89815162e-05 -1.70135809e-05 -1.12272164e-05 2.02826459e-06
      -1.52569974e-05 1.69842826e-06 2.75256843e-05 3.11370718e-06
      -4.69546512e-06 2.14803149e-05 3.00159336e-05 1.03078910e-05
      -2.60681486e-06 -4.77262859e-07 3.50855544e-06 9.16916633e-06
      7.87889985e-06 6.39166365e-06 4.40169379e-06 -1.98704402e-06
      -7.74305306e-07 6.01464581e-06 5.86910892e-06 2.06731329e-05
      1.95469274e-05 -1.17292739e-05 -9.74600425e-06 9.88703960e-06
      -5.06625520e-06 -4.55115605e-06 2.62983986e-06 2.45569972e-05
      7.69514008e-06 -6.97601581e-06 -8.60265118e-07 -8.59139891e-06
      -1.00154675e-05 -3.60575586e-06 4.78859556e-06 -1.47858727e-05
      -1.40385346e-05 -3.93605806e-05 -1.47417131e-06 -7.27379484e-06
      -3.60926583e-06 -4.18137415e-06 -3.82930739e-06 -1.98095722e-06
      -4.12428244e-06 -4.35609900e-06 -4.17908950e-06 -5.37222559e-06
      -1.69538089e-05 -1.74595389e-05 -1.48273439e-05 -1.36977387e-05
      -1.08380191e-05 9.75877811e-07 -5.65625942e-06 -4.58214345e-06
      -1.28343845e-05 -1.51789909e-05 -1.68820152e-05 -1.05113932e-05
      -5.84880172e-06 -2.17708912e-05 -1.34282236e-05 -1.65675774e-05
      -1.72168948e-05 -1.43257876e-05 -1.23982163e-05 -2.14797933e-06
      7.32939043e-06 2.31612121e-05 1.72153887e-05 1.13994720e-05
      -4.44167057e-07 -3.39177313e-06 -5.00004626e-06 -5.38860796e-08
      2.58151613e-06 1.13124215e-05 1.16080682e-05 6.61719059e-06
      6.23299138e-06 2.02708270e-05 2.81152170e-05 4.01845246e-05
      3.87364817e-05 1.43404341e-05 3.77374590e-06 5.46376623e-06
      -3.92473657e-06 -5.71317923e-06 -2.78228981e-06 7.77161677e-06
      -6.45776026e-06 -4.03886406e-06 -5.72909494e-06 -1.03736911e-05
      -1.10852125e-05 -9.95815390e-06 4.86590295e-07 -2.82242727e-05
      -2.59726166e-05 -3.06829716e-05 -1.00155239e-05 -8.71077918e-06
      -3.28354486e-06 -3.52124925e-06 -3.49924494e-06 -1.14970999e-06
      -5.28336568e-06 -5.22226446e-06 -5.04525497e-06 -4.69752968e-06
      -1.62985943e-05 -1.75410569e-05 -1.74373363e-05 -2.34224735e-05
      -2.34057334e-05 -1.16077135e-05 1.17819991e-06 -2.05621291e-06
      -9.10267681e-06 -8.14063333e-06 -8.64352023e-06 -1.56779497e-05
      -2.13887433e-05 -1.62068754e-05 -1.64003959e-05 -1.26715895e-05
      -1.40988432e-05 -8.30475255e-06 -7.61762703e-06 2.29009561e-06
      -7.68481470e-07 2.99733665e-06 4.52938275e-06 2.74267768e-06
      3.72201544e-06 4.13342514e-06 4.90393268e-06 1.27375806e-05
      1.64100747e-05 1.90869650e-05 2.22612325e-05 1.57197737e-05
      1.53736783e-05 2.38465891e-05 2.21828577e-05 1.97797781e-05
      2.10233084e-05 1.63646273e-05 4.11753035e-06 3.20344179e-06
      3.52442044e-06 1.66993516e-06 -1.80297582e-06 -2.16749822e-06
      -6.39122300e-06 -6.58706222e-06 -1.47823002e-05 -1.09961666e-05
      -1.24577218e-05 -6.18191370e-06 -2.75995512e-06 -3.63205945e-05
      -2.15676391e-05 -1.31116540e-05 -7.71904615e-06 -8.65933816e-06
      -4.32672005e-06 -2.72909915e-06 -2.24500741e-06 -1.18880712e-06
      -6.26543988e-06 -6.38134816e-06 -6.20433821e-06 -6.14953160e-06
      -1.58247331e-05 -1.68970491e-05 -1.73273147e-05 -2.49009790e-05
      -2.75245020e-05 -3.13161618e-05 -1.00592724e-05 -2.66078996e-06
      -7.77305740e-06 -9.35087974e-06 -6.95591552e-06 -9.41081453e-06
      -1.96757992e-05 -1.46452039e-05 -1.47564533e-05 -1.59012779e-05
      -1.55432444e-05 -1.26394216e-05 -1.37744009e-05 -1.08197601e-05
      -6.84588576e-06 -4.95612176e-06 -5.27436305e-06 -3.87560704e-06
      -2.31469994e-06 -3.34864490e-06 -8.97119719e-07 5.95644815e-06
      9.31330396e-06 8.44999340e-06 9.31210434e-06 1.30238379e-06
      3.05550407e-06 1.43485067e-05 1.08422519e-05 1.21235216e-05
      9.08632046e-06 6.36143068e-06 -8.36978779e-06 -9.37831373e-06
      -8.42430745e-06 -7.07169829e-06 -3.44910904e-06 -1.77035429e-06
      -2.50074959e-06 -6.74192006e-06 -1.73228163e-05 -1.65340061e-05
      -9.83871905e-06 -8.74416401e-06 -7.92526953e-06 -3.36946177e-05
      -2.18119476e-05 -2.35644075e-06 -2.16412809e-06 -2.44149896e-06
      -3.17072841e-06 -1.69490306e-06 -1.21081132e-06 -1.18880712e-06
      -7.65634013e-06 -7.59523891e-06 -7.59523891e-06 -6.66797177e-06
      -1.82588083e-05 -1.90568462e-05 -2.11480838e-05 -2.32537059e-05
      -1.57840259e-05 -1.07190799e-05 -1.04383853e-05 -2.77987124e-06
      2.63424056e-07 -8.29605870e-06 -4.94510550e-06 -1.76981928e-06
      -1.15567573e-05 -8.90316460e-06 -1.52985886e-05 -1.84468699e-05
      -1.97954869e-05 -1.58404782e-05 -6.95203425e-06 -8.25364987e-06
      -5.34320588e-06 -5.90773743e-06 -5.95999109e-06 -7.18069941e-06
      -8.41190649e-06 -1.11102854e-05 -1.46179955e-05 -9.85702445e-06
      -6.76676336e-06 -6.53837924e-06 -6.03616945e-06 -1.29140444e-05
      -1.10009069e-05 2.73529031e-06 4.85504779e-06 5.73734724e-06
      4.66565234e-06 3.68981205e-06 -8.89555304e-06 -1.00465886e-05
      -9.02309421e-06 -8.11836617e-06 -6.04164507e-06 -5.61553225e-06
      -1.59339140e-06 -1.14226414e-05 -2.02340361e-05 -1.30919980e-05
      -1.14191853e-05 -6.02359478e-06 -4.48125047e-06 -1.36499784e-05
      -2.02061037e-05 -2.94647930e-06 -2.50751145e-06 -1.29882801e-06
      -1.07289884e-06 -1.18880712e-06 -1.18880712e-06 -1.18880712e-06
      -9.04724038e-06 -8.93133165e-06 -8.93133165e-06 -8.52250560e-06
      -8.63841433e-06 -8.25159168e-06 -1.78351147e-05 -2.66903044e-05
      -2.51960537e-05 -6.53881898e-06 -1.56426267e-05 -1.39111826e-05
      -2.16601002e-05 -9.91007346e-06 -1.62378728e-05 -7.13888085e-06
      -5.69658869e-06 -7.34670675e-06 -1.57836675e-05 -1.94381482e-05
      -2.38325392e-05 -1.28629981e-05 -8.02505565e-06 -1.10120745e-05
      -1.18082653e-05 -1.07805299e-05 -1.20264413e-05 -8.82766290e-06
      -5.64636866e-06 -2.45935803e-06 4.68631470e-06 9.74531304e-06
      6.72199531e-06 6.23910682e-06 6.55480744e-06 -9.45631996e-07
      -1.58378737e-06 7.64912784e-06 7.39935513e-06 5.56644454e-06
      3.54026315e-06 1.68777774e-06 -1.31691568e-05 -1.37087000e-05
      -1.23727705e-05 -1.06712341e-05 -7.17916373e-06 -6.33342597e-06
      2.58488035e-06 -1.85752597e-05 -1.92278530e-05 -1.22414131e-05
      -9.77875698e-06 -6.90081333e-06 -1.22689862e-05 -5.49729202e-06
      -1.49668276e-05 -2.79286201e-06 -1.22692802e-06 -1.18880712e-06
      -1.18880712e-06 -1.18880712e-06 -1.18880712e-06 -1.18880712e-06
      -9.96821291e-06 -1.01452224e-05 -1.02611311e-05 -1.03770390e-05
      -1.04929477e-05 -1.02220338e-05 -1.12792104e-05 -1.93250780e-05
      -2.33148003e-05 -2.48904016e-05 -8.19246725e-06 -1.58627881e-05
      -2.14967918e-06 -1.49813638e-06 -5.37947199e-06 -2.12617342e-05
      -1.94475324e-05 -8.36953132e-06 -2.28848439e-05 -2.33504852e-05
      -2.45081901e-05 -1.22319288e-05 -9.70601195e-06 -8.24265499e-06
      -1.21173389e-05 -1.63394252e-05 -1.86789166e-05 -1.96112560e-05
      -1.71125284e-05 -1.76486428e-05 -1.51346039e-05 -6.58172257e-06
      -6.88658793e-06 -6.00297471e-06 -4.79041864e-06 -1.40963084e-05
      -7.80571008e-06 -1.42420299e-06 -9.76646106e-07 3.20195483e-07
      -1.84305907e-06 -2.61969171e-06 -2.14443535e-05 -2.15605232e-05
      -1.82314834e-05 -1.62458782e-05 -1.36078661e-05 -1.39151889e-05
      -2.23771940e-06 -1.73908502e-05 -1.65959136e-05 -6.22405241e-06
      -9.42043880e-06 -1.35451201e-05 -5.28529654e-06 -8.24370454e-06
      -1.33434305e-05 -2.84162724e-07 -1.11611405e-06 -1.18880712e-06
      -1.18880712e-06 -1.18880712e-06 -1.18880712e-06 -1.18880712e-06
      -1.12432044e-05 -1.11883983e-05 -1.10724895e-05 -1.10724895e-05
      -1.10113879e-05 -1.08343784e-05 -1.14558134e-05 -2.04088810e-05
      -1.76470603e-05 -2.27731980e-05 -7.06965102e-06 -1.18455637e-05
      -4.32993556e-06 -9.10184644e-06 -2.26929842e-06 4.77003459e-06
      -2.09477221e-05 -1.38714740e-05 -1.48297759e-05 -2.92347468e-05
      -3.01366381e-05 -2.45037354e-05 -2.67381893e-05 -1.93009037e-05
      -2.43672257e-05 -2.35677344e-05 -2.15798027e-05 -2.24742671e-05
      -2.11425049e-05 -2.08213442e-05 -1.89597722e-05 -7.70138104e-06
      -7.17155945e-06 -4.80359586e-06 -5.03976617e-06 -1.33508338e-05
      -1.45350432e-05 -3.33796629e-06 -6.25986650e-06 -2.75415914e-06
      -8.49432490e-06 -6.69993688e-06 -2.05724446e-05 -2.13744243e-05
      -2.07896755e-05 -1.81923388e-05 -1.58964503e-05 -1.25046536e-05
      -1.58141154e-06 -1.52882967e-05 -1.54396512e-05 -2.10947073e-05
      -1.46513012e-05 -8.99087809e-06 -7.43257169e-06 -1.08323420e-05
      -1.24277167e-05 3.05343224e-06 -1.32671971e-06 -1.18880712e-06
      -1.18880712e-06 -1.18880712e-06 -1.18880712e-06 -1.18880712e-06
      -1.15361227e-05 -1.15361227e-05 -1.14813156e-05 -1.12432044e-05
      -1.12432044e-05 -1.12432044e-05 -1.24964663e-05 -2.14098818e-05
      -1.73792378e-05 -2.35926691e-05 -1.45287213e-05 -3.30725015e-06
      -1.64880585e-05 2.97639372e-06 -1.66581267e-05 8.62015986e-06
      -9.39694837e-06 4.12060490e-06 -1.00207235e-05 -1.07387150e-05
      -1.43401430e-05 -2.18936093e-05 -2.70405744e-05 -2.37273543e-05
      -3.15075958e-05 -3.13915807e-05 -3.12468983e-05 -2.69888933e-05
      -2.96190046e-05 -2.78243588e-05 -2.56095009e-05 -1.70681797e-05
      -1.65032980e-05 -1.44223714e-05 -1.29577766e-05 -2.04708758e-05
      -1.77197362e-05 -6.42523537e-06 -5.92333117e-06 -4.39464338e-06
      -6.70727559e-06 -8.33895410e-06 -2.11717179e-05 -2.09290374e-05
      -2.00512059e-05 -1.76706253e-05 -1.57733430e-05 -1.33028725e-05
      -4.15202294e-06 -1.80210263e-05 -9.37919322e-06 -1.74714332e-05
      -7.83366613e-06 -1.06671851e-05 -1.14105596e-05 -9.68620952e-06
      -1.05035424e-05 5.12227462e-06 -8.68556867e-07 -1.30471551e-06
      -1.18880712e-06 -1.07289884e-06 -1.18880712e-06 -1.18880712e-06
      -1.17679392e-05 -1.17068384e-05 -1.16520314e-05 -1.12432044e-05
      -1.13591132e-05 -1.11821037e-05 -1.26622708e-05 -2.00968334e-05
      -1.72643049e-05 -2.06884342e-05 -2.32916664e-05 -7.59059776e-06
      -9.64090486e-06 1.42689555e-06 4.26841552e-06 -1.06194448e-05
      -6.11913549e-07 1.04612109e-05 3.01973068e-06 3.91337494e-07
      -1.01733649e-05 -8.30121280e-07 -1.30501658e-05 -1.22292076e-05
      -1.88329632e-05 -1.91523795e-05 -2.01500570e-05 -2.34337003e-05
      -2.20874299e-05 -2.41867710e-05 -1.21654202e-05 -1.20657587e-05
      -1.16831261e-05 -1.13725646e-05 -8.12054077e-06 -1.74232355e-05
      -1.35469027e-05 -9.57263751e-07 -2.39390806e-06 -3.54805320e-06
      -2.60374873e-06 -3.90595460e-06 -1.59853444e-05 -1.62673477e-05
      -1.73181288e-05 -1.77912443e-05 -1.80263178e-05 -1.17883737e-05
      5.68889448e-07 -1.31704055e-05 -1.04494611e-05 -1.05801191e-05
      -7.49903438e-06 -5.03887077e-06 -1.07074111e-05 -1.37660008e-05
      -1.28073061e-05 9.95043320e-06 3.74058664e-06 -1.30471551e-06
      -1.30471551e-06 -1.42062390e-06 -1.18880712e-06 -1.07289884e-06
      -1.23474811e-05 -1.22863803e-05 -1.23474811e-05 -1.21704716e-05
      -1.19386550e-05 -1.17068384e-05 -1.28237325e-05 -1.28243437e-05
      -1.82169551e-05 -1.77482634e-05 -2.25130607e-05 -1.28367765e-05
      -1.30907665e-06 -1.19909437e-05 1.64620087e-05 -1.03925513e-05
      -3.77546576e-06 8.91735453e-06 -6.38701806e-07 -3.38671771e-06
      9.94956167e-07 -1.68552538e-06 -2.97343627e-06 -8.85334430e-06
      -1.54995651e-05 -1.40395805e-05 -1.38933592e-05 -1.07756277e-05
      -1.06310927e-05 -5.71240116e-06 -9.00323812e-06 -4.79300127e-07
      1.09011339e-07 4.61575792e-06 5.18321667e-06 -8.24456947e-07
      -2.91439073e-06 9.58853252e-06 3.32854529e-06 -1.14269574e-06
      -2.03805325e-06 -3.62842593e-06 -1.54446025e-05 -1.74818415e-05
      -1.66827267e-05 -1.65588681e-05 -1.50257956e-05 -1.26869463e-05
      -1.91445952e-06 -9.87340809e-06 -5.83262954e-06 -9.03105956e-06
      -5.97025428e-06 -3.80092024e-06 -3.74728643e-06 -1.25755932e-05
      1.00569068e-05 1.10382489e-05 3.77006450e-06 -1.30471551e-06
      -1.30471551e-06 -1.30471551e-06 -1.30471551e-06 -1.30471551e-06
      -1.35676664e-05 -1.37383813e-05 -1.36224735e-05 -1.33906569e-05
      -1.32136465e-05 -1.30977387e-05 -1.36859635e-05 -1.41201599e-05
      -2.03534873e-05 -1.95595330e-05 -2.04341450e-05 -1.37176121e-05
      -1.41034743e-05 -5.23231392e-06 -1.21657440e-05 -3.31673004e-06
      -7.92544142e-06 2.40807776e-06 4.14267424e-06 4.12451800e-06
      4.94522965e-06 -3.18357343e-06 -2.42624583e-06 -7.11716848e-06
      -1.23420286e-05 -1.35754999e-05 -1.20016466e-05 -8.63568221e-06
      -6.42795067e-06 -8.92026151e-07 -9.71732061e-06 -3.63337648e-07
      -3.15747997e-07 -6.50247102e-07 1.82342558e-06 -5.69795884e-06
      2.14954980e-06 1.24659600e-05 9.55656651e-06 8.42594000e-06
      5.72558474e-06 6.56703196e-06 -7.22362984e-06 -7.87968747e-06
      -7.80649043e-06 -1.39763779e-05 -8.23939990e-06 -7.45335547e-06
      7.43144346e-06 -8.17782620e-06 -6.86681915e-06 -9.54011193e-06
      -5.85658881e-06 -4.22613812e-06 -5.36648849e-06 -9.74938666e-06
      1.38706328e-05 1.10692399e-05 4.13353018e-06 -1.53653218e-06
      -1.18880712e-06 -1.53653218e-06 -1.18880712e-06 -1.30471551e-06
      -1.49585667e-05 -1.49585667e-05 -1.49037596e-05 -1.47267501e-05
      -1.46656485e-05 -1.47267501e-05 -1.44949336e-05 -1.52430748e-05
      -3.16821788e-05 -2.02622123e-05 -2.07133962e-05 -2.23568677e-05
      -1.30769604e-05 -3.87674390e-06 -9.51681977e-06 -3.90444848e-06
      -3.50353230e-06 7.89969454e-06 8.07576998e-06 7.82719235e-06
      -8.24633958e-07 -2.70797614e-06 -1.31880563e-06 -5.04454920e-06
      -7.73977808e-06 -1.06498919e-05 -1.08779013e-05 -4.88488195e-06
      -4.37365998e-06 -1.22512147e-05 -1.07463320e-05 -1.90327330e-06
      -2.12979035e-06 -1.77237825e-06 4.12955387e-06 -8.70058557e-06
      2.17443653e-06 1.30057888e-05 1.12174475e-05 1.03865113e-05
      9.08616857e-06 7.36056973e-06 -4.43803401e-06 -5.76469847e-06
      -1.89626326e-06 -3.72641011e-06 -8.32146725e-06 -1.69738985e-06
      8.94080677e-06 -7.32373428e-06 -3.62417609e-06 -7.93066465e-06
      -6.66459346e-06 -7.44473800e-06 -4.02022306e-06 -1.35225300e-05
      1.11308955e-05 1.23434838e-05 4.07344032e-06 -1.39114604e-06
      -1.53653218e-06 -1.53653218e-06 -1.42062390e-06 -1.42062390e-06
      -1.56603110e-05 -1.58921284e-05 -1.55992093e-05 -1.55992093e-05
      -1.57762188e-05 -1.56603110e-05 -1.56212136e-05 -1.70304575e-05
      -1.72941545e-05 -2.56603689e-05 -2.17950710e-05 -2.19076410e-05
      -1.33767326e-05 -1.51363502e-05 -5.09737492e-06 -8.43128146e-06
      -9.62303693e-06 9.08224592e-06 7.15683746e-06 1.50769820e-05
      3.57014294e-08 1.04204746e-05 4.68380358e-06 2.83109284e-06
      -6.24228733e-06 -8.04660795e-06 -8.08258210e-06 -2.06942400e-06
      -7.44823524e-07 -2.28549334e-06 -1.00107563e-05 -2.53676308e-06
      -2.15610726e-06 -1.69402927e-06 5.80805954e-06 -7.83802989e-06
      -7.03616297e-06 1.61893440e-05 1.71924039e-05 1.92676216e-05
      1.80315601e-05 1.66048048e-05 2.17955562e-06 1.21295261e-06
      3.93117489e-06 -7.08876178e-06 -3.72768113e-06 -1.44829755e-06
      8.52874928e-06 -3.54844428e-06 -1.02908543e-05 -8.34156799e-06
      -8.09650464e-06 -6.75467300e-06 -7.33611478e-06 1.47611827e-05
      9.80731056e-06 1.29529799e-05 3.89012894e-06 -9.86610871e-07
      -1.59763363e-06 -1.48172523e-06 -1.59763363e-06 -1.42062390e-06
      -1.64842586e-05 -1.64231569e-05 -1.65390647e-05 -1.64842586e-05
      -1.64842586e-05 -1.64842586e-05 -1.66612681e-05 -1.84827022e-05
      -1.74206161e-05 -3.64376101e-05 -2.62632548e-05 -2.25446183e-05
      -1.99519691e-05 -1.56439964e-05 -8.73711997e-06 -4.43757062e-06
      -1.08053143e-06 8.95305584e-06 6.98339954e-06 9.20727416e-06
      2.46510353e-06 9.41535291e-06 6.69682595e-06 2.70122541e-06
      1.44844307e-06 1.61736216e-06 4.45025034e-06 6.74923376e-06
      6.39314339e-06 6.98947815e-06 5.78448635e-06 7.89138630e-06
      7.20625303e-06 7.71331361e-06 1.54486606e-05 3.29372642e-06
      1.38235628e-05 2.34363797e-05 2.22931521e-05 2.01181647e-05
      1.44347405e-05 1.76278827e-05 4.60158253e-06 3.98960947e-06
      4.08369669e-06 -7.34165781e-07 -3.27206891e-07 1.62217373e-06
      1.12915186e-05 -4.21396953e-06 -1.24671997e-05 -1.15570965e-05
      -1.06972157e-05 -1.06681828e-05 -1.45873155e-05 1.48803538e-05
      8.06766911e-06 1.31845218e-05 8.94580080e-06 -3.61850766e-07
      -1.59763363e-06 -1.59763363e-06 -1.48172523e-06 -1.48172523e-06
      -1.68993793e-05 -1.72533983e-05 -1.71374904e-05 -1.71985921e-05
      -1.73756016e-05 -1.75526111e-05 -1.77970160e-05 -1.77143174e-05
      -1.89308412e-05 -3.13815435e-05 -3.57011559e-05 -3.06246475e-05
      -2.66065526e-05 -1.78751579e-05 -1.70394342e-05 -5.05235130e-06
      1.87988962e-06 1.54278259e-05 7.27690485e-06 4.12236022e-06
      5.30196712e-06 7.29450585e-06 6.54275391e-06 3.87334921e-06
      2.80775566e-06 2.86217596e-06 4.34718140e-06 5.00253736e-06
      4.51951610e-06 2.88231945e-06 2.23681491e-06 9.12855648e-06
      8.39774202e-06 8.60391992e-06 1.18545568e-05 5.45747889e-06
      1.16718020e-05 1.82628555e-05 1.93577453e-05 1.68614115e-05
      1.40817383e-05 8.76198828e-06 1.90802371e-06 2.34394770e-06
      4.76351124e-06 2.95820769e-06 4.34375261e-06 1.26539271e-06
      9.50401500e-06 -1.53112051e-05 -1.44086862e-05 -1.28253441e-05
      -1.60046347e-05 -1.40377679e-05 1.12859777e-06 1.01911364e-05
      1.15868279e-05 1.32392070e-05 1.04710125e-05 7.43078701e-08
      -1.59763363e-06 -1.36581684e-06 -1.48172523e-06 -1.48172523e-06
      -1.71563734e-05 -1.77422098e-05 -1.78096052e-05 -1.76936974e-05
      -1.80540101e-05 -1.82310196e-05 -1.82373151e-05 -1.82499043e-05
      -2.07280991e-05 -2.02646388e-05 -3.33679927e-05 -3.44300934e-05
      -3.41946725e-05 -3.04393870e-05 -1.99872575e-05 -1.54851987e-05
      -6.04044726e-06 1.52297262e-05 1.07967653e-05 3.29261115e-06
      8.00292855e-06 7.72580916e-06 5.57536441e-06 3.63993126e-06
      8.37685093e-07 1.85155136e-06 -4.69376118e-07 2.49177134e-07
      -1.66876532e-07 -1.14488749e-07 -6.88587534e-07 7.98316341e-06
      7.51968309e-06 7.62014133e-06 8.19846355e-06 3.55127582e-07
      3.77370066e-06 1.02296590e-05 9.58951114e-06 8.14202576e-06
      6.39573909e-06 6.95983226e-06 -3.27615112e-06 -2.59649823e-06
      -2.29634952e-06 -3.40915051e-07 2.39811442e-07 2.04856201e-06
      1.22152833e-05 -1.68814804e-05 -1.86764137e-05 -1.72104064e-05
      -1.38921550e-05 -1.82145905e-05 1.07769174e-05 8.20309924e-06
      1.37732659e-05 1.38227824e-05 1.05731842e-05 4.08295563e-07
      -1.59763363e-06 -1.48172523e-06 -1.59763363e-06 -1.24990856e-06
      -1.71141546e-05 -1.75292753e-05 -1.77125803e-05 -1.82499043e-05
      -1.87872265e-05 -1.89157236e-05 -1.90990286e-05 -1.94593413e-05
      -2.12827290e-05 -2.12837058e-05 -3.94202762e-05 -3.22745473e-05
      -3.30130279e-05 -3.54223303e-05 -2.64374048e-05 -2.29845373e-05
      -9.60349098e-06 2.00024133e-05 8.80892912e-06 5.64732409e-06
      7.75580338e-06 7.83742689e-06 5.24795314e-06 1.92940911e-06
      1.64944572e-06 1.47326929e-07 -1.27297596e-07 -7.23656854e-07
      -1.06113589e-06 -1.63122081e-06 -2.25283770e-06 6.23690175e-06
      5.12031147e-06 5.60045646e-06 5.50058212e-06 -9.73212536e-07
      2.68615759e-06 1.04936016e-05 1.02816766e-05 9.28478403e-06
      7.85884004e-06 8.23746177e-06 -2.81516145e-06 -3.19216588e-06
      -2.72413581e-06 -1.47738376e-06 -7.04712306e-07 -2.45169940e-06
      -3.42848330e-06 -2.03737854e-05 -1.75914338e-05 -1.47908468e-05
      -1.68528204e-05 -7.59784052e-06 8.98046710e-06 6.83797907e-06
      1.22071060e-05 1.46622488e-05 1.10125075e-05 -4.94633468e-07
      -1.24990856e-06 -1.24990856e-06 -1.24990856e-06 -1.36581684e-06
      -1.68886327e-05 -1.72426517e-05 -1.73648550e-05 -1.77799757e-05
      -1.82624917e-05 -1.83298871e-05 -1.85131921e-05 -1.88061094e-05
      -1.92760381e-05 -2.10886265e-05 -2.22954914e-05 -4.22516787e-05
      -3.19415158e-05 -3.24223874e-05 -3.31899973e-05 -3.06398506e-05
      -2.65461276e-05 -8.27395979e-06 -9.62357262e-07 9.47696753e-06
      7.81388826e-06 6.36786035e-06 2.48400147e-06 1.15411024e-06
      -1.10757064e-07 1.00531702e-06 -5.39080588e-07 -2.62057142e-07
      -3.43623498e-07 3.51756228e-07 -3.52505310e-07 7.05056300e-06
      7.32159515e-06 7.18314232e-06 7.70574115e-06 -4.21491961e-08
      5.25213545e-06 1.25626948e-05 1.17781829e-05 9.91702927e-06
      9.23526568e-06 7.97020039e-06 -3.09889833e-06 -2.78897096e-06
      -3.21133825e-06 -4.43516819e-06 2.07258131e-06 -1.23746595e-05
      -3.42651379e-06 -1.73826920e-05 -1.59035571e-05 -1.82903223e-05
      -2.09263017e-05 9.33722822e-06 7.74944692e-06 8.67440485e-06
      1.09620933e-05 1.42555673e-05 1.12801035e-05 -7.05277159e-07
      -1.36581684e-06 -1.36581684e-06 -1.24990856e-06 -1.24990856e-06
      -1.66083028e-05 -1.67853123e-05 -1.68527095e-05 -1.70297189e-05
      -1.72130221e-05 -1.76281428e-05 -1.78051523e-05 -1.80432635e-05
      -1.81043652e-05 -2.01307012e-05 -1.98573998e-05 -2.96965354e-05
      -4.02559344e-05 -3.34960387e-05 -3.02195986e-05 -3.10813011e-05
      -3.29674695e-05 -2.89328946e-05 -1.08895156e-05 -1.12212929e-05
      -1.21603343e-05 4.42225382e-06 -2.33880473e-06 -3.58325815e-06
      -2.38794473e-06 -2.19497565e-06 -1.47034740e-07 1.14621150e-06
      1.61007449e-06 -6.47420052e-07 3.93050414e-07 8.15680141e-06
      7.69658163e-06 7.51454309e-06 7.33205434e-06 -2.96702012e-07
      2.93902076e-06 1.14091863e-05 1.04040118e-05 9.24799406e-06
      7.53984250e-06 7.67858000e-06 -4.21915547e-06 -5.09837309e-06
      -7.59709837e-06 -1.51504655e-05 -1.26619507e-05 -8.57892792e-06
      -1.80340576e-05 -1.88452996e-05 -1.92504340e-05 -1.97439877e-05
      7.37562868e-06 8.88477007e-06 8.92468961e-06 8.22775201e-06
      1.05797226e-05 1.37647239e-05 1.14801751e-05 -1.20782715e-06
      -1.13400017e-06 -1.24990856e-06 -1.24990856e-06 -1.24990856e-06
      -1.55040270e-05 -1.57358427e-05 -1.58517523e-05 -1.61509652e-05
      -1.66271857e-05 -1.67493890e-05 -1.71097035e-05 -1.73541084e-05
      -1.78240371e-05 -1.79462386e-05 -1.99729820e-05 -1.99334900e-05
      -3.87373075e-05 -3.49604961e-05 -3.74843548e-05 -3.13081946e-05
      -3.06586626e-05 -3.14900863e-05 -1.86381731e-05 -7.25794871e-06
      -1.04130668e-05 -1.56137157e-05 -2.23300485e-05 -2.69278389e-05
      -2.65829858e-05 -1.29415330e-05 -5.64253787e-06 -2.93803555e-06
      -4.92156232e-06 -4.13288353e-06 -3.35193181e-06 4.77863978e-06
      5.28253122e-06 5.46922138e-06 5.29259160e-06 -1.61212449e-06
      1.17179400e-06 1.05700610e-05 7.92673472e-06 8.15326439e-06
      5.42423049e-06 -3.22478513e-06 -1.74652068e-05 -1.63464174e-05
      -1.41861528e-05 -1.28197053e-05 -1.34633337e-05 -1.52011562e-05
      -2.01114835e-05 -2.02398660e-05 -1.77560250e-05 -1.02460053e-05
      8.56958923e-06 8.26035466e-06 7.67435267e-06 8.47629053e-06
      1.04966166e-05 1.39343056e-05 1.19173528e-05 -1.23831683e-06
      -1.31100990e-06 -1.31100990e-06 -1.31100990e-06 -1.31100990e-06
      -1.40394368e-05 -1.40942439e-05 -1.41005376e-05 -1.44545575e-05
      -1.46926686e-05 -1.47537694e-05 -1.52299917e-05 -1.52362863e-05
      -1.55354992e-05 -1.59506199e-05 -1.65681195e-05 -1.77973943e-05
      -1.91054332e-05 -3.63274994e-05 -2.82878227e-05 -3.66654021e-05
      -3.65461274e-05 -3.31312040e-05 -3.04478908e-05 -9.86596933e-06
      -2.53823578e-06 -4.72781130e-06 -1.55750513e-05 -2.21723985e-05
      -2.61905825e-05 -2.91648394e-05 -3.18981147e-05 -3.18062230e-05
      -3.05678295e-05 -2.90554217e-05 -2.70898727e-05 -1.80930074e-05
      -1.75389832e-05 -1.75661917e-05 -1.65843103e-05 -2.28635345e-05
      -2.05024098e-05 -7.19579339e-06 -4.50171592e-06 -4.40101758e-06
      -3.13999681e-06 -1.88041281e-06 -1.31521165e-05 -1.24539929e-05
      -1.19662200e-05 -1.31212100e-05 -1.84634391e-05 -2.10091821e-05
      -1.73713343e-05 -1.78493156e-05 -2.55161267e-05 8.47594492e-06
      8.23307437e-06 7.29381645e-06 7.47225795e-06 8.40129087e-06
      1.03795364e-05 1.44757996e-05 1.17656646e-05 -1.23831683e-06
      -1.31100990e-06 -1.31100990e-06 -1.31100990e-06 -1.31100990e-06
      -1.22271213e-05 -1.23430291e-05 -1.22882220e-05 -1.22945166e-05
      -1.27644444e-05 -1.27707390e-05 -1.28255460e-05 -1.30088501e-05
      -1.30699509e-05 -1.33691638e-05 -1.31373472e-05 -1.57137874e-05
      -1.43006100e-05 -1.68671340e-05 -3.59147889e-05 -2.51358742e-05
      -2.58107448e-05 -3.08319977e-05 -3.42363019e-05 -1.97381742e-05
      -5.84656027e-06 9.58625878e-06 -3.98058455e-06 -9.67934193e-06
      -1.33882704e-05 -1.44963888e-05 -1.45772829e-05 -1.46793400e-05
      -1.45608692e-05 -1.54534446e-05 -1.08635386e-05 -8.88303384e-06
      -7.56102418e-06 -6.15965655e-06 -5.10305517e-06 -1.14500990e-05
      -6.55555141e-06 -2.95370887e-06 -3.32367995e-06 -4.44429543e-06
      -5.21097218e-06 -6.20695755e-06 -1.15872244e-05 -1.32749992e-05
      -1.63517398e-05 -1.86384659e-05 -1.78085211e-05 -1.66614209e-05
      -1.87562091e-05 -2.15368818e-05 7.26509870e-06 8.10349320e-06
      4.78987567e-06 6.90359138e-06 7.82515144e-06 8.83317898e-06
      1.04954452e-05 1.37216311e-05 1.28211786e-05 -1.23201505e-06
      -1.31100990e-06 -1.31100990e-06 -1.31100990e-06 -1.31100990e-06
      -9.82896927e-06 -1.00607858e-05 -1.02440899e-05 -1.03662933e-05
      -1.05433028e-05 -1.02566792e-05 -1.04336887e-05 -1.03788816e-05
      -1.05621857e-05 -1.04462770e-05 -1.05904846e-05 -1.04745759e-05
      -1.26769455e-05 -1.10969868e-05 -1.91551426e-05 -2.84944635e-05
      -2.95794252e-05 -2.24517516e-05 -2.16860972e-05 -1.74430588e-05
      -1.09983657e-05 -1.49667712e-05 -1.03718594e-05 -1.29283817e-05
      -6.56618477e-06 -6.50823904e-06 -6.16060061e-06 -3.98609745e-06
      1.35611026e-06 2.22742665e-06 1.36718859e-06 4.91728883e-07
      1.29062198e-06 2.12099144e-06 3.15297416e-06 2.90518528e-06
      4.00233830e-06 -3.00441548e-06 -4.42129203e-06 -5.36521884e-06
      -4.86213003e-06 -5.09951178e-06 -1.56975530e-05 -1.47847231e-05
      -1.56789938e-05 -1.67468643e-05 -1.77832662e-05 -2.06460500e-05
      -1.79895342e-05 6.36759250e-06 9.78744993e-06 3.72703425e-06
      6.42271470e-06 7.08988728e-06 8.11912651e-06 9.07646518e-06
      1.17530608e-05 1.38670175e-05 7.00572991e-06 -9.95030405e-07
      -1.31100990e-06 -1.31100990e-06 -1.31100990e-06 -1.31100990e-06
      -8.60878481e-06 -8.54768314e-06 -8.55397775e-06 -8.72469263e-06
      -8.60878481e-06 -8.55397775e-06 -8.43806902e-06 -8.38326196e-06
      -8.38326196e-06 -8.15144540e-06 -8.45065733e-06 -8.21884078e-06
      -8.38505184e-06 -1.00343887e-05 -1.01345868e-05 -2.94799775e-05
      -2.22006638e-05 -2.83919235e-05 -2.91078868e-05 -2.06177465e-05
      -3.31431625e-06 -3.79366270e-06 -5.09235906e-06 -9.66401967e-06
      -3.56271721e-06 -9.44246040e-06 -1.22504207e-05 -1.51102768e-05
      -1.59824358e-05 -1.38175828e-05 -1.19343395e-05 -8.95662106e-06
      -7.68600967e-06 -8.28227348e-06 -9.97988263e-06 -1.34440188e-05
      -1.64209396e-05 -1.54239824e-05 -1.53617475e-05 -1.35243981e-05
      -1.36670524e-05 -1.37330644e-05 -1.30343542e-05 -1.39925842e-05
      -1.62631259e-05 -1.57360173e-05 -1.38045807e-05 -1.39219910e-05
      -3.55540465e-06 7.15397528e-06 7.13324971e-06 9.49340392e-06
      1.06724492e-05 1.06878715e-05 1.14589147e-05 1.23457521e-05
      1.35510372e-05 1.35922219e-05 5.87752265e-06 -1.23201505e-06
      -1.31100990e-06 -1.31100990e-06 -1.31100990e-06 -1.31100990e-06
      -7.73003012e-06 -7.49821356e-06 -7.49821356e-06 -7.49821356e-06
      -7.49821356e-06 -7.44340650e-06 -7.62041600e-06 -7.44340650e-06
      -7.15678289e-06 -7.21158949e-06 -6.98606755e-06 -7.00807141e-06
      -6.87015881e-06 -6.72144779e-06 -8.82304903e-06 -8.67551898e-06
      -3.08153030e-05 -2.49116856e-05 -2.03908585e-05 -2.51804850e-05
      -1.40395005e-05 -1.09500279e-05 -8.53603524e-06 -6.97769519e-06
      -7.32792842e-06 -7.04375634e-06 -7.82434017e-06 -2.02900492e-06
      -1.47827905e-06 -5.42003454e-06 -5.89724323e-06 -7.44022509e-06
      -1.03496041e-05 -1.04376268e-05 -1.08784834e-05 -1.10340789e-05
      -1.12098724e-05 -1.19669903e-05 -1.09429493e-05 -1.26832210e-05
      -1.36965027e-05 -1.46862385e-05 -1.37820025e-05 -1.08901386e-05
      -1.13840251e-05 -1.48111694e-05 -1.92394600e-05 -1.09731845e-05
      6.73872273e-06 6.83655207e-06 9.58115015e-06 1.02139020e-05
      1.07259566e-05 1.12335219e-05 1.20646546e-05 1.22478514e-05
      1.30823582e-05 1.07910619e-05 -8.19147203e-07 -1.37211123e-06
      -1.31100990e-06 -1.31100990e-06 -1.31100990e-06 -1.31100990e-06
      -7.02828584e-06 -6.85757050e-06 -6.97347878e-06 -6.74166176e-06
      -6.74166176e-06 -6.57094643e-06 -6.39393693e-06 -6.68685470e-06
      -6.16211992e-06 -6.22322159e-06 -6.28432281e-06 -6.24522545e-06
      -5.99769919e-06 -5.76588263e-06 -5.87099203e-06 -8.76494778e-06
      -7.20796970e-06 -2.48182714e-05 -2.80905315e-05 -2.27832243e-05
      -1.59500178e-05 -2.76096739e-06 -6.31106059e-06 -1.10598139e-05
      -1.29204973e-05 -1.45457298e-05 -1.47438359e-05 -1.55151756e-05
      -1.44050027e-05 -1.43754869e-05 -1.48964064e-05 -1.52167122e-05
      -1.42322097e-05 -1.59441752e-05 -1.65642032e-05 -1.69642699e-05
      -1.85436493e-05 -1.70812164e-05 -1.64721005e-05 -1.60432592e-05
      -1.60838117e-05 -1.60337640e-05 -1.51997428e-05 -1.56924907e-05
      -1.70690273e-05 -1.95488919e-05 -3.51691028e-06 7.10181666e-06
      6.37767744e-06 1.04772735e-05 1.07142578e-05 1.11608288e-05
      1.16158926e-05 1.19308606e-05 1.26040040e-05 1.34351367e-05
      1.43171292e-05 5.88911462e-06 -1.37211123e-06 -1.31100990e-06
      -1.31100990e-06 -1.31100990e-06 -1.31100990e-06 -1.31100990e-06
      -6.44874399e-06 -6.27173404e-06 -6.10101870e-06 -5.98511042e-06
      -5.86920214e-06 -5.80810047e-06 -5.69848680e-06 -5.58257852e-06
      -5.46666979e-06 -5.28966029e-06 -5.28966029e-06 -5.41186319e-06
      -5.23485323e-06 -4.94822962e-06 -4.94822962e-06 -5.34057381e-06
      -7.82156440e-06 -6.73649629e-06 -2.89364052e-05 -2.47189437e-05
      -2.73765381e-05 -1.68076476e-05 -5.08721541e-06 -5.04872423e-06
      -3.91397361e-06 -6.70898908e-06 -9.27868314e-06 -1.24859016e-05
      -1.17095233e-05 -1.23992295e-05 -1.33376061e-05 -1.41670662e-05
      -1.57794002e-05 -1.49998205e-05 -1.54326626e-05 -1.54125628e-05
      -1.54775335e-05 -1.60370037e-05 -1.52670400e-05 -1.62516135e-05
      -1.63574005e-05 -1.43563057e-05 -1.68408205e-05 -1.80165844e-05
      -1.90208684e-05 5.75067725e-06 8.11727386e-06 7.24959409e-06
      1.11123309e-05 1.11913259e-05 1.16463898e-05 1.20825489e-05
      1.23132313e-05 1.30527660e-05 1.39502899e-05 1.53440633e-05
      6.07129959e-06 -1.36051949e-06 -1.43321256e-06 -1.37211123e-06
      -1.37211123e-06 -1.37211123e-06 -1.31100990e-06 -1.31100990e-06
      -6.10101870e-06 -6.03991748e-06 -5.57628391e-06 -5.57628391e-06
      -5.46037563e-06 -5.34446735e-06 -5.11265034e-06 -4.99674206e-06
      -4.58791556e-06 -4.58791556e-06 -4.76492551e-06 -4.53310895e-06
      -4.58791556e-06 -4.70382429e-06 -4.47830189e-06 -4.26848919e-06
      -4.09777385e-06 -4.73589489e-06 -7.80665596e-06 -9.17380657e-06
      -3.47011883e-05 -2.21286791e-05 -1.45899676e-05 -6.20106402e-06
      -7.32882972e-06 -8.60940054e-06 -9.66408879e-06 -1.03839348e-05
      -1.14859558e-05 -1.05586605e-05 -1.07325359e-05 -1.23966693e-05
      -1.11609052e-05 -1.27220783e-05 -1.33559197e-05 -1.35494702e-05
      -1.31531660e-05 -1.44331389e-05 -1.45242539e-05 -1.30853905e-05
      -1.47469309e-05 -1.62127653e-05 -1.47836272e-05 -2.17552988e-05
      9.15739110e-06 7.41772101e-06 1.15551602e-05 1.24901262e-05
      1.24681219e-05 1.31632696e-05 1.33086560e-05 1.37511161e-05
      1.43389625e-05 1.47562159e-05 1.59604897e-05 4.32711067e-06
      -1.35421772e-06 -1.43321256e-06 -1.43321256e-06 -1.43321256e-06
      -1.37211123e-06 -1.37211123e-06 -1.37211123e-06 -1.31100990e-06
      -5.69219219e-06 -5.46037563e-06 -5.11265034e-06 -4.93564085e-06
      -4.93564085e-06 -4.76492551e-06 -4.53310895e-06 -4.47200728e-06
      -4.35609900e-06 -4.30129194e-06 -4.24019072e-06 -4.12428244e-06
      -3.94727249e-06 -3.89246543e-06 -3.77655715e-06 -3.60584181e-06
      -3.60584181e-06 -3.64985021e-06 -3.57303907e-06 -5.71276132e-06
      -7.38998961e-06 -7.29318299e-06 -3.00428437e-05 -1.92011285e-05
      -9.97814823e-06 -1.36641593e-05 -1.58143976e-05 -1.38776240e-05
      -1.26940822e-05 -1.23319905e-05 -9.59632962e-06 -1.01172191e-05
      -7.95455981e-06 -8.69832547e-06 -8.76770173e-06 -8.92674871e-06
      -1.06753323e-05 -1.01317719e-05 -1.03078764e-05 -1.00184334e-05
      -1.53901383e-05 -2.97926954e-06 1.07223796e-05 9.79872311e-06
      1.15845387e-05 1.44957694e-05 1.45190606e-05 1.24935004e-05
      1.05060253e-05 8.32274964e-06 6.76513127e-06 7.01809313e-06
      7.51434118e-06 9.68883251e-06 -1.12353484e-06 -1.49431401e-06
      -1.43321256e-06 -1.43321256e-06 -1.43321256e-06 -1.43321256e-06
      -1.37211123e-06 -1.37211123e-06 -1.37211123e-06 -1.31100990e-06
      -5.23485323e-06 -4.88083379e-06 -4.47200728e-06 -4.58791556e-06
      -4.30129194e-06 -4.12428244e-06 -3.89246543e-06 -3.77655715e-06
      -3.89246543e-06 -3.54474059e-06 -3.48363915e-06 -3.59954743e-06
      -3.36773087e-06 -3.24552798e-06 -3.13591408e-06 -3.31292381e-06
      -3.19701553e-06 -3.25811675e-06 -3.02629996e-06 -2.91039169e-06
      -3.03121124e-06 -5.38508812e-06 -5.54402823e-06 -5.74108935e-06
      -1.05914451e-05 -1.15774928e-05 -1.59019037e-05 -1.46029752e-05
      -1.44524583e-05 -1.59198989e-05 -1.69212908e-05 -1.78975188e-05
      -1.71478314e-05 -1.83474658e-05 -1.83618158e-05 -1.95783959e-05
      -2.48065426e-05 -2.49998720e-05 -7.41749272e-06 2.93547168e-06
      1.89459513e-06 2.55275791e-06 3.33057142e-06 5.89837873e-06
      6.13846214e-06 6.79270033e-06 6.72000715e-06 7.01077943e-06
      7.28996019e-06 7.87150475e-06 8.67112976e-06 1.01249916e-05
      2.71029444e-06 -1.43321256e-06 -1.43321256e-06 -1.43321256e-06
      -1.43321256e-06 -1.43321256e-06 -1.43321256e-06 -1.43321256e-06
      -1.43321256e-06 -1.43321256e-06 -1.43321256e-06 -1.37211123e-06
      -4.53310895e-06 -4.35609900e-06 -4.06947538e-06 -4.00837416e-06
      -3.77655715e-06 -3.66064887e-06 -3.54474059e-06 -3.36773087e-06
      -3.30662942e-06 -3.13591408e-06 -3.25182236e-06 -2.95890436e-06
      -2.90409730e-06 -2.78818902e-06 -2.44046396e-06 -2.72708758e-06
      -2.67228074e-06 -2.73338196e-06 -2.73338196e-06 -2.61747368e-06
      -2.52356949e-06 -2.36856386e-06 -2.34655977e-06 -2.43360000e-06
      -4.83028498e-06 -4.83028498e-06 -5.73227271e-06 -5.34876563e-06
      9.42030965e-06 9.75625971e-06 8.14266423e-06 7.02455827e-06
      6.26109249e-06 5.52649362e-06 6.15126555e-06 5.79251810e-06
      4.24259679e-06 5.45558214e-06 5.75047216e-06 6.17503929e-06
      9.33990759e-06 9.46034106e-06 9.40965219e-06 9.70042493e-06
      9.99119675e-06 9.91850357e-06 9.90691206e-06 1.08519225e-05
      1.17969330e-05 1.01365831e-05 -1.49431401e-06 -1.43321256e-06
      -1.43321256e-06 -1.43321256e-06 -1.43321256e-06 -1.49431401e-06
      -1.49431401e-06 -1.49431401e-06 -1.49431401e-06 -1.43321256e-06
      -1.43321256e-06 -1.43321256e-06 -1.43321256e-06 -1.37211123e-06
      -4.06947538e-06 -3.95356710e-06 -3.54474059e-06 -3.42883209e-06
      -3.31292381e-06 -3.19701553e-06 -2.84929047e-06 -2.96519875e-06
      -2.84929047e-06 -2.61117930e-06 -2.55637224e-06 -2.44046396e-06
      -2.55637224e-06 -2.55637224e-06 -2.55637224e-06 -2.37936251e-06
      -2.14754573e-06 -2.38565690e-06 -2.32455545e-06 -2.09273890e-06
      -2.23065126e-06 -2.16955004e-06 -1.95973757e-06 -1.99254032e-06
      -1.81553060e-06 -1.58371381e-06 -1.83753480e-06 -2.09569725e-06
      -3.82282133e-06 -4.48294622e-06 -4.67509653e-06 -4.74601984e-06
      -7.54579673e-07 7.38704830e-06 1.02307222e-05 1.16350648e-05
      1.36392136e-05 1.30949966e-05 1.28885085e-05 1.28769170e-05
      1.32623873e-05 1.31676898e-05 1.40400070e-05 1.37828301e-05
      1.15177527e-05 4.61190712e-06 -1.43321256e-06 -1.49431401e-06
      -1.49431401e-06 -1.49431401e-06 -1.49431401e-06 -1.49431401e-06
      -1.49431401e-06 -1.49431401e-06 -1.49431401e-06 -1.49431401e-06
      -1.49431401e-06 -1.49431401e-06 -1.43321256e-06 -1.43321256e-06
      -1.43321256e-06 -1.43321256e-06 -1.43321256e-06 -1.43321256e-06</_>
    <_>
      -8.32147362e-06 -8.54356404e-06 -8.06030584e-06 -7.76544402e-06
      -7.51730158e-06 -7.23546600e-06 -6.98732401e-06 -6.70548843e-06
      -6.20920355e-06 -6.69246219e-06 -6.45734599e-06 -6.67179529e-06
      -6.67179529e-06 -6.63810215e-06 -6.17551041e-06 -6.12879148e-06
      -6.37693347e-06 -6.14181727e-06 -6.06140520e-06 -6.35626657e-06
      -6.10812413e-06 -6.05602008e-06 -6.05602008e-06 -5.83392966e-06
      -5.29856698e-06 -5.53368318e-06 -5.49999004e-06 -5.23882181e-06
      -5.49999004e-06 -5.47393802e-06 -5.48696380e-06 -5.67536108e-06
      -5.74377009e-06 -6.80938342e-07 4.45067462e-06 5.53517202e-06
      4.01305169e-06 1.96265069e-06 7.96532390e-07 8.98820758e-07
      1.57731790e-06 3.41636201e-06 4.52709719e-06 3.41654822e-06
      -1.24163165e-07 -6.39565633e-06 -5.96796644e-06 -6.14751389e-06
      -5.99401892e-06 -6.47727757e-06 -6.71239377e-06 -6.72541955e-06
      -6.96053621e-06 -6.73844579e-06 -6.96053621e-06 -7.20867820e-06
      -7.44379486e-06 -7.70496263e-06 -7.99218378e-06 -7.96613131e-06
      -8.21427420e-06 -8.22729999e-06 -8.44939041e-06 -8.47544197e-06
      -8.56961651e-06 -8.50987090e-06 -7.77846981e-06 -7.77846981e-06
      -7.51730158e-06 -7.23546600e-06 -7.02101715e-06 -6.70548843e-06
      -6.71851421e-06 -6.71851421e-06 -6.69246219e-06 -6.68482107e-06
      -6.41062661e-06 -6.41062661e-06 -6.14181727e-06 -5.89367482e-06
      -6.12879148e-06 -5.88064904e-06 -6.09509834e-06 -6.09509834e-06
      -6.09509834e-06 -6.05602008e-06 -5.31159276e-06 -5.79485140e-06
      -6.04299385e-06 -5.74813248e-06 -5.67953703e-06 -5.48696380e-06
      -1.66193809e-06 3.89427214e-06 -3.91812455e-06 -5.35862364e-06
      -5.34541141e-06 -4.04210277e-06 -4.19583614e-07 2.90667867e-06
      6.39946211e-06 8.14924351e-06 8.29964665e-06 7.54509938e-06
      5.74859860e-06 4.62174467e-06 3.51119547e-06 9.73173542e-07
      -2.44337366e-06 -4.91280025e-06 -6.42170835e-06 -5.83059000e-06
      6.56622319e-07 -6.71239377e-06 -6.71239377e-06 -7.19565242e-06
      -6.98658823e-06 -7.20867820e-06 -7.48287266e-06 -7.48287266e-06
      -7.20867820e-06 -7.99218378e-06 -8.21427420e-06 -8.21427420e-06
      -8.20124751e-06 -8.69753239e-06 -8.71055818e-06 -8.72358487e-06
      -8.07333163e-06 -8.29542205e-06 -8.01358601e-06 -8.03963849e-06
      -7.43688952e-06 -6.98732401e-06 -6.98732401e-06 -6.71851421e-06
      -6.70548843e-06 -6.70548843e-06 -6.45734599e-06 -6.70548843e-06
      -6.41062661e-06 -6.42365285e-06 -6.37693347e-06 -6.62507591e-06
      -5.89367482e-06 -6.37693347e-06 -6.10812413e-06 -5.82090388e-06
      -6.08207210e-06 -6.09509834e-06 -5.82090388e-06 -6.04299385e-06
      -5.49999004e-06 -5.74813248e-06 -1.02827664e-06 -4.78798620e-06
      1.09798782e-06 8.68290954e-06 1.06926509e-05 1.14558616e-05
      1.05424342e-05 1.04182700e-05 1.05205581e-05 1.07395563e-05
      1.08374825e-05 1.01603800e-05 1.06056441e-05 1.02626682e-05
      1.03182374e-05 1.02758813e-05 1.09194762e-05 9.87752173e-06
      1.42419549e-06 -5.13161194e-06 -6.24216091e-06 6.76159425e-06
      8.00933321e-06 -5.07913501e-06 -3.24218696e-08 -7.22170444e-06
      -7.22170444e-06 -7.23473067e-06 -7.45682064e-06 -7.73101510e-06
      -7.71798932e-06 -7.96613131e-06 -7.96613131e-06 -8.21427420e-06
      -8.22729999e-06 -8.21427420e-06 -8.69753239e-06 -8.46241619e-06
      -8.34214097e-06 -8.06030584e-06 -7.76544402e-06 -7.76544402e-06
      -7.73175088e-06 -7.43688952e-06 -6.70548843e-06 -6.69246219e-06
      -6.70548843e-06 -6.70548843e-06 -6.71851421e-06 -6.67179529e-06
      -6.67179529e-06 -6.17551041e-06 -6.14181727e-06 -6.12879148e-06
      -6.37693347e-06 -6.59138277e-06 -6.12879148e-06 -6.09509834e-06
      -6.09509834e-06 -6.05602008e-06 -5.55973520e-06 -5.51301628e-06
      -5.73510624e-06 3.30643252e-06 9.20543243e-06 9.20282764e-06
      9.52949904e-06 1.06370817e-05 1.04286910e-05 1.09672010e-05
      1.29780701e-05 1.98196085e-05 2.10236831e-05 1.98146881e-05
      1.82795575e-05 1.79804174e-05 1.29176296e-05 9.35691423e-06
      7.85825796e-06 6.70893087e-06 7.18339970e-06 9.33348383e-06
      9.49218975e-06 9.52152004e-06 9.06759215e-06 9.77978289e-06
      9.99878011e-06 7.06221317e-06 1.00934276e-05 -5.49379865e-06
      1.68245788e-06 -6.97356199e-06 -6.97356199e-06 -7.70496263e-06
      -7.96613131e-06 -7.96613131e-06 -7.96613131e-06 -7.96613131e-06
      -8.22729999e-06 -8.46241619e-06 -8.72358487e-06 -8.71055818e-06
      -8.55658982e-06 -8.54356404e-06 -7.79913717e-06 -7.79913717e-06
      -7.81216295e-06 -7.02101715e-06 -7.23546600e-06 -6.72615533e-06
      -6.47801289e-06 -6.20920355e-06 -6.70548843e-06 -6.71851421e-06
      -6.71851421e-06 -6.91993773e-06 -6.41062661e-06 -6.41062661e-06
      -6.12879148e-06 -6.12879148e-06 -6.12879148e-06 -6.12879148e-06
      -6.26075962e-06 -6.01261718e-06 -6.26075962e-06 -1.77292782e-06
      4.24714426e-06 9.84848612e-06 2.94950223e-05 3.00973443e-05
      3.36880694e-05 3.14020908e-05 2.97830193e-05 3.59095066e-05
      3.60448757e-05 3.46467314e-05 3.44586952e-05 3.48385183e-05
      3.48973663e-05 3.44101718e-05 3.36112753e-05 3.37543497e-05
      3.43314678e-05 3.40184961e-05 3.19169703e-05 3.11446893e-05
      3.06070215e-05 1.38741871e-05 1.06274174e-05 5.40848578e-06
      7.99061036e-06 8.98287908e-06 8.59735974e-06 8.66614118e-06
      8.37873449e-06 -7.16613522e-06 -7.20867820e-06 -7.70496263e-06
      -7.70496263e-06 -7.70496263e-06 -7.70496263e-06 -8.18822173e-06
      -7.95310552e-06 -8.46241619e-06 -8.95870107e-06 -8.71055818e-06
      -8.55658982e-06 -8.32147362e-06 -8.06030584e-06 -7.81216295e-06
      -7.50427580e-06 -7.26915914e-06 -6.98732401e-06 -6.73918157e-06
      -6.69246219e-06 -6.70548843e-06 -6.71851421e-06 -6.67179529e-06
      -6.45734599e-06 -6.67179529e-06 -6.16248462e-06 -6.12879148e-06
      -6.16248462e-06 -5.88064904e-06 -6.14181727e-06 -6.12879148e-06
      -6.28681164e-06 -6.26075962e-06 -5.99959094e-06 9.13370695e-06
      2.87550210e-05 2.49887780e-05 3.34588367e-05 3.51476119e-05
      3.71614806e-05 3.23456334e-05 3.55183984e-05 2.56759067e-05
      1.97604149e-05 1.97473892e-05 1.97473892e-05 1.91328236e-05
      1.98715534e-05 1.97589707e-05 1.93209871e-05 1.94132153e-05
      1.94001877e-05 1.89415368e-05 1.88778522e-05 1.86427351e-05
      1.81580326e-05 1.82704462e-05 3.03923971e-05 3.03787474e-05
      3.17554732e-05 1.12060952e-05 6.63645551e-06 8.41799920e-06
      7.28121131e-06 -3.90308332e-06 -7.46984688e-06 -7.48287266e-06
      -7.96613131e-06 -7.96613131e-06 -8.22729999e-06 -8.46241619e-06
      -8.46241619e-06 -8.44939041e-06 -8.71055818e-06 -8.71055818e-06
      -8.30844783e-06 -8.04727915e-06 -8.29542205e-06 -7.50427580e-06
      -7.75241824e-06 -7.25613336e-06 -6.73918157e-06 -6.73918157e-06
      -6.70548843e-06 -6.71851421e-06 -6.19617776e-06 -6.70548843e-06
      -6.69246219e-06 -6.41062661e-06 -6.65876905e-06 -6.37693347e-06
      -6.12879148e-06 -6.33353102e-06 -6.06472122e-06 -6.49155118e-06
      -6.47852494e-06 -6.21735671e-06 2.62909708e-07 2.30418955e-05
      3.34713477e-05 2.65357739e-05 3.58078578e-05 3.52309071e-05
      2.04754451e-05 1.89653765e-05 1.89068414e-05 1.79920044e-05
      1.71232841e-05 1.79522940e-05 1.85759272e-05 1.81628038e-05
      1.82951262e-05 1.78923146e-05 1.78987157e-05 1.91068630e-05
      1.95949106e-05 1.87698370e-05 1.77900929e-05 1.89636739e-05
      1.90470346e-05 1.85517292e-05 1.85192748e-05 1.86245306e-05
      1.89194216e-05 3.05040230e-05 3.19958526e-05 2.77216513e-05
      9.40650170e-06 1.86576059e-07 -7.45682064e-06 -7.22170444e-06
      -7.71798932e-06 -7.95310552e-06 -8.20124751e-06 -7.97915709e-06
      -8.21427420e-06 -8.46241619e-06 -8.46241619e-06 -8.69753239e-06
      -8.55658982e-06 -8.54356404e-06 -7.81216295e-06 -7.76544402e-06
      -7.77846981e-06 -7.22244022e-06 -6.73918157e-06 -6.98732401e-06
      -6.70548843e-06 -6.71851421e-06 -6.47037223e-06 -6.62507591e-06
      -6.43667909e-06 -6.18853664e-06 -6.37693347e-06 -6.17551041e-06
      -6.12879148e-06 -6.25643497e-06 -5.89035881e-06 -6.08207210e-06
      -5.87733257e-06 7.69078633e-06 -2.38569851e-06 3.70126259e-06
      7.48215007e-06 3.11778058e-05 2.62513277e-05 2.01608091e-05
      1.97397912e-05 1.84663913e-05 1.92723001e-05 2.57365155e-05
      3.52402494e-05 3.78433397e-05 3.68737565e-05 3.04091009e-05
      3.06218499e-05 3.24082102e-05 3.36230223e-05 3.52949501e-05
      4.06079671e-05 4.99922826e-05 5.18009874e-05 5.18370871e-05
      5.15498214e-05 5.07214936e-05 4.62001481e-05 2.08048186e-05
      1.90519495e-05 1.82183958e-05 1.28409729e-05 2.91693304e-05
      3.00297179e-05 -2.50184871e-06 -7.46984688e-06 -7.22170444e-06
      -7.46984688e-06 -7.97915709e-06 -8.21427420e-06 -8.20124751e-06
      -8.21427420e-06 -8.20124751e-06 -8.46241619e-06 -8.71055818e-06
      -8.27475469e-06 -8.30844783e-06 -8.28778047e-06 -7.77846981e-06
      -7.73175088e-06 -7.24849224e-06 -7.28218538e-06 -6.47037223e-06
      -6.70548843e-06 -6.70548843e-06 -6.47037223e-06 -6.70548843e-06
      -6.65876905e-06 -6.41062661e-06 -6.12879148e-06 -6.11576525e-06
      -6.62507591e-06 -6.25643497e-06 -5.89035881e-06 -5.67259303e-06
      5.84188592e-06 -7.00625924e-06 -4.92816480e-06 -7.36687753e-06
      6.94289156e-06 2.30164678e-05 2.79750602e-05 3.59658734e-05
      2.64400969e-05 2.80510885e-05 2.92235745e-05 3.13388773e-05
      3.35200457e-05 3.47348650e-05 3.51138588e-05 3.50283335e-05
      3.57634817e-05 3.50419032e-05 3.35031473e-05 2.86122613e-05
      2.85082297e-05 2.79573960e-05 2.72415818e-05 2.55851246e-05
      3.06476504e-05 4.47796119e-05 4.82587311e-05 5.27840602e-05
      5.09240599e-05 1.59534575e-05 1.33839485e-05 1.78592309e-05
      2.09134623e-06 5.84287272e-06 2.69641123e-06 -7.64939432e-06
      -7.73101510e-06 -7.96613131e-06 -8.21427420e-06 -8.20124751e-06
      -8.21427420e-06 -8.44939041e-06 -8.71055818e-06 -8.44939041e-06
      -8.58264229e-06 -8.05266427e-06 -8.01358601e-06 -7.76544402e-06
      -6.98732401e-06 -7.23546600e-06 -6.75220736e-06 -6.44431975e-06
      -6.47037223e-06 -6.70548843e-06 -6.45734599e-06 -6.43667909e-06
      -6.65876905e-06 -6.17551041e-06 -6.58804038e-06 -7.11399434e-06
      -8.57838495e-06 -7.44827230e-06 -6.55838585e-06 -9.42821043e-06
      -6.44893953e-06 1.62973283e-05 2.86890263e-05 5.19666064e-05
      5.37081469e-05 4.66936472e-05 5.59629516e-05 5.48320095e-05
      5.42768794e-05 5.88873154e-05 5.79717271e-05 5.34780775e-05
      5.49738979e-05 5.29885147e-05 5.48581374e-05 5.55979823e-05
      5.70422417e-05 6.04152374e-05 5.84456429e-05 5.08373305e-05
      3.58487632e-05 2.32113689e-05 2.24260475e-05 2.26522607e-05
      2.35852985e-05 2.32895654e-05 2.28063054e-05 2.62229605e-05
      4.71073290e-05 5.10593527e-05 1.61075386e-05 -6.75728370e-06
      -6.98658823e-06 -7.22170444e-06 -1.04932565e-06 7.13925328e-06
      -7.45682064e-06 -7.70496263e-06 -8.22729999e-06 -8.47544197e-06
      -8.24032577e-06 -8.71055818e-06 -8.46241619e-06 -8.71055818e-06
      -8.28778047e-06 -8.02661270e-06 -8.26172891e-06 -7.76544402e-06
      -7.23546600e-06 -7.23546600e-06 -7.20177286e-06 -6.71851421e-06
      -6.47801289e-06 -6.70548843e-06 -6.70273857e-06 -6.44420561e-06
      -6.72042734e-06 -8.89180228e-06 -8.08873756e-06 -1.25710540e-05
      -1.75259811e-05 -1.67464332e-05 -1.62476899e-05 -7.82444840e-06
      -2.10185881e-05 4.02423029e-05 5.22866321e-05 6.58768404e-05
      6.17119076e-05 5.96810751e-05 6.80140220e-05 6.65215703e-05
      6.70571826e-05 6.74820403e-05 6.78705110e-05 6.55240074e-05
      6.82339160e-05 6.16869438e-05 5.13906270e-05 4.66318306e-05
      4.51902415e-05 4.45233018e-05 4.30600885e-05 3.62988176e-05
      3.61574494e-05 3.53336945e-05 3.23727108e-05 2.45154006e-05
      2.37208205e-05 3.60470003e-05 2.18077839e-05 2.49389614e-05
      2.26698194e-05 2.65833023e-05 2.54045444e-05 -6.79245113e-06
      -6.71239377e-06 -6.47727757e-06 -6.96053621e-06 -5.79049902e-06
      -7.51220341e-06 -7.70496263e-06 -8.21427420e-06 -8.21427420e-06
      -8.21427420e-06 -8.46241619e-06 -8.71055818e-06 -8.46241619e-06
      -8.32147362e-06 -8.27475469e-06 -7.51730158e-06 -7.76544402e-06
      -7.48360844e-06 -6.98732401e-06 -6.95363087e-06 -6.94060464e-06
      -6.95363087e-06 -6.45734599e-06 -6.97302403e-06 -8.06395929e-06
      -8.03340026e-06 -1.84057881e-05 -2.01339026e-05 -2.36394972e-05
      -2.36918768e-05 -2.26412994e-05 -2.24398482e-05 -4.18643276e-06
      -2.19082358e-05 2.52822447e-05 5.75829363e-05 5.63070389e-05
      5.15947759e-05 5.75063059e-05 5.83153160e-05 3.14679564e-05
      2.94873407e-05 2.88471892e-05 3.29203613e-05 3.70697708e-05
      3.86385327e-05 3.99030396e-05 4.08915657e-05 4.29061038e-05
      4.36567097e-05 4.23846286e-05 4.08399428e-05 4.24012142e-05
      4.27476443e-05 4.40507611e-05 4.66640013e-05 5.01946924e-05
      4.17420633e-05 3.72016948e-05 3.88668850e-05 1.22583342e-05
      1.78625141e-05 2.45176780e-05 2.59487715e-05 -5.15420015e-06
      -6.72419765e-06 -6.97356199e-06 -6.93986885e-06 -7.22740197e-06
      1.09251514e-05 -7.50748040e-06 -8.21427420e-06 -8.46241619e-06
      -8.22729999e-06 -8.20124751e-06 -8.46241619e-06 -8.71055818e-06
      -8.32147362e-06 -8.32147362e-06 -7.77846981e-06 -7.51730158e-06
      -7.00034980e-06 -7.48360844e-06 -6.95363087e-06 -6.95363087e-06
      -6.95363087e-06 -7.33234538e-06 -8.28448719e-06 -1.53970523e-05
      -2.19889480e-05 -2.56348176e-05 -2.71437202e-05 -2.71512472e-05
      -2.75676412e-05 -2.60112520e-05 -2.53759554e-05 2.79780829e-06
      -1.57985232e-05 -1.73866320e-05 1.34469728e-05 1.25641127e-05
      1.90152368e-05 1.13532715e-05 -7.51657217e-06 6.10910547e-06
      1.71049469e-05 3.23151289e-05 3.12303418e-05 3.27906855e-05
      3.21369735e-05 3.16792903e-05 2.66312836e-05 2.56772964e-05
      2.59626358e-05 2.38670236e-05 2.38661160e-05 3.11977346e-05
      3.21900043e-05 3.42700150e-05 3.36365083e-05 3.78160330e-05
      3.99784476e-05 4.10564717e-05 4.47640305e-05 -6.74540252e-06
      1.94176064e-05 1.20662862e-05 2.31815793e-05 2.39437595e-05
      -6.84887982e-06 -6.98658823e-06 -7.22170444e-06 -7.20867820e-06
      -7.37761820e-06 1.17197544e-06 -7.48287266e-06 -8.20124751e-06
      -8.20124751e-06 -8.71055818e-06 -8.44939041e-06 -8.44939041e-06
      -8.32147362e-06 -8.03963849e-06 -8.02661270e-06 -7.48360844e-06
      -7.43688952e-06 -7.23546600e-06 -6.95363087e-06 -6.95363087e-06
      -7.62761010e-06 -7.81533345e-06 -1.62215583e-05 -2.52594255e-05
      -2.73211808e-05 -2.86467221e-05 -2.87612002e-05 -2.99266812e-05
      -2.84161288e-05 -2.73566020e-05 -2.79242740e-05 -1.67119870e-05
      -1.73991448e-05 -1.75086188e-05 1.60164982e-05 9.38027370e-06
      4.08861979e-06 -6.55797123e-07 -2.11074494e-05 -2.15471682e-05
      -2.15714954e-05 -2.12323666e-05 -2.13640706e-05 -2.10821199e-05
      -2.06335899e-05 -2.05704673e-05 -2.01010935e-05 -1.89708662e-05
      -1.78271566e-05 -1.76369194e-05 -1.73724038e-05 -1.55274520e-05
      -8.27973508e-06 2.94428673e-06 1.24187300e-05 2.42335282e-05
      2.85829083e-05 3.18847633e-05 4.02467376e-05 -7.35024059e-06
      1.38868700e-05 1.93517972e-05 2.24147207e-05 2.36280430e-05
      -6.57468536e-06 -6.71239377e-06 -7.45682064e-06 -7.48287266e-06
      -6.97750238e-06 5.82338907e-06 -7.97915709e-06 -7.96613131e-06
      -8.21427420e-06 -8.47544197e-06 -8.47544197e-06 -8.21427420e-06
      -8.56961651e-06 -8.06030584e-06 -7.74477667e-06 -7.71872510e-06
      -7.47058266e-06 -7.23546600e-06 -6.95363087e-06 -6.99473594e-06
      -7.78299454e-06 -7.91089951e-06 -1.70005133e-05 -2.77337440e-05
      -2.99729491e-05 -2.97497209e-05 -3.01934724e-05 -3.01187083e-05
      -2.99170206e-05 -2.85623628e-05 -2.80446802e-05 -5.27608245e-06
      -1.98570942e-05 -1.80019852e-05 -1.44672094e-05 -1.58273724e-05
      -2.28070694e-05 -2.50123667e-05 -2.61413625e-05 -2.64924292e-05
      -2.62681424e-05 -2.65038107e-05 -2.64094051e-05 -2.69344855e-05
      -2.66294810e-05 -2.62616013e-05 -2.58111868e-05 -2.45623360e-05
      -2.23706684e-05 -1.87594633e-05 -1.66241189e-05 -1.59990032e-05
      -1.54815898e-05 -1.55254456e-05 -6.74655439e-06 -9.03744149e-06
      -7.84005715e-06 -7.34661080e-06 -6.57163810e-07 -5.66501240e-06
      1.97519348e-05 2.58407545e-05 2.12151044e-05 1.94967961e-05
      -6.57468536e-06 -6.97356199e-06 -7.22170444e-06 -7.22170444e-06
      -7.36459242e-06 -6.18218610e-06 -7.72368639e-06 -7.96613131e-06
      -7.96613131e-06 -8.20124751e-06 -8.22729999e-06 -8.21427420e-06
      -8.03963849e-06 -7.77846981e-06 -7.50966046e-06 -7.74477667e-06
      -7.22244022e-06 -6.98732401e-06 -6.70548843e-06 -8.28804605e-06
      -7.22205550e-06 -8.55798044e-06 -1.60058917e-05 -3.14514873e-05
      -2.97903734e-05 -3.14977078e-05 -3.10664254e-05 -3.11470212e-05
      -3.10777687e-05 -3.00953361e-05 -8.61611625e-06 -7.30541751e-06
      -2.01267394e-05 -2.86766790e-05 -3.13403470e-05 -4.90153870e-05
      -6.69236470e-05 -6.16592079e-05 -5.66209674e-05 -5.01959839e-05
      -4.64422883e-05 -4.25573817e-05 -4.03985905e-05 -3.85314670e-05
      -3.42240091e-05 -3.21357766e-05 -2.95891532e-05 -2.97047864e-05
      -3.15556354e-05 -3.23709137e-05 -3.52230818e-05 -3.16978549e-05
      -2.15239943e-05 -1.55974940e-05 -1.67366270e-05 -8.83960274e-06
      -9.00968644e-06 -7.91053935e-06 -8.77165439e-06 -7.03571857e-07
      2.00921459e-05 2.22603412e-05 2.31572667e-05 2.26771117e-05
      -6.58648923e-06 -7.23473067e-06 -7.23473067e-06 -7.23473067e-06
      -7.48287266e-06 -7.37761820e-06 2.73211299e-06 -7.97915709e-06
      -8.22729999e-06 -8.21427420e-06 -8.21427420e-06 -8.72358487e-06
      -8.30844783e-06 -8.03963849e-06 -7.49663468e-06 -7.49663468e-06
      -7.74477667e-06 -7.24849224e-06 -6.97429778e-06 -8.44370061e-06
      -7.99604823e-06 -9.30848273e-06 -2.19544745e-05 -1.41080709e-05
      -3.40348233e-05 -3.13459605e-05 -3.28230417e-05 -3.18572056e-05
      -3.13603559e-05 -3.19177525e-05 6.89565832e-06 -8.71996326e-06
      -2.24304295e-05 -3.71056231e-05 -3.34576471e-05 -5.85265698e-05
      -6.92713948e-05 -6.50688744e-05 -6.06713184e-05 -5.69488257e-05
      -5.25099167e-05 -4.75393572e-05 -4.49789914e-05 -4.15019786e-05
      -3.85601525e-05 -3.72967588e-05 -3.55197008e-05 -3.39887738e-05
      -3.25506626e-05 -3.28339484e-05 -3.77269498e-05 -5.26368349e-05
      -4.77353606e-05 -1.76870544e-05 -1.63545410e-05 -1.78384653e-05
      -9.95141363e-06 -9.21024002e-06 -1.92584030e-05 1.70265810e-08
      1.66440859e-05 3.73676039e-06 1.82668027e-05 1.52408666e-05
      -5.77448827e-06 -7.23473067e-06 -7.46984688e-06 -7.23473067e-06
      -7.46984688e-06 -7.36459242e-06 2.06130517e-06 -8.22729999e-06
      -7.96613131e-06 -8.22729999e-06 -8.46241619e-06 -8.22729999e-06
      -8.07333163e-06 -7.76544402e-06 -7.53032782e-06 -7.74477667e-06
      -7.47058266e-06 -7.24849224e-06 -7.21479910e-06 -8.61839908e-06
      -8.50384913e-06 -8.36122035e-06 -2.27926867e-05 -1.76878475e-05
      -1.46286056e-05 -1.30067056e-05 -3.79157354e-05 -3.28356364e-05
      -3.29454524e-05 -3.32222880e-05 -2.35963234e-05 -1.40338661e-05
      -3.11754739e-05 -3.14038698e-05 -1.98885118e-05 -1.79449289e-05
      -3.09683128e-05 -2.91733377e-05 -2.66626575e-05 -2.86649993e-05
      -2.91251927e-05 -2.98813429e-05 -3.35072109e-05 -3.37647652e-05
      -3.57557983e-05 -3.60149788e-05 -3.64957923e-05 -3.71660935e-05
      -4.16352013e-05 -4.43247081e-05 -4.74250155e-05 -5.23904964e-05
      -4.16246367e-05 -2.00923114e-05 -1.73583940e-05 -1.65873389e-05
      -1.78833361e-05 -1.48608096e-05 -1.68960960e-05 5.46204717e-07
      1.34749689e-05 3.78380901e-06 7.46790874e-06 -3.21149378e-06
      -6.35205197e-06 -7.23473067e-06 -7.23473067e-06 -7.23473067e-06
      -7.23473067e-06 -7.27236375e-06 3.81152887e-07 -7.71798932e-06
      -7.70496263e-06 -8.22729999e-06 -8.24796734e-06 -8.46241619e-06
      -8.30844783e-06 -7.79149650e-06 -7.76544402e-06 -7.73175088e-06
      -7.49663468e-06 -7.50966046e-06 -6.98732401e-06 -7.61131696e-06
      -7.97975554e-06 -9.17092257e-06 -2.33941937e-05 -1.95966386e-05
      -1.79858616e-05 -1.67085582e-05 -1.49996795e-05 -1.39154272e-05
      -1.07957894e-05 -3.19090905e-05 -2.78331900e-05 -1.53908386e-05
      -3.42607455e-05 -2.90221324e-05 -2.07568501e-05 -2.52859281e-05
      -3.07774426e-05 -2.96304552e-05 -2.73716505e-05 -2.79029609e-05
      -2.79740088e-05 -2.87404309e-05 -3.14602876e-05 -3.29896829e-05
      -3.38073769e-05 -3.57309327e-05 -3.60770646e-05 -3.68211186e-05
      -3.97147014e-05 -4.30781838e-05 -4.25613362e-05 -5.32347767e-05
      -4.06981089e-05 -1.82289623e-05 -1.68502429e-05 -2.17379475e-05
      -2.27422315e-05 -1.79638355e-05 -1.36777144e-05 1.14153011e-06
      7.42525253e-06 3.54869258e-06 5.59454202e-06 -2.31511058e-06
      -6.88985892e-06 -6.99961402e-06 -6.98658823e-06 -7.49589890e-06
      -7.20867820e-06 -7.73101510e-06 5.63305264e-07 -8.22729999e-06
      -8.22729999e-06 -8.24032577e-06 -8.48846867e-06 -8.48846867e-06
      -8.02661270e-06 -8.02661270e-06 -7.75780336e-06 -7.50966046e-06
      -7.49663468e-06 -7.20177286e-06 -6.95363087e-06 -8.28202883e-06
      -8.45397699e-06 -8.71690281e-06 -2.33349347e-05 -1.94887489e-05
      -1.90311112e-05 -1.82766071e-05 -1.81806845e-05 -1.65015699e-05
      -1.53042729e-05 -1.85837575e-06 -5.86377610e-06 6.46537501e-06
      -1.46785796e-05 -1.34159736e-05 -2.20183283e-05 -3.35009827e-05
      -3.28862698e-05 -2.94341680e-05 -2.75073107e-05 -2.98009854e-05
      -2.93532448e-05 -2.99802541e-05 -3.37253077e-05 -1.05530262e-05
      -1.21202784e-05 -1.18068492e-05 -1.37207089e-05 1.68927963e-05
      -1.08150643e-05 -1.53559745e-06 -5.29283989e-06 -1.32373907e-05
      -3.38391760e-06 -1.80242637e-06 -1.74480992e-05 -2.42706028e-05
      -2.39413348e-05 -1.96015662e-05 -1.10328356e-05 1.69075588e-06
      1.61468745e-06 2.37061522e-06 5.82965822e-06 -2.32881553e-06
      -6.94318533e-06 -7.23473067e-06 -7.23473067e-06 -7.48287266e-06
      -7.48287266e-06 -7.46984688e-06 2.22375979e-06 -7.99218378e-06
      -7.97915709e-06 -8.22729999e-06 -8.47544197e-06 -8.24032577e-06
      -8.30844783e-06 -8.26172891e-06 -7.76544402e-06 -7.48360844e-06
      -7.69805774e-06 -6.98732401e-06 -6.95363087e-06 -8.29983219e-06
      -8.17376622e-06 -8.69068390e-06 -2.31807899e-05 -1.93446431e-05
      -1.83636876e-05 -1.81439154e-05 -1.76720932e-05 -1.72474683e-05
      -1.63389541e-05 9.38966878e-06 -8.71720567e-06 8.66112430e-07
      -2.02248375e-05 -9.21948595e-06 -8.24381732e-06 -1.53049295e-05
      -1.77000184e-05 -1.78437294e-05 -1.77898655e-05 -1.88652757e-05
      -1.90561259e-05 -2.08611127e-05 -2.52074242e-05 1.52454231e-05
      1.18733024e-05 1.07460455e-05 1.61071493e-05 3.15655489e-05
      -7.27279439e-06 -2.35346761e-05 -1.94254808e-05 -2.65606086e-05
      -3.07048249e-05 -2.03143918e-05 -8.93314609e-06 -2.97103306e-05
      -3.42333624e-05 -3.61225502e-05 -1.69232208e-05 -2.97149836e-06
      -9.80779191e-07 3.33677144e-06 6.90679963e-06 -1.32752439e-06
      -7.46002252e-06 -6.98658823e-06 -7.24500660e-06 -7.49314904e-06
      -7.24500660e-06 -7.16710929e-06 4.15499926e-06 -7.71798932e-06
      -8.21427420e-06 -8.19360685e-06 -8.47544197e-06 -8.47544197e-06
      -8.27475469e-06 -8.02661270e-06 -7.51730158e-06 -7.75780336e-06
      -7.48360844e-06 -7.49663468e-06 -7.20177286e-06 -8.43628914e-06
      -8.07073229e-06 -8.14692703e-06 -2.18950281e-05 -1.89931980e-05
      -1.91927829e-05 -1.79743674e-05 -1.80258630e-05 -1.70742387e-05
      -1.61690677e-05 4.03027479e-06 -1.55489597e-05 -4.54346446e-06
      -1.95298089e-05 -1.13561027e-05 -1.29713007e-05 -2.22007056e-05
      -2.21898990e-05 -2.17561737e-05 -2.10290436e-05 -2.09415321e-05
      -2.05841843e-05 -2.16378467e-05 -2.01220100e-05 2.90441276e-05
      2.06919794e-05 4.53362118e-05 4.11441069e-05 6.05214518e-05
      3.29583927e-05 2.69811990e-05 1.53289002e-05 -6.57922737e-06
      -8.90223419e-06 -9.13113490e-06 1.71507781e-06 -3.59739242e-05
      -3.58820325e-05 -3.61749553e-05 -1.42639501e-05 -3.25910651e-06
      -1.19504766e-05 6.27780719e-06 4.65169387e-06 -4.26454062e-06
      -9.15410965e-06 -8.51501409e-06 -9.29752696e-06 -9.07694630e-06
      -7.28611212e-06 -5.97836924e-06 -3.16744058e-06 -7.97915709e-06
      -8.22729999e-06 -8.21427420e-06 -8.47544197e-06 -8.48846867e-06
      -8.30844783e-06 -8.04727915e-06 -7.56402096e-06 -7.53032782e-06
      -7.73175088e-06 -7.50966046e-06 -7.22244022e-06 -8.39231961e-06
      -8.56701718e-06 -8.38053256e-06 -2.32403981e-05 -1.80450461e-05
      -1.71858155e-05 -1.73656626e-05 -1.71313186e-05 -1.76353242e-05
      -1.76677895e-05 -1.14561490e-05 -1.48787421e-05 -1.22502797e-05
      -1.45067943e-05 -1.10252904e-05 -1.15443754e-05 -2.23814604e-05
      -2.29050966e-05 -2.14093816e-05 -2.19605263e-05 -2.25441290e-05
      -2.31370941e-05 -1.75079931e-05 -1.97795543e-05 2.62148933e-05
      2.10019443e-05 5.08597768e-05 4.49000909e-05 3.31934934e-05
      2.79540563e-05 2.93386402e-05 3.02882563e-05 -7.48802358e-06
      -2.92143136e-06 -1.11146646e-05 -2.42706119e-05 -2.75192797e-05
      -2.79036849e-05 -2.92994919e-05 -9.47780700e-06 -7.93506297e-06
      -6.97327914e-06 6.72817760e-06 5.58006332e-06 -5.75203921e-06
      -8.62188517e-06 -9.24614505e-06 -9.01377825e-06 -9.19751255e-06
      -9.12832820e-06 -1.18380660e-06 -1.05566653e-06 -7.98943347e-06
      -8.21427420e-06 -8.22729999e-06 -8.46241619e-06 -8.73661065e-06
      -8.30844783e-06 -8.06030584e-06 -8.01358601e-06 -7.77846981e-06
      -7.79149650e-06 -7.49663468e-06 -7.44020554e-06 -8.88630620e-06
      -8.77175717e-06 -9.34243417e-06 -2.28124518e-05 -1.92349617e-05
      -1.83133780e-05 -1.77927286e-05 -1.54468871e-05 -1.54971640e-05
      -1.67423477e-05 -1.33776475e-05 -1.31438810e-05 -1.01463584e-05
      -9.92844343e-06 -9.83314385e-06 -1.34408619e-05 -2.22721610e-05
      -2.17887482e-05 -2.06243967e-05 -1.67938178e-05 -2.16307581e-05
      -2.36499036e-05 -1.74184315e-05 -1.90609171e-05 3.40541701e-05
      3.56102901e-05 5.75984996e-05 5.27061020e-05 1.77854199e-05
      3.17452941e-05 2.93670873e-05 3.01430082e-05 -2.91837182e-06
      -2.85078477e-06 -1.85126828e-05 -2.52570499e-05 -2.82503024e-05
      -3.15949474e-05 -2.88667725e-05 -1.52322791e-05 -1.35303299e-05
      -1.30206672e-05 5.47849504e-06 4.08565529e-06 -3.26711506e-06
      -6.52740300e-06 -8.22249967e-06 -8.93458764e-06 -8.81127107e-06
      -6.66000824e-06 -9.46771797e-06 -4.44173651e-07 -8.25060215e-06
      -8.22729999e-06 -8.21427420e-06 -8.47544197e-06 -8.47544197e-06
      -8.30844783e-06 -8.30844783e-06 -8.02661270e-06 -7.53032782e-06
      -7.28218538e-06 -7.22844470e-06 -7.45323177e-06 -8.81712185e-06
      -8.80258540e-06 -8.51295499e-06 -2.30838978e-05 -1.91974723e-05
      -1.86928155e-05 -1.79806684e-05 -1.61701410e-05 -1.68748757e-05
      -1.64912944e-05 -1.63981767e-05 -1.45584881e-05 -8.40265784e-06
      -8.79592517e-06 -2.93541598e-06 -1.48298095e-05 -2.15827331e-05
      -2.17828310e-05 -1.98934013e-05 -4.27140139e-06 -4.73033651e-06
      -5.31240516e-07 5.94076255e-06 1.25036186e-05 3.70905072e-05
      3.82533362e-05 6.30028226e-05 6.59062425e-05 3.15639591e-05
      6.23036613e-05 4.44790567e-05 2.20014263e-05 1.45502654e-05
      1.77388774e-05 -7.84820531e-06 3.47822788e-06 8.17276316e-07
      -7.58782289e-06 -1.25399001e-05 -2.02193442e-05 -1.90215251e-05
      -1.24871003e-05 3.45198737e-06 6.62749108e-06 6.82864402e-06
      -7.16658133e-06 -9.36468405e-06 -9.04336775e-06 -9.19483500e-06
      -6.06647248e-08 -8.92307162e-06 1.09202767e-06 -8.92609114e-06
      -7.97915709e-06 -8.22729999e-06 -8.47544197e-06 -8.47544197e-06
      -8.30844783e-06 -8.55658982e-06 -8.03425337e-06 -7.72204112e-06
      -7.70137376e-06 -7.38366361e-06 -6.24551467e-06 -7.63763546e-06
      -5.91451999e-06 -6.54689757e-06 -2.35901662e-05 -2.00219056e-05
      -1.82288113e-05 -1.76541998e-05 -1.67400649e-05 -1.55019625e-05
      -1.77045840e-05 -1.70832027e-05 -1.51024688e-05 -6.24335053e-06
      -3.31949514e-06 -2.90486969e-06 -1.89917882e-05 -1.57321556e-05
      -5.46715819e-06 -7.13364716e-06 -4.41896918e-06 -3.06357811e-06
      2.28288918e-05 1.72626987e-05 2.09442514e-05 2.60260222e-05
      3.82571125e-05 2.47021944e-05 6.60578880e-05 6.60547958e-05
      7.13531335e-05 5.40193541e-05 1.83793363e-05 2.05682081e-05
      2.78357038e-05 2.25510048e-05 3.24729735e-05 3.62233322e-06
      4.84036036e-07 1.73723390e-06 -7.23240817e-07 1.78271409e-06
      -1.80602601e-05 -2.13567309e-05 7.40268933e-06 1.24107839e-06
      -5.36082052e-06 -7.20160415e-06 -7.71091436e-06 -7.78147660e-06
      -8.16276895e-07 -9.33687534e-06 3.36616404e-06 -9.73641272e-06
      -8.29923465e-06 -7.97915709e-06 -8.47544197e-06 -8.47544197e-06
      -8.30844783e-06 -8.27807071e-06 -8.01690294e-06 -7.93980689e-06
      -4.18089621e-06 -6.13162092e-06 -3.64687799e-06 -4.34008143e-06
      -1.23229734e-06 -6.55434451e-06 -2.28121989e-05 -1.89119964e-05
