<?xml version="1.0"?>
<opencv_storage>
<opencv_ml_svm>
  <format>3</format>
  <svmType>C_SVC</svmType>
  <kernel>
    <type>LINEAR</type></kernel>
  <C>1.</C>
  <term_criteria><iterations>100</iterations></term_criteria>
  <var_count>32</var_count>
  <class_count>3</class_count>
  <class_labels type_id="opencv-matrix">
    <rows>3</rows>
    <cols>1</cols>
    <dt>i</dt>
    <data>
      0 1 2</data></class_labels>
  <sv_total>3</sv_total>
  <support_vectors>
    <_>
      8.40877874e-07 1.19342042e-06 2.45396564e-06 2.25224721e-06
      4.84813711e-07 9.42072234e-07 1.28530189e-06 1.98537168e-06
      8.09605467e-07 5.51856999e-07 8.95011794e-07 3.83225313e-07
      6.22661446e-07 3.51946767e-07 -9.50177821e-08 4.19805303e-07
      6.76383479e-07 1.09931409e-06 2.52463133e-06 2.13616090e-06
      4.03836054e-07 7.99203860e-07 8.58644114e-07 1.50306630e-06
      1.69540499e-06 1.20642824e-06 8.73922090e-07 9.98446481e-08
      4.73802800e-07 1.04487057e-07 9.00394692e-09 2.33237749e-08</_>
    <_>
      3.01972932e-06 1.28482441e-06 9.25590030e-07 7.81456393e-08
      -3.32565151e-07 -6.23323558e-07 -6.42515261e-07 5.58010413e-07
      -2.68083954e-06 -7.78600622e-07 -2.12101313e-07 9.47879471e-07
      1.05613037e-06 1.35029643e-06 7.14025305e-07 5.64134211e-07
      2.56272551e-06 2.43400586e-06 9.11111044e-07 6.94923301e-08
      -4.17854238e-07 -9.89670184e-07 -1.25623774e-06 -8.69685891e-07
      -1.58575313e-06 -5.80154790e-07 3.47377153e-07 1.08773713e-06
      9.92760988e-07 1.25280542e-06 1.17543493e-06 1.10337858e-07</_>
    <_>
      -1.57359892e-07 2.50124486e-07 -1.66088668e-07 -3.58853896e-07
      -3.60790750e-07 -6.10625875e-07 -7.50567324e-07 -1.12947691e-06
      -2.32827279e-06 -6.21762069e-07 -5.57985970e-07 5.45453593e-09
      6.07770687e-08 2.06486632e-07 1.23844544e-07 -5.88298747e-07
      9.43810932e-08 3.75079480e-07 -5.52227846e-08 -3.22443952e-07
      -3.59497619e-07 -6.73997761e-07 -8.30202794e-07 -1.55907935e-06
      -2.13754174e-06 -8.12214466e-07 -3.13514278e-07 1.28523936e-07
      2.83347799e-08 2.71793567e-07 3.38066712e-07 -4.83368694e-07</_></support_vectors>
  <uncompressed_sv_total>9</uncompressed_sv_total>
  <uncompressed_support_vectors>
    <_>
      2.40385625e+05 1.65927016e+05 1.69951453e+05 1.48640531e+05
      4.96033750e+04 7.92263750e+04 8.42792656e+04 1.17625133e+05
      8.29923047e+04 4.57153633e+04 5.62280859e+04 2.95369844e+04
      5.30681797e+04 4.73770039e+04 3.46041523e+04 7.68889375e+04
      2.57235828e+05 1.49871641e+05 1.94503312e+05 1.51243688e+05
      5.11035078e+04 7.29183203e+04 7.82485078e+04 1.03310062e+05
      9.33591406e+04 6.40051719e+04 4.87541719e+04 1.85481934e+04
      5.59079570e+04 4.25532227e+04 4.69991992e+04 9.07080703e+04</_>
    <_>
      3.81289562e+05 1.08335656e+05 8.48318594e+04 5.82388242e+04
      5.16794023e+04 7.42192578e+04 7.85402188e+04 2.02943344e+05
      2.29398094e+05 6.25494023e+04 7.81646328e+04 6.77970938e+04
      6.67743359e+04 7.16999844e+04 6.83930547e+04 2.00269859e+05
      327734. 1.49921234e+05 7.85525859e+04 5.83108789e+04
      4.89817617e+04 6.70930781e+04 7.84347500e+04 2.04964891e+05
      2.25400859e+05 7.34822734e+04 7.05073359e+04 6.50567188e+04
      7.51257969e+04 6.59037266e+04 6.88942266e+04 1.77140484e+05</_>
    <_>
      5.44463500e+05 1.04445312e+05 9.58795391e+04 8.65341562e+04
      6.37368359e+04 1.04834148e+05 5.88182383e+04 5.90200312e+04
      1.53008750e+05 1.08944070e+05 1.66115266e+05 1.20414453e+05
      7.21378281e+04 4.27739258e+04 6.13110508e+04 3.81175438e+05
      3.75806781e+05 1.00817523e+05 1.06318945e+05 8.74505547e+04
      7.59908672e+04 9.27946172e+04 6.42420664e+04 8.37974062e+04
      1.33655109e+05 1.10785367e+05 1.58349453e+05 1.17353023e+05
      8.01497812e+04 4.34532773e+04 5.86232578e+04 2.27395781e+05</_>
    <_>
      1.95639906e+05 2.02377594e+05 1.63881203e+05 181903.
      1.86562844e+05 1.82563484e+05 1.52604703e+05 1.29256031e+05
      1.21150891e+05 1.05751539e+05 1.11710844e+05 1.14141422e+05
      1.20374828e+05 1.36510812e+05 1.47229531e+05 1.61976984e+05
      1.71350344e+05 2.01901203e+05 1.96120906e+05 1.92714344e+05
      1.73457125e+05 1.60382562e+05 1.46105250e+05 1.16802477e+05
      1.25088633e+05 1.29526984e+05 1.25566781e+05 1.13611648e+05
      1.18143992e+05 1.29150711e+05 1.34883312e+05 1.61992844e+05</_>
    <_>
      3.47865938e+05 1.23577859e+05 2.95143887e+04 1.34972656e+04
      1.05509199e+04 3.41041953e+04 2.12165059e+04 3.02784160e+04
      7.73416875e+04 1.52495107e+04 1.27960654e+04 6.58477490e+03
      9.27192578e+03 8.75323438e+03 1.06189619e+04 6.11423633e+04
      3.65200156e+05 1.01957984e+05 6.94733438e+04 4.41936875e+04
      2.46113633e+04 3.55888320e+04 3.88062070e+04 4.04590078e+04
      1.01233291e+04 3.07083228e+03 2.70994336e+03 4.76747070e+03
      3.63740117e+04 1.89264160e+04 1.95968809e+04 1.07548703e+05</_>
    <_>
      95899. 9.06280078e+04 7.56496953e+04 6.80016719e+04 4.63052539e+04
      4.13032344e+04 2.84436934e+04 2.62514922e+04 3.26199805e+04
      3.34653047e+04 3.07022266e+04 2.91299844e+04 4.33610625e+04
      5.54675508e+04 7.20288828e+04 9.21102031e+04 1.04659477e+05
      9.38982188e+04 7.49265781e+04 5.27081914e+04 4.32887305e+04
      3.95125234e+04 3.88360156e+04 3.58453633e+04 3.66674453e+04
      2.10317969e+04 2.76968418e+04 3.58895586e+04 3.63016875e+04
      5.84528125e+04 7.61831484e+04 9.08084219e+04</_>
    <_>
      1.63661781e+05 9.90001094e+04 1.08839953e+05 1.90734281e+05
      1.28285047e+05 7.97995156e+04 8.17506953e+04 2.48941453e+05
      2.95785156e+05 6.31411094e+04 5.00242773e+04 4.24719102e+04
      2.07019004e+04 1.38562852e+04 1.82884590e+04 5.67598711e+04
      1.66299094e+05 7.46865078e+04 9.82538281e+04 2.21790078e+05
      1.43209922e+05 8.68930625e+04 1.09072977e+05 2.85547781e+05
      2.12453453e+05 4.98859570e+04 7.44753047e+04 2.89720762e+04
      1.25138584e+04 9.00324316e+03 4.05553086e+04 6.28211602e+04</_>
    <_>
      2.19920922e+05 7.46540938e+04 7.15605703e+04 7.72293281e+04
      6.54769570e+04 1.05735188e+05 1.09927562e+05 1.49330453e+05
      2.92585719e+05 9.22281406e+04 8.38699453e+04 2.01355254e+04
      2.31228125e+04 1.37395527e+04 3.46577266e+04 1.48625531e+05
      2.03419656e+05 5.37101523e+04 7.64319766e+04 7.68719688e+04
      6.60947969e+04 1.12868430e+05 1.32111875e+05 2.04304859e+05
      2.51656812e+05 9.88683203e+04 5.14461406e+04 9.87979102e+03
      3.32030664e+04 1.22225791e+04 1.72275254e+04 1.54294812e+05</_>
    <_>
      1.17839359e+05 1.15843375e+05 1.22979758e+05 1.88635547e+05
      1.41608578e+05 6.64647344e+04 3.58116758e+04 1.24746898e+05
      3.73366969e+05 9.15220469e+04 6.65537031e+04 1.05243398e+04
      2.53553340e+04 3.12470859e+04 2.90244707e+04 4.66964648e+04
      1.32410781e+05 1.10469109e+05 1.10776031e+05 1.82060984e+05
      1.90610281e+05 5.96192383e+04 5.07833828e+04 1.87032344e+05
      2.72465250e+05 1.17866352e+05 4.40800859e+04 8.42905762e+03
      3.50890430e+04 3.67736172e+04 2.37922324e+04 6.79176406e+04</_></uncompressed_support_vectors>
  <decision_functions>
    <_>
      <sv_count>1</sv_count>
      <rho>2.5929897260333243e+00</rho>
      <alpha>
        1.</alpha>
      <index>
        0</index></_>
    <_>
      <sv_count>1</sv_count>
      <rho>9.5577973426198182e-01</rho>
      <alpha>
        1.</alpha>
      <index>
        1</index></_>
    <_>
      <sv_count>1</sv_count>
      <rho>-1.4743352911709247e+00</rho>
      <alpha>
        1.</alpha>
      <index>
        2</index></_></decision_functions></opencv_ml_svm>
</opencv_storage>
