<?xml version="1.0"?>
<opencv_storage>
<opencv_ml_svm>
  <format>3</format>
  <svmType>C_SVC</svmType>
  <kernel>
    <type>LINEAR</type></kernel>
  <C>1.</C>
  <term_criteria><iterations>100</iterations></term_criteria>
  <var_count>32</var_count>
  <class_count>3</class_count>
  <class_labels type_id="opencv-matrix">
    <rows>3</rows>
    <cols>1</cols>
    <dt>i</dt>
    <data>
      0 1 2</data></class_labels>
  <sv_total>3</sv_total>
  <support_vectors>
    <_>
      9.84379653e-07 -4.01283273e-08 -1.11524662e-06 -1.98903786e-06
      -9.77795025e-07 -1.81135317e-06 -1.22546703e-06 1.69653367e-06
      8.30743147e-07 -1.56193653e-06 -4.20487908e-07 -3.12799301e-07
      -7.16834393e-07 1.52258437e-07 -1.03327153e-07 1.91537015e-06
      1.98824091e-06 8.89900093e-07 -7.93853587e-07 -1.45317040e-06
      -1.04821515e-06 -1.78787968e-06 -1.39414374e-06 3.32369814e-06
      -1.10374557e-07 -2.49561322e-06 -1.08882296e-06 -6.70494131e-08
      -8.42304246e-07 -3.01929191e-07 1.93443228e-07 2.07841117e-06</_>
    <_>
      -2.76099672e-06 -1.19560752e-06 -1.16125227e-06 -1.81262101e-06
      -6.46101512e-07 -1.37209690e-06 -9.72546786e-07 3.41235886e-06
      1.45377624e-06 1.61445158e-07 2.49574953e-07 8.91948446e-07
      8.04709600e-07 7.91373623e-07 -1.26511532e-06 -1.79729875e-06
      -6.11399500e-08 -2.13015738e-07 -8.15729209e-07 -1.37307018e-06
      -1.08752062e-07 -9.51978450e-07 -8.06358685e-07 2.68913413e-06
      1.61153409e-07 1.41366328e-07 2.85032598e-07 1.06206915e-06
      5.31211697e-07 4.89787794e-07 -6.23193500e-07 2.85709575e-06</_>
    <_>
      -1.71356282e-06 -4.09065706e-07 5.24601489e-07 3.85487141e-07
      -7.54979510e-07 7.95478456e-07 1.02071442e-06 6.37333642e-07
      3.34182801e-06 4.91780497e-07 -2.28674878e-07 -3.87147935e-07
      -4.73491923e-07 -1.69706524e-07 -8.46728540e-07 -4.60643287e-06
      -2.74179752e-06 -4.37779192e-07 5.50460015e-07 5.41979546e-07
      2.96286032e-07 4.09469010e-07 1.92017335e-08 -1.02498882e-06
      1.92348398e-06 1.51890481e-06 1.16389720e-06 -1.54482876e-07
      6.46444448e-07 5.15577256e-07 -2.99735888e-07 -1.82701865e-06</_></support_vectors>
  <uncompressed_sv_total>10</uncompressed_sv_total>
  <uncompressed_support_vectors>
    <_>
      1.42190031e+05 5.54747930e+04 3.71493750e+04 3.59349102e+04
      3.53440391e+04 55607. 1.22177719e+05 3.44704562e+05 2.60457688e+05
      1.06963844e+05 8.43566406e+04 5.59741406e+04 5.75227461e+04
      6.13562266e+04 5.27332891e+04 9.65319375e+04 1.41011844e+05
      9.26604219e+04 4.55938555e+04 3.82902773e+04 3.39245000e+04
      5.71685938e+04 1.26833727e+05 3.28479969e+05 2.26713219e+05
      1.15463297e+05 8.76049375e+04 6.37651836e+04 6.57037578e+04
      6.12756445e+04 7.01418906e+04 1.13312867e+05</_>
    <_>
      1.72865109e+05 9.32171797e+04 4.97149922e+04 3.93507227e+04
      4.48788750e+04 6.90585547e+04 1.27303562e+05 2.46554109e+05
      6.07752375e+05 1.33140875e+05 8.14610547e+04 5.77097344e+04
      6.65729375e+04 8.00938906e+04 6.45667031e+04 1.31055305e+05
      1.43689953e+05 8.49216641e+04 4.68858906e+04 4.36925742e+04
      4.85862461e+04 7.31365312e+04 1.20203945e+05 3.30589344e+05
      5.22235938e+05 1.34050141e+05 9.52475781e+04 7.51810156e+04
      5.90689883e+04 5.39819453e+04 6.38767109e+04 1.17478570e+05</_>
    <_>
      4.85553688e+05 1.10440766e+05 7.94864219e+04 1.00121531e+05
      1.00630312e+05 1.15179008e+05 1.94265672e+05 3.23138906e+05
      4.16360938e+05 2.40752688e+05 1.51503219e+05 1.47679406e+05
      3.23245562e+05 2.35687031e+05 9.97360391e+04 3.24015719e+05
      6.23280500e+05 1.13081633e+05 9.25523672e+04 1.09803562e+05
      1.09725680e+05 1.42026562e+05 1.97966156e+05 3.16380375e+05
      3.64321906e+05 2.44689422e+05 1.72837906e+05 1.83515266e+05
      2.71764312e+05 1.94298641e+05 1.03818531e+05 5.40427375e+05</_>
    <_>
      1.66581984e+05 6.65570312e+04 8.06559453e+04 9.11134062e+04
      3.80593789e+04 1.10653469e+05 1.51145141e+05 1.65752734e+05
      2.85044844e+05 1.20338117e+05 6.50503789e+04 3.21117383e+04
      5.64457969e+04 5.53098281e+04 5.01113477e+04 4.27094102e+04
      8.61769922e+04 6.23403477e+04 8.05168516e+04 8.87876875e+04
      5.68261250e+04 9.59630703e+04 1.21008766e+05 1.15333023e+05
      2.47039625e+05 1.60048188e+05 1.16003797e+05 4.68766914e+04
      9.12660703e+04 7.51419609e+04 6.52394609e+04 4.82509141e+04</_>
    <_>
      1.14584688e+05 1.25085391e+05 1.13843516e+05 1.40367781e+05
      1.19427883e+05 1.62216031e+05 2.60812156e+05 4.95079188e+05
      5.10498375e+05 2.27090344e+05 1.61163812e+05 1.37409516e+05
      160896. 1.06845859e+05 1.13680383e+05 7.83348906e+04
      9.25133984e+04 9.12235938e+04 1.04351508e+05 1.34550531e+05
      1.37180922e+05 2.01099828e+05 2.44417062e+05 3.96207094e+05
      5.38824125e+05 2.91842219e+05 1.88487281e+05 1.38636844e+05
      1.44432328e+05 1.01929758e+05 9.63376719e+04 7.04706797e+04</_>
    <_>
      4.77572500e+04 2.47190801e+04 3.95192969e+04 8.66505938e+04
      8.18925703e+04 9.71562422e+04 8.40260156e+04 1.17756188e+05
      4.01801406e+05 1.98789234e+05 8.49454453e+04 5.31821914e+04
      5.37253945e+04 3.22674707e+04 2.24207461e+04 1.92161855e+04
      3.68451250e+04 1.89971211e+04 2.24409844e+04 3.87222773e+04
      3.92363086e+04 8.79364688e+04 1.80070078e+05 2.08652953e+05
      3.45130156e+05 1.97701516e+05 7.90600469e+04 3.87594883e+04
      3.06743066e+04 1.77296074e+04 1.34298848e+04 1.22491885e+04</_>
    <_>
      3.44849031e+05 2.05711328e+05 1.77182172e+05 1.97299969e+05
      2.05712109e+05 2.64489094e+05 3.87610094e+05 4.64995219e+05
      3.63285531e+05 2.48339016e+05 1.71388562e+05 1.09189078e+05
      1.39607234e+05 1.25592484e+05 1.47909328e+05 5.04607219e+05
      2.32959656e+05 1.45975047e+05 1.54280984e+05 1.68600062e+05
      1.54555797e+05 2.45034062e+05 3.70600531e+05 4.22866500e+05
      4.44247750e+05 2.83593438e+05 2.11620531e+05 1.47090188e+05
      1.62979094e+05 1.42155797e+05 1.41421625e+05 1.57173438e+05</_>
    <_>
      568533. 3.42675562e+05 3.09343250e+05 3.36877031e+05
      2.54646672e+05 3.21947156e+05 3.84042375e+05 5.35354875e+05
      6.68737812e+05 3.59507188e+05 288300. 2.20947172e+05
      3.06710594e+05 2.61812047e+05 2.95724719e+05 5.88124562e+05
      5.38460812e+05 3.09951812e+05 2.73666938e+05 3.01541781e+05
      2.26285438e+05 2.80528438e+05 3.61417281e+05 4.64394938e+05
      7.35137500e+05 4.51566719e+05 3.47973500e+05 255872.
      3.36122188e+05 2.94488969e+05 3.32148719e+05 3.44712938e+05</_>
    <_>
      1.33169062e+05 3.16500684e+04 2.61380391e+04 3.47706953e+04
      2.42751621e+04 3.71579844e+04 4.92398164e+04 5.66096523e+04
      8.79540859e+04 5.79552461e+04 3.71748789e+04 2.16014688e+04
      3.40141641e+04 3.01314219e+04 3.85797930e+04 9.67228828e+04
      9.32504062e+04 4.01307695e+04 3.11032324e+04 3.35661445e+04
      1.89930645e+04 3.92542539e+04 5.32701758e+04 5.50472422e+04
      8.12002812e+04 5.96633008e+04 4.03770273e+04 2.28481582e+04
      3.19725078e+04 2.69515176e+04 3.94464805e+04 6.85838750e+04</_>
    <_>
      503296. 1.19416602e+05 7.32562422e+04 1.19941664e+05
      3.08224453e+04 9.63050469e+04 1.61301375e+05 1.89554609e+05
      4.28972188e+05 1.36037969e+05 8.03882422e+04 2.21108418e+04
      1.24597914e+05 9.03289297e+04 1.35345438e+05 1.43707312e+05
      4.49627094e+05 1.17996180e+05 7.69616953e+04 1.14172945e+05
      2.43723027e+04 9.62077969e+04 1.62535844e+05 2.92248250e+05
      3.75819906e+05 1.18927133e+05 6.77501016e+04 2.44129102e+04
      1.07327680e+05 6.71078359e+04 1.03428820e+05 1.53362797e+05</_></uncompressed_support_vectors>
  <decision_functions>
    <_>
      <sv_count>1</sv_count>
      <rho>2.7906701936340783e-01</rho>
      <alpha>
        1.</alpha>
      <index>
        0</index></_>
    <_>
      <sv_count>1</sv_count>
      <rho>8.0787768519277492e-01</rho>
      <alpha>
        1.</alpha>
      <index>
        1</index></_>
    <_>
      <sv_count>1</sv_count>
      <rho>5.1920758142795798e-01</rho>
      <alpha>
        1.</alpha>
      <index>
        2</index></_></decision_functions></opencv_ml_svm>
</opencv_storage>
