<?xml version="1.0"?>
<opencv_storage>
<opencv_ml_svm>
  <format>3</format>
  <svmType>C_SVC</svmType>
  <kernel>
    <type>LINEAR</type></kernel>
  <C>1.</C>
  <term_criteria><iterations>100</iterations></term_criteria>
  <var_count>32</var_count>
  <class_count>3</class_count>
  <class_labels type_id="opencv-matrix">
    <rows>3</rows>
    <cols>1</cols>
    <dt>i</dt>
    <data>
      0 1 2</data></class_labels>
  <sv_total>3</sv_total>
  <support_vectors>
    <_>
      8.40877476e-07 1.19342110e-06 2.45396677e-06 2.25224812e-06
      4.84813768e-07 9.42072518e-07 1.28530235e-06 1.98537236e-06
      8.09605126e-07 5.51856942e-07 8.95011738e-07 3.83225171e-07
      6.22661446e-07 3.51946795e-07 -9.50180592e-08 4.19804650e-07
      6.76383763e-07 1.09931466e-06 2.52463246e-06 2.13616204e-06
      4.03836111e-07 7.99203974e-07 8.58644455e-07 1.50306653e-06
      1.69540499e-06 1.20642846e-06 8.73922147e-07 9.98443639e-08
      4.73802857e-07 1.04486944e-07 9.00376751e-09 2.33233486e-08</_>
    <_>
      3.01972864e-06 1.28482475e-06 9.25590257e-07 7.81459235e-08
      -3.32564298e-07 -6.23322990e-07 -6.42514919e-07 5.58010413e-07
      -2.68083977e-06 -7.78600167e-07 -2.12101057e-07 9.47880096e-07
      1.05613083e-06 1.35029700e-06 7.14025987e-07 5.64134496e-07
      2.56272483e-06 2.43400632e-06 9.11111215e-07 6.94928630e-08
      -4.17853471e-07 -9.89669729e-07 -1.25623740e-06 -8.69686005e-07
      -1.58575290e-06 -5.80154335e-07 3.47377608e-07 1.08773770e-06
      9.92761443e-07 1.25280599e-06 1.17543550e-06 1.10338100e-07</_>
    <_>
      -1.57359608e-07 2.50124515e-07 -1.66088682e-07 -3.58853953e-07
      -3.60790750e-07 -6.10625875e-07 -7.50567267e-07 -1.12947680e-06
      -2.32827256e-06 -6.21762013e-07 -5.57985913e-07 5.45452350e-09
      6.07770048e-08 2.06486547e-07 1.23844472e-07 -5.88298803e-07
      9.43813703e-08 3.75079452e-07 -5.52228201e-08 -3.22443924e-07
      -3.59497591e-07 -6.73997761e-07 -8.30202794e-07 -1.55907924e-06
      -2.13754151e-06 -8.12214353e-07 -3.13514278e-07 1.28523865e-07
      2.83347781e-08 2.71793510e-07 3.38066627e-07 -4.83368694e-07</_></support_vectors>
  <uncompressed_sv_total>9</uncompressed_sv_total>
  <uncompressed_support_vectors>
    <_>
      2.40385609e+05 1.65927016e+05 1.69951453e+05 1.48640516e+05
      4.96033750e+04 7.92263750e+04 8.42792656e+04 1.17625133e+05
      8.29922969e+04 4.57153594e+04 5.62280820e+04 2.95369844e+04
      5.30681758e+04 4.73770039e+04 3.46041523e+04 7.68889375e+04
      2.57235828e+05 1.49871641e+05 1.94503297e+05 1.51243688e+05
      5.11035039e+04 7.29183125e+04 7.82485078e+04 1.03310063e+05
      9.33591406e+04 6.40051680e+04 4.87541719e+04 1.85481914e+04
      5.59079570e+04 4.25532227e+04 4.69991992e+04 9.07080703e+04</_>
    <_>
      5.44463500e+05 1.04445313e+05 9.58795391e+04 8.65341563e+04
      6.37368359e+04 1.04834148e+05 5.88182383e+04 5.90200313e+04
      1.53008750e+05 1.08944070e+05 1.66115250e+05 1.20414453e+05
      7.21378281e+04 4.27739258e+04 6.13110508e+04 3.81175438e+05
      3.75806781e+05 1.00817523e+05 1.06318945e+05 8.74505547e+04
      7.59908672e+04 9.27946172e+04 6.42420664e+04 8.37973984e+04
      1.33655094e+05 1.10785367e+05 1.58349453e+05 1.17353023e+05
      8.01497813e+04 4.34532734e+04 5.86232578e+04 2.27395766e+05</_>
    <_>
      3.81289563e+05 1.08335656e+05 8.48318594e+04 5.82388203e+04
      5.16794023e+04 7.42192578e+04 7.85402188e+04 2.02943344e+05
      2.29398094e+05 6.25494023e+04 7.81646328e+04 6.77970938e+04
      6.67743359e+04 7.16999844e+04 6.83930547e+04 2.00269859e+05
      327734. 1.49921234e+05 7.85525859e+04 5.83108789e+04
      4.89817617e+04 6.70930781e+04 7.84347500e+04 2.04964891e+05
      2.25400859e+05 7.34822734e+04 7.05073359e+04 6.50567188e+04
      7.51257969e+04 6.59037266e+04 6.88942266e+04 1.77140484e+05</_>
    <_>
      1.95639906e+05 2.02377578e+05 1.63881203e+05 181903.
      1.86562828e+05 1.82563469e+05 1.52604703e+05 1.29256023e+05
      1.21150883e+05 1.05751539e+05 1.11710844e+05 1.14141422e+05
      1.20374828e+05 1.36510813e+05 1.47229516e+05 1.61976984e+05
      1.71350344e+05 2.01901203e+05 1.96120906e+05 1.92714344e+05
      1.73457125e+05 1.60382563e+05 1.46105250e+05 1.16802469e+05
      1.25088625e+05 1.29526977e+05 1.25566773e+05 1.13611648e+05
      1.18143984e+05 1.29150703e+05 1.34883313e+05 1.61992844e+05</_>
    <_>
      95899. 9.06280078e+04 7.56496953e+04 6.80016641e+04 4.63052539e+04
      4.13032344e+04 2.84436934e+04 2.62514922e+04 3.26199785e+04
      3.34653047e+04 3.07022266e+04 2.91299844e+04 4.33610586e+04
      5.54675469e+04 7.20288828e+04 9.21102031e+04 1.04659477e+05
      9.38982109e+04 7.49265703e+04 5.27081875e+04 4.32887266e+04
      3.95125234e+04 3.88360156e+04 3.58453633e+04 3.66674453e+04
      2.10317969e+04 2.76968418e+04 3.58895547e+04 3.63016875e+04
      5.84528125e+04 7.61831484e+04 9.08084219e+04</_>
    <_>
      3.47865938e+05 1.23577859e+05 2.95143887e+04 1.34972656e+04
      1.05509199e+04 3.41041953e+04 2.12165059e+04 3.02784160e+04
      7.73416875e+04 1.52495107e+04 1.27960654e+04 6.58477490e+03
      9.27192578e+03 8.75323438e+03 1.06189619e+04 6.11423633e+04
      3.65200156e+05 1.01957984e+05 6.94733438e+04 4.41936875e+04
      2.46113633e+04 3.55888320e+04 3.88062070e+04 4.04590078e+04
      1.01233291e+04 3.07083228e+03 2.70994312e+03 4.76747070e+03
      3.63740117e+04 1.89264160e+04 1.95968809e+04 1.07548703e+05</_>
    <_>
      2.19920922e+05 7.46540938e+04 7.15605703e+04 7.72293281e+04
      6.54769570e+04 1.05735188e+05 1.09927563e+05 1.49330453e+05
      2.92585719e+05 9.22281328e+04 8.38699453e+04 2.01355234e+04
      2.31228125e+04 1.37395527e+04 3.46577266e+04 1.48625531e+05
      2.03419656e+05 5.37101523e+04 7.64319766e+04 7.68719688e+04
      6.60947969e+04 1.12868430e+05 1.32111875e+05 2.04304859e+05
      2.51656797e+05 9.88683125e+04 5.14461406e+04 9.87979102e+03
      3.32030664e+04 1.22225791e+04 1.72275254e+04 1.54294813e+05</_>
    <_>
      1.63661781e+05 9.90001094e+04 1.08839953e+05 1.90734281e+05
      1.28285047e+05 7.97995156e+04 8.17506953e+04 2.48941453e+05
      2.95785156e+05 6.31411094e+04 5.00242734e+04 4.24719102e+04
      2.07019004e+04 1.38562852e+04 1.82884590e+04 5.67598711e+04
      1.66299094e+05 7.46865078e+04 9.82538281e+04 2.21790078e+05
      1.43209922e+05 8.68930625e+04 1.09072977e+05 2.85547781e+05
      2.12453453e+05 4.98859570e+04 7.44753047e+04 2.89720762e+04
      1.25138584e+04 9.00324316e+03 4.05553086e+04 6.28211602e+04</_>
    <_>
      1.17839352e+05 1.15843375e+05 1.22979758e+05 1.88635547e+05
      1.41608578e+05 6.64647344e+04 3.58116758e+04 1.24746891e+05
      3.73366969e+05 9.15220469e+04 6.65537031e+04 1.05243389e+04
      2.53553340e+04 3.12470859e+04 2.90244707e+04 4.66964648e+04
      1.32410781e+05 1.10469109e+05 1.10776031e+05 1.82060984e+05
      1.90610281e+05 5.96192383e+04 5.07833828e+04 1.87032344e+05
      2.72465250e+05 1.17866344e+05 4.40800820e+04 8.42905762e+03
      3.50890430e+04 3.67736172e+04 2.37922324e+04 6.79176406e+04</_></uncompressed_support_vectors>
  <decision_functions>
    <_>
      <sv_count>1</sv_count>
      <rho>2.5929901815304284e+00</rho>
      <alpha>
        1.</alpha>
      <index>
        0</index></_>
    <_>
      <sv_count>1</sv_count>
      <rho>9.5578019438551520e-01</rho>
      <alpha>
        1.</alpha>
      <index>
        1</index></_>
    <_>
      <sv_count>1</sv_count>
      <rho>-1.4743351037855441e+00</rho>
      <alpha>
        1.</alpha>
      <index>
        2</index></_></decision_functions></opencv_ml_svm>
</opencv_storage>
