<?xml version="1.0"?>
<opencv_storage>
<opencv_ml_svm>
  <format>3</format>
  <svmType>C_SVC</svmType>
  <kernel>
    <type>LINEAR</type></kernel>
  <C>1.</C>
  <term_criteria><iterations>100</iterations></term_criteria>
  <var_count>4096</var_count>
  <class_count>3</class_count>
  <class_labels type_id="opencv-matrix">
    <rows>3</rows>
    <cols>1</cols>
    <dt>i</dt>
    <data>
      0 1 2</data></class_labels>
  <sv_total>3</sv_total>
  <support_vectors>
    <_>
      0. 0. 0. 0. 0. 0. 0. 0. 0. 0. 0. 0. 0. 0. 0. 0. 0. 0. 0. 0. 0. 0.
      0. 0. 0. 0. 0. 0. 0. 0. 0. 0. 0. 0. 0. 0. 0. 0. 0. 0. 0. 0. 0. 0.
      0. 0. 0. 0. 0. 0. 0. 0. 0. 0. 0. 0. 0. 0. 0. 0. 0. 0. 0. 0. 0. 0.
      0. 0. 0. 0. 0. 0. 0. 0. 0. 0. 0. 0. 0. 0. 0. 0. 0. 0. 0. 0. 0. 0.
      0. 0. 0. 0. 0. 0. 0. 0. 0. 0. 0. 0. 0. 0. 0. 0. 0. 0. 0. 0. 0. 0.
      0. 0. 0. 0. 0. 0. 0. 0. 0. 0. 0. 0. 0. 0. 0. 0. 0. 0. 0. 0. 0. 0.
      0. 0. 0. 0. 0. 0. 0. 0. 0. 0. 0. 0. 0. 0. 0. 0. 0. 0. 0. 0. 0. 0.
      0. 0. 0. 0. 0. 0. 0. 0. 0. 0. 0. 0. 0. 0. 0. 0. 0. 0. 0. 0. 0. 0.
      0. 0. 0. 0. 0. 0. 0. 0. 0. 0. 0. 0. 0. 0. 0. 0. 0. 0. 0. 0. 0. 0.
      0. 0. 0. 0. 0. 0. 0. 0. 0. 0. 0. 0. 0. 0. 0. 0. 0. 0. 0. 0.
      2.39473025e-06 2.53559688e-06 2.39473025e-06 0. 0. 0. 0. 0. 0. 0.
      0. 0. 0. 0. 0. 0. 0. 0. 0. 0. 0. 0. 0. 0. 0. 0. 0. 0. 0. 0. 0. 0.
      0. 0. 0. 0. 0. 0. 0. 0. 0. 0. 0. 0. 0. 0. 0. 0. 0. 0. 0. 0. 0. 0.
      0. 0. 0. 0. 0. 0. 0. 0. 7.25462405e-06 7.36027414e-06
      7.71244049e-06 7.64200740e-06 7.74765704e-06 7.71244049e-06
      4.08512824e-06 0. 0. 0. 0. 0. 0. 0. 0. 0. 0. 0. 0. 0. 0. 0. 0. 0.
      0. 0. 0. 0. 0. 0. 0. 0. 0. 0. 0. 0. 0. 0. 0. 0. 0. 0. 0. 0. 0. 0.
      0. 0. 0. 0. 0. 0. 0. 0. 0. 0. 0. 0. 0. 0. 0. 0. 6.65594143e-06
      7.92373976e-06 7.78287358e-06 7.50114032e-06 7.81809013e-06
      8.20547302e-06 7.71244049e-06 7.64200740e-06 7.95895630e-06
      7.99417285e-06 5.28249348e-06 0. 0. 0. 0. 0. 0. 0. 0. 0. 0. 0. 0.
      0. 0. 0. 0. 0. 0. 0. 0. 0. 0. 0. 0. 0. 0. 0. 0. 0. 0. 0. 0. 0. 0.
      0. 0. 0. 0. 0. 0. 0. 0. 0. 0. 0. 0. 0. 0. 0. 0. 0. 0.
      7.81809013e-06 7.67722395e-06 7.88852321e-06 7.95895630e-06
      8.34633920e-06 7.99417285e-06 7.99417285e-06 8.48720629e-06
      8.66623486e-06 8.39919267e-06 8.64278172e-06 8.66625305e-06
      8.13213137e-06 9.47940634e-07 1.00370187e-06 6.69134522e-07 0. 0.
      0. 0. 0. 0. 0. 0. 0. 0. 0. 0. 0. 0. 0. 0. 0. 0. 0. 0. 0. 0. 0. 0.
      0. 0. 0. 0. 0. 0. 0. 0. 0. 0. 0. 0. 0. 0. 0. 0. 0. 0. 0. 0. 0. 0.
      6.26855854e-06 7.99417285e-06 8.31112266e-06 7.83449741e-06
      9.16484078e-06 9.24804226e-06 9.11136976e-06 1.06476546e-05
      1.73433382e-05 1.92803727e-05 2.10001926e-05 2.08827987e-05
      2.04044791e-05 1.96340916e-05 2.00992745e-05 2.00759041e-05
      1.52556058e-05 1.27902995e-05 1.20960567e-05 1.16870469e-05
      3.13400074e-06 0. 0. 0. 0. 0. 0. 0. 0. 0. 0. 0. 0. 0. 0. 0. 0. 0.
      0. 0. 0. 0. 0. 0. 0. 0. 0. 0. 0. 0. 0. 0. 0. 0. 0. 0. 0. 0. 0. 0.
      0. 0. 5.74030946e-06 8.06460685e-06 8.57879513e-06 8.69734322e-06
      9.11118514e-06 9.31372688e-06 1.25610140e-05 1.95664434e-05
      1.98173802e-05 1.96662986e-05 1.33142112e-05 1.89726197e-05
      1.26359264e-05 1.36382905e-05 1.10622377e-05 1.45489103e-05
      1.85435511e-05 1.81518953e-05 2.13719322e-05 2.17174420e-05
      1.31608786e-05 9.60504440e-06 1.18172748e-05 1.09239054e-05
      1.67283633e-06 0. 0. 0. 0. 0. 0. 0. 0. 0. 0. 0. 0. 0. 0. 0. 0. 0.
      0. 0. 0. 0. 0. 0. 0. 0. 0. 0. 0. 0. 0. 0. 0. 0. 0. 0. 0. 0. 0.
      7.71244049e-06 8.76999366e-06 9.46773071e-06 9.34875879e-06
      8.83839493e-06 2.00128416e-05 1.94600379e-05 2.03927102e-05
      2.16663411e-05 1.22326874e-05 1.28373031e-05 1.31958122e-05
      9.68118547e-06 -1.90292428e-06 9.67591586e-06 1.10970414e-05
      1.93045398e-05 2.55788837e-05 2.47600692e-05 3.13982782e-05
      3.72206741e-05 3.32962736e-05 8.09719131e-06 1.22051679e-05
      1.34838647e-05 1.25103279e-05 9.47940589e-06 5.57612125e-08 0. 0.
      0. 0. 0. 0. 0. 0. 0. 0. 0. 0. 0. 0. 0. 0. 0. 0. 0. 0. 0. 0. 0. 0.
      0. 0. 0. 0. 0. 0. 0. 0. 0. 0. 0. 3.34557899e-06 8.89131206e-06
      9.28726786e-06 9.10717517e-06 1.85323970e-05 1.98967136e-05
      2.06978330e-05 2.05422330e-05 1.86745874e-05 1.31356728e-05
      1.26983405e-05 1.33423673e-05 1.28886850e-05 3.91371259e-06
      -7.11470534e-07 7.19241234e-06 1.91178115e-05 3.21580847e-05
      3.25569999e-05 3.07062801e-05 3.91661742e-05 4.16334151e-05
      3.55437660e-05 2.90173848e-05 1.77118091e-05 2.62281210e-05
      1.95955981e-05 1.21873372e-05 1.14868099e-05 2.00740374e-06 0. 0.
      0. 0. 0. 0. 0. 0. 0. 0. 0. 0. 0. 0. 0. 0. 0. 0. 0. 0. 0. 0. 0. 0.
      0. 0. 0. 0. 0. 0. 0. 0. 0. 0. 8.10272468e-06 8.86904763e-06
      9.11593361e-06 1.35708151e-05 2.05921224e-05 2.00055347e-05
      2.11398110e-05 1.27465100e-05 1.30942135e-05 1.31204879e-05
      1.22545825e-05 1.32069017e-05 1.10856199e-05 8.54303926e-06
      -1.74265062e-06 -1.62328649e-06 3.24410371e-06 1.48444824e-05
      1.53356068e-05 2.06147215e-05 1.95304219e-05 3.00198208e-05
      1.83484317e-05 2.73455589e-05 2.57094689e-05 3.06954826e-05
      2.82585443e-05 2.87432504e-05 1.58691710e-05 1.13752876e-05
      5.57612125e-08 0. 0. 0. 0. 0. 0. 0. 0. 0. 0. 0. 0. 0. 0. 0. 0. 0.
      0. 0. 0. 0. 0. 0. 0. 0. 0. 0. 0. 0. 0. 0. 0. 8.41677229e-06
      9.52484152e-06 9.48561592e-06 9.48123670e-06 2.01269813e-05
      2.05338456e-05 1.37764855e-05 1.38474315e-05 1.22116744e-05
      1.25462730e-05 1.22674664e-05 1.27693174e-05 1.34501206e-05
      8.46056082e-06 1.05037052e-05 3.92350194e-06 9.28994552e-07
      -2.13854321e-07 6.80369521e-06 3.81558812e-06 1.22624779e-05
      1.14988861e-05 1.34882666e-05 4.78135746e-07 4.32184061e-06
      1.68891438e-05 3.42185995e-05 2.86832674e-05 3.51300587e-05
      2.77329327e-05 2.06698969e-05 7.41624126e-06 0. 0. 0. 0. 0. 0. 0.
      0. 0. 0. 0. 0. 0. 0. 0. 0. 0. 0. 0. 0. 0. 0. 0. 0. 0. 0. 0. 0. 0.
      0. 0. 4.82467703e-06 8.44267743e-06 9.11556435e-06 9.42412498e-06
      1.99846218e-05 2.10490180e-05 1.34495103e-05 1.29366008e-05
      1.19328997e-05 1.21001831e-05 8.47570391e-06 2.11095926e-06
      8.54362224e-06 1.16708752e-05 1.73886037e-05 1.40551865e-05
      1.47423657e-06 7.73706597e-06 1.73989588e-06 -3.58598299e-07
      -5.80557798e-06 -1.99431474e-06 9.00296698e-07 1.23526652e-05
      -2.32584580e-06 -1.14871295e-06 1.59931949e-06 2.11747501e-05
      3.00256543e-05 3.57080899e-05 3.45708249e-05 2.55280411e-05
      9.82701295e-06 0. 0. 0. 0. 0. 0. 0. 0. 0. 0. 0. 0. 0. 0. 0. 0. 0.
      0. 0. 0. 0. 0. 0. 0. 0. 0. 0. 0. 0. 0. 0. 8.34633920e-06
      9.52922073e-06 9.37102322e-06 9.37120785e-06 1.98408288e-05
      1.78147166e-05 1.22117053e-05 1.21001831e-05 1.21001831e-05 0.
      4.22191852e-06 8.91149830e-06 1.04812698e-05 1.83285210e-05
      1.83165776e-05 9.27350902e-06 3.07601204e-06 -6.40524377e-06
      -8.81173946e-06 -6.30440127e-06 -8.09221001e-06 -7.25130712e-06
      -6.74816920e-06 -2.99774638e-06 -5.95679239e-06 -2.57094462e-06
      -9.79529204e-07 9.66770767e-06 1.74079887e-05 2.94917099e-05
      3.70274647e-05 3.65063861e-05 1.89296916e-05 2.34197091e-06 0. 0.
      0. 0. 0. 0. 0. 0. 0. 0. 0. 0. 0. 0. 0. 0. 0. 0. 0. 0. 0. 0. 0. 0.
      0. 0. 0. 0. 0. 7.43070723e-06 8.41677229e-06 9.46754517e-06
      9.67045708e-06 1.54885911e-05 2.11665374e-05 1.24414291e-05
      1.32711684e-05 1.26020341e-05 4.71035855e-06 4.13575663e-06
      5.82087114e-06 2.08485490e-05 1.82303265e-05 1.30044209e-05
      1.73591616e-05 1.04603514e-05 -1.04255269e-05 -8.77409002e-06
      -1.22722522e-05 -1.10240917e-05 -1.14860459e-05 -6.71678208e-06
      -6.74816920e-06 -1.17962109e-05 -1.43970683e-05 -6.75750243e-06
      -5.15665351e-06 1.11723830e-05 1.46572529e-05 4.00540921e-05
      3.07016780e-05 3.55638658e-05 2.82771925e-05 9.41526469e-06 0. 0.
      0. 0. 0. 0. 0. 0. 0. 0. 0. 0. 0. 0. 0. 0. 0. 0. 0. 0. 0. 0. 0. 0.
      0. 0. 0. 0. 0. 7.95895630e-06 8.34633920e-06 9.17705438e-06
      9.22158324e-06 2.07651774e-05 1.36988292e-05 1.36757690e-05
      1.21001831e-05 1.63247023e-05 4.35116090e-06 9.20311049e-06
      1.59849023e-05 1.73928092e-05 2.28620484e-05 2.07023077e-05
      1.39564527e-05 -4.53476969e-06 -2.02706742e-05 -1.64091562e-05
      -9.97048573e-06 -1.15984549e-05 -1.14415207e-05 -6.74816920e-06
      -6.81094298e-06 -1.34041666e-05 -1.41843038e-05 -7.46574096e-06
      -7.42572320e-06 1.37058178e-05 1.30329800e-05 3.39283652e-05
      2.77392337e-05 3.77170800e-05 3.65806372e-05 2.69341217e-05
      8.45145109e-07 0. 0. 0. 0. 0. 0. 0. 0. 0. 0. 0. 0. 0. 0. 0. 0. 0.
      0. 0. 0. 0. 0. 0. 0. 0. 0. 0. 0. 8.17025648e-06 8.09982339e-06
      9.55567975e-06 9.41080361e-06 2.01811654e-05 1.27771627e-05
      1.32504083e-05 1.55985690e-05 1.68771130e-05 4.22191852e-06
      1.76647154e-05 2.26067168e-05 1.51787144e-05 2.19728536e-05
      1.38128153e-05 1.57326349e-06 -6.38884194e-06 -2.02797637e-05
      -1.56663773e-05 -6.07263519e-06 -1.15123967e-05 -1.12775060e-05
      -6.74816920e-06 -8.98506642e-06 -1.44679898e-05 -1.45389113e-05
      -1.52481261e-05 -4.15545219e-06 1.25255210e-05 1.29301516e-05
      2.52147038e-05 2.83417303e-05 3.32885247e-05 3.65342858e-05
      3.58237630e-05 1.42639863e-06 0. 0. 0. 0. 0. 0. 0. 0. 0. 0. 0. 0.
      0. 0. 0. 0. 0. 0. 0. 0. 0. 0. 0. 0. 0. 0. 0. 2.39473025e-06
      7.95895630e-06 9.32797229e-06 9.74946306e-06 9.49838341e-06
      1.98422804e-05 1.22478723e-05 1.73878234e-05 1.66540667e-05
      1.61091357e-05 8.15608837e-06 2.30576570e-05 1.80415027e-05
      2.16013668e-05 9.80274763e-06 2.13994426e-07 -1.87907119e-07
      -1.45314834e-05 -2.04266908e-05 -1.80127699e-05 -1.33062440e-05
      -1.13473607e-05 -1.13007909e-05 -6.62262164e-06 -1.72282580e-05
      -1.41133823e-05 -1.51062832e-05 -1.52481261e-05 -2.48795573e-06
      1.19148699e-05 2.55109735e-05 2.29996294e-05 2.59068074e-05
      3.08390991e-05 3.42204403e-05 2.26540251e-05 1.73915123e-05
      1.11975432e-05 0. 0. 0. 0. 0. 0. 0. 0. 0. 0. 0. 0. 0. 0. 0. 0. 0.
      0. 0. 0. 0. 0. 0. 0. 0. 0. 7.71244049e-06 8.27590611e-06
      9.56918575e-06 9.21245555e-06 1.30861517e-05 1.29324744e-05
      1.72021100e-05 1.59887531e-05 1.73358821e-05 1.30415074e-05
      1.24412772e-05 2.27709206e-05 2.10024646e-05 1.61209136e-05
      1.99728129e-06 0. -6.26357064e-07 -1.34666770e-05 -1.67544677e-05
      -2.07293906e-05 -1.02675976e-05 -1.13837832e-05 -9.81867652e-06
      -6.59123498e-06 -1.87420537e-05 -1.49644402e-05 -1.49644402e-05
      -1.61701064e-05 -2.86704278e-07 1.99605583e-05 2.48379583e-05
      2.27312667e-05 2.41209455e-05 2.42995793e-05 3.40283259e-05
      2.18840760e-05 1.90277569e-05 1.08377744e-05 0. 0. 0. 0. 0. 0. 0.
      0. 0. 0. 0. 0. 0. 0. 0. 0. 0. 0. 0. 0. 0. 0. 0. 0. 0. 0.
      8.02938939e-06 7.53635732e-06 9.19019203e-06 9.37102322e-06
      1.34106522e-05 1.74943052e-05 1.79348517e-05 1.70266758e-05
      1.74739853e-05 1.16930023e-05 2.23793031e-05 1.97209793e-05
      1.34103175e-05 7.20447906e-06 7.13314776e-08 0. -1.12744272e-06
      -1.49699335e-05 -2.06057484e-05 -1.99151254e-05 -7.85090469e-06
      -1.14465574e-05 -6.56992097e-06 -6.59123498e-06 -2.00023442e-05
      -1.44679898e-05 -1.52481261e-05 -1.10235687e-05 3.60098943e-06
      2.45060528e-05 2.45424890e-05 2.44929433e-05 1.90879109e-05
      2.63562342e-05 1.84807541e-05 1.90071296e-05 1.82255953e-05
      8.49259322e-06 5.21099821e-07 0. 0. 0. 0. 0. 0. 0. 0. 0. 0. 0. 0.
      0. 0. 0. 0. 0. 0. 0. 0. 0. 0. 0. 0. 0. 7.92373976e-06
      8.34633920e-06 9.81095400e-06 8.51706591e-06 2.07260491e-05
      1.80396946e-05 1.79801300e-05 1.71305583e-05 1.91323998e-05
      2.19943940e-05 1.93900905e-05 1.81895266e-05 6.49116419e-06
      2.85325910e-07 0. 0. -2.19224967e-06 -1.45314834e-05
      -1.92189145e-05 -2.07526755e-05 -1.25353135e-05 -1.17138561e-05
      -7.13488407e-06 -6.84232964e-06 -2.08696983e-05 -1.42552253e-05
      -1.48225972e-05 -1.06951838e-05 1.92574371e-05 2.51117253e-05
      2.52609025e-05 2.52809587e-05 1.84359778e-05 1.52061684e-05
      1.90089740e-05 1.89752100e-05 1.85760291e-05 6.96397956e-06
      1.05971560e-06 0. 0. 0. 0. 0. 0. 0. 0. 0. 0. 0. 0. 0. 0. 0. 0. 0.
      0. 0. 0. 0. 0. 0. 0. 1.05649860e-06 8.02938939e-06 8.38155574e-06
      9.76259980e-06 9.40186055e-06 1.68538954e-05 1.80872557e-05
      1.89307611e-05 1.97631125e-05 3.45585795e-05 1.15560370e-05
      1.59069186e-05 1.55502621e-05 2.99592193e-06 0. 0. 0.
      -5.13612804e-06 -1.66552763e-05 -2.03037471e-05 -1.47468654e-05
      -1.33484991e-05 -1.14486011e-05 -7.01743875e-06 -6.94463779e-06
      -2.09267346e-05 -1.41133823e-05 -1.50353617e-05 -1.11853342e-05
      2.12084924e-05 2.43093637e-05 2.46188956e-05 2.53884973e-05
      2.04113439e-05 5.34986066e-06 1.68108345e-05 1.73696171e-05
      1.88312788e-05 5.50542973e-06 1.05533661e-06 0. 0. 0. 0. 0. 0. 0.
      0. 0. 0. 0. 0. 0. 0. 0. 0. 0. 0. 0. 0. 0. 0. 0. 0. 3.62731203e-06
      8.20547302e-06 8.52242283e-06 9.44565090e-06 1.35443233e-05
      1.75070891e-05 1.77555958e-05 1.85528079e-05 2.30235601e-05
      3.50552000e-05 1.81181949e-05 1.71908850e-05 8.55977669e-06
      1.42662955e-07 0. 0. 0. -5.51194216e-06 -1.80313982e-05
      -1.97987029e-05 -1.63737641e-05 -1.17928903e-05 -1.11823238e-05
      -6.52846120e-06 -1.23766167e-05 -2.15952095e-05 -1.48225972e-05
      -1.53190485e-05 -1.05002982e-05 2.17538091e-05 2.30506121e-05
      2.45214360e-05 2.50362100e-05 2.03907985e-05 4.13722546e-06
      1.44787909e-05 1.90934425e-05 1.35921600e-05 3.29853287e-06
      1.05971560e-06 0. 0. 0. 0. 0. 0. 0. 0. 0. 0. 0. 0. 0. 0. 0. 0. 0.
      0. 0. 0. 0. 0. 0. 0. 7.81809013e-06 8.41677229e-06 8.41677229e-06
      9.04950957e-06 1.41998325e-05 1.79790968e-05 1.79532308e-05
      2.02404353e-05 3.56584023e-05 3.10794167e-05 1.79755316e-05
      1.04143955e-05 1.28396653e-06 0. 0. 0. 0. -7.20310618e-06
      -1.97248901e-05 -1.94943732e-05 -1.81364121e-05 -1.08542954e-05
      -1.11023237e-05 -6.43430076e-06 -1.58831590e-05 -2.08313686e-05
      -1.51062832e-05 -1.49644402e-05 -8.49325534e-06 2.17234083e-05
      2.40220852e-05 2.42523238e-05 2.48282231e-05 1.28424908e-05
      8.13178849e-06 1.82593594e-05 1.24057988e-05 8.70969961e-06
      1.73799845e-06 1.05971560e-06 0. 0. 0. 0. 0. 0. 0. 0. 0. 0. 0. 0.
      0. 0. 0. 0. 0. 0. 0. 0. 0. 0. 0. 0. 7.81809013e-06 8.34633920e-06
      8.45198883e-06 9.01429303e-06 1.37616998e-05 1.80345523e-05
      1.84440160e-05 3.33828611e-05 2.90496464e-05 2.91067554e-05
      1.78328683e-05 2.21127584e-06 0. 0. 0. 0. -6.26357064e-08
      -9.33271986e-06 -1.76490648e-05 -2.01728872e-05 -1.74939887e-05
      -1.08532731e-05 -1.14698423e-05 -6.90510342e-06 -1.93640517e-05
      -1.88446465e-05 -1.50353617e-05 -1.14218537e-05 3.51938706e-06
      2.14806532e-05 2.54289589e-05 2.43131853e-05 2.15641012e-05
      7.00810779e-06 1.08423847e-05 1.66462760e-05 1.62182878e-05
      1.20985787e-05 1.95890721e-06 8.01355213e-07 0. 0. 0. 0. 0. 0. 0.
      0. 0. 0. 0. 0. 0. 0. 0. 0. 0. 0. 0. 0. 0. 0. 0. 0. 7.71244049e-06
      8.27590611e-06 8.55763938e-06 1.29821055e-05 1.43569669e-05
      1.75084588e-05 2.07773483e-05 3.10407850e-05 2.61952046e-05
      2.93805006e-05 4.99320322e-06 0. 0. 0. 0. 0. -1.87907119e-07
      -9.14481279e-06 -1.62943634e-05 -2.09783029e-05 -9.02210195e-06
      -1.10881638e-05 -1.16429801e-05 -6.74816920e-06 -2.06952645e-05
      -1.80171101e-05 -1.48935187e-05 -9.24261258e-06 2.19431877e-06
      2.13097119e-05 2.50925623e-05 2.58385098e-05 2.03937252e-05
      7.54444136e-06 9.77241234e-06 1.72138170e-05 1.03572374e-05
      1.05655854e-05 8.10113193e-07 3.24045260e-07 0. 0. 0. 0. 0. 0. 0.
      0. 0. 0. 0. 0. 0. 0. 0. 0. 0. 0. 0. 0. 0. 0. 0. 0. 7.85330667e-06
      8.20547302e-06 8.59285592e-06 1.34507218e-05 1.44650230e-05
      1.81141913e-05 2.25087970e-05 3.27844282e-05 2.47092121e-05
      1.38383066e-05 5.42119233e-06 0. 0. 0. 0. 0. -1.44062119e-06
      -1.42183053e-05 -2.03496184e-05 -2.06651239e-05 -1.19964825e-05
      -1.09707180e-05 -1.14323966e-05 -6.84232964e-06 -2.08208112e-05
      -1.82971835e-05 -1.51772047e-05 -2.02187516e-06 3.82397548e-06
      1.87641799e-05 2.55962423e-05 2.54256447e-05 1.76966423e-05
      8.04376123e-06 1.08423847e-05 1.85528661e-05 1.61057014e-05
      1.02946642e-05 8.32008141e-07 0. 0. 0. 0. 0. 0. 0. 0. 0. 0. 0. 0.
      0. 0. 0. 0. 0. 0. 0. 0. 0. 0. 0. 0. 0. 7.95895630e-06
      8.13503993e-06 8.55763938e-06 1.33415870e-05 1.56443093e-05
      1.82130334e-05 2.29021880e-05 3.65732303e-05 2.90072021e-05
      1.43376265e-05 1.64062396e-06 0. 0. 0. 0. 0. -1.62852837e-06
      -1.06480702e-05 -1.78979772e-05 -2.09389527e-05 -1.53013880e-05
      -1.12785283e-05 -1.12825428e-05 -6.59123498e-06 -2.16498356e-05
      -1.39715385e-05 -1.46807542e-05 3.27130056e-06 1.78681330e-05
      2.17779325e-05 2.38574030e-05 2.66113020e-05 7.32505760e-06
      9.64916853e-06 1.75787718e-05 1.91134932e-05 1.73214485e-05
      8.77918683e-06 7.88218244e-07 0. 0. 0. 0. 0. 0. 0. 0. 0. 0. 0. 0.
      0. 0. 0. 0. 0. 0. 0. 0. 0. 0. 0. 0. 0. 7.71244049e-06
      7.95895630e-06 8.55763938e-06 1.33121821e-05 1.53520614e-05
      1.79740455e-05 2.48181441e-05 3.53513242e-05 2.60514698e-05
      1.76902067e-05 7.13314776e-08 0. 0. 0. 0. 0. -3.75814238e-07
      -1.53457477e-05 -2.04339085e-05 -1.98741454e-05 -1.69260347e-05
      -1.12937105e-05 -1.19102797e-05 -1.51111690e-05 -2.14916963e-05
      -1.45389113e-05 -5.04732725e-07 2.97603538e-06 1.55680245e-05
      2.43060094e-05 2.45932697e-05 2.42104798e-05 6.58550834e-06
      7.51461403e-06 1.74679135e-05 1.89896145e-05 1.89620714e-05
      1.94012364e-06 4.94825883e-07 0. 0. 0. 0. 0. 0. 0. 0. 0. 0. 0. 0.
      0. 0. 0. 0. 0. 0. 0. 0. 0. 0. 0. 0. 0. 8.09982339e-06
      8.09982339e-06 8.33095510e-06 1.39626936e-05 1.53749334e-05
      1.81039268e-05 2.28277222e-05 3.21591178e-05 2.76051924e-05
      1.55502621e-05 1.42662955e-07 0. 0. 0. 0. 0. -2.50542826e-07
      -1.59094689e-05 -2.08153106e-05 -2.08458132e-05 -1.53364435e-05
      -1.07996239e-05 -1.17533455e-05 -2.10987600e-05 -2.12010673e-05
      -1.51414843e-05 3.64728908e-06 1.46942295e-06 1.74043234e-05
      2.42112528e-05 2.51371039e-05 7.28984060e-06 6.83202461e-06
      9.14984867e-06 1.75323312e-05 1.80404095e-05 1.90421615e-05
      1.64603966e-06 1.57643640e-07 0. 0. 0. 0. 0. 0. 0. 0. 0. 0. 0. 0.
      0. 0. 0. 0. 0. 0. 0. 0. 0. 0. 0. 0. 0. 8.09982339e-06
      8.41677229e-06 1.23022528e-05 1.37733132e-05 1.34727461e-05
      1.92075604e-05 3.13577693e-05 2.74750801e-05 2.70124510e-05
      2.56793305e-06 0. 0. 0. 0. 0. 0. -2.50542826e-06 -1.20886916e-05
      -1.63625882e-05 -1.90093542e-05 -1.34672982e-05 -1.08289669e-05
      -1.17371410e-05 -2.06964687e-05 -2.03337131e-05 -1.35870437e-06
      3.69796908e-06 1.32510002e-06 1.79973758e-05 2.42875594e-05
      2.53884973e-05 7.32505760e-06 6.97289124e-06 8.30850695e-06
      1.65906167e-05 1.64391968e-05 1.56313872e-05 6.17933347e-06 0. 0.
      0. 0. 0. 0. 0. 0. 0. 0. 0. 0. 0. 0. 0. 0. 0. 0. 0. 0. 0. 0. 0. 0.
      0. 0. 8.06460685e-06 8.38155574e-06 1.23237933e-05 1.37852021e-05
      1.47998517e-05 1.99212463e-05 3.33953831e-05 2.98666801e-05
      2.98526702e-05 3.13858482e-06 0. 0. 0. 0. 0. 0. -4.50977086e-06
      -1.59094689e-05 -2.16535573e-05 -1.19387369e-05 -1.29499522e-05
      -1.16905721e-05 -1.19811557e-05 -2.02151095e-05 -1.71047450e-05
      -1.51082770e-06 1.85572992e-06 2.59342755e-06 1.67782709e-05
      2.42110909e-05 1.29624859e-05 7.39549068e-06 7.25462405e-06
      1.51045169e-05 1.51377144e-05 1.32336590e-05 1.54931040e-05
      1.28500324e-06 0. 0. 0. 0. 0. 0. 0. 0. 0. 0. 0. 0. 0. 0. 0. 0. 0.
      0. 0. 0. 0. 0. 0. 0. 0. 0. 8.06460685e-06 8.34633920e-06
      1.23237933e-05 1.39918484e-05 2.53636445e-05 2.05646447e-05
      3.32850832e-05 3.12487391e-05 2.82055262e-05 4.49388290e-06 0. 0.
      0. 0. 0. 0. -7.82946336e-06 -1.71491429e-05 -1.65095134e-05
      -2.06097066e-05 -1.20796622e-05 -1.17138561e-05 -1.29752925e-05
      -2.10580201e-05 -1.30294313e-06 -8.89778846e-07 2.18789705e-06
      1.10534475e-05 1.70659368e-05 1.24404951e-05 8.01195347e-06
      7.46592377e-06 7.60679040e-06 1.12050466e-05 1.74321904e-05
      1.79227536e-05 1.70974290e-05 9.02071974e-07 0. 0. 0. 0. 0. 0. 0.
      0. 0. 0. 0. 0. 0. 0. 0. 0. 0. 0. 0. 0. 0. 0. 0. 0. 0. 0.
      8.17025648e-06 8.38155574e-06 1.25723618e-05 1.40672000e-05
      2.31986651e-05 2.59251374e-05 3.68301262e-05 3.10886571e-05
      2.75505026e-05 2.35393873e-06 0. 0. 0. 0. 0. 0. -9.64589890e-06
      -1.82393305e-05 -2.07598932e-05 -1.95055491e-05 -1.23705786e-05
      -1.16338560e-05 -1.93326650e-05 -2.20346246e-05 -1.78423352e-06
      6.82548944e-07 2.51518418e-06 1.68010301e-05 1.71305583e-05
      1.18451253e-05 7.92373976e-06 7.50114032e-06 8.71108114e-06
      2.13050753e-05 1.81467731e-05 1.40082802e-05 1.29164127e-05
      5.56131738e-07 0. 0. 0. 0. 0. 0. 0. 0. 0. 0. 0. 0. 0. 0. 0. 0. 0.
      0. 0. 0. 0. 0. 0. 0. 0. 0. 7.50114032e-06 8.41677229e-06
      1.25433016e-05 1.41186838e-05 1.68701317e-05 2.55543982e-05
      3.74496485e-05 2.46556883e-05 2.56556941e-05 2.85325910e-07 0. 0.
      0. 0. 0. -1.37798554e-06 -6.32620640e-06 -1.46819011e-05
      -2.10553753e-05 -1.52461080e-05 -1.14941486e-05 -1.17837099e-05
      -1.99314236e-05 -8.43597081e-06 -2.69645307e-06 3.12271663e-06
      2.91279275e-06 1.71444572e-05 1.54881218e-05 1.18061489e-05
      7.95895630e-06 7.50114032e-06 9.05075103e-06 2.34208856e-05
      1.54812351e-05 1.84758883e-05 9.76780211e-06 4.37899006e-09 0. 0.
      0. 0. 0. 0. 0. 0. 0. 0. 0. 0. 0. 0. 0. 0. 0. 0. 0. 0. 0. 0. 0. 0.
      0. 0. 7.53635732e-06 8.45198883e-06 1.23046493e-05 1.39771983e-05
      1.64325484e-05 2.63413058e-05 3.65468404e-05 3.13897472e-05
      2.21383616e-05 0. 0. 0. 0. 0. 0. -1.00217130e-06 -1.47820265e-05
      -1.87483329e-05 -2.11412953e-05 -1.85224853e-05 -1.17938562e-05
      -1.22707170e-05 -1.10693427e-05 -8.58108251e-06 -3.83171755e-06
      4.16799912e-06 1.46442153e-06 1.70608964e-05 5.01891327e-06
      1.13343121e-05 7.88852321e-06 7.32505760e-06 1.12625048e-05
      2.34184154e-05 1.89708298e-05 1.83376051e-05 2.06964955e-06 0. 0.
      0. 0. 0. 0. 0. 0. 0. 0. 0. 0. 0. 0. 0. 0. 0. 0. 0. 0. 0. 0. 0. 0.
      0. 0. 5.81074255e-06 7.60679040e-06 8.38155574e-06 1.23634591e-05
      1.39414424e-05 1.53841738e-05 2.58933669e-05 3.36103258e-05
      2.68647254e-05 2.66568659e-05 1.34942138e-05 0. 0. 0. 0. 0.
      -2.81860684e-06 -1.41556693e-05 -2.09156678e-05 -2.03198142e-05
      -1.28474958e-05 -1.16764113e-05 -1.31285401e-06 -6.46179205e-06
      -8.08621826e-06 -2.16968192e-06 3.61570756e-06 1.14627539e-06
      7.48004732e-06 4.82504947e-06 1.00665138e-05 7.71244049e-06
      8.75258502e-06 1.80377501e-05 2.38387292e-05 1.47622732e-05
      1.45220047e-05 1.34319782e-06 0. 0. 0. 0. 0. 0. 0. 0. 0. 0. 0. 0.
      0. 0. 0. 0. 0. 0. 0. 0. 0. 0. 0. 0. 0. 0. 5.88117609e-06
      7.67722395e-06 8.38155574e-06 1.22851616e-05 1.38850401e-05
      7.10212498e-06 3.24171669e-05 3.76570206e-05 2.77895033e-05
      2.11151000e-05 1.18213766e-05 0. 0. 0. 0. 0. -3.13178521e-06
      -1.48446625e-05 -1.83387547e-05 -2.01174698e-05 -1.41237697e-05
      -5.51196592e-07 1.15582179e-06 -7.70850966e-06 -7.65803634e-06
      1.51802544e-06 2.61748596e-06 6.24400400e-06 4.95429185e-06
      4.88967089e-06 6.00461999e-06 7.60768853e-06 1.72049167e-05
      2.43724007e-05 1.85578010e-05 1.72138170e-05 9.65706022e-06
      8.14492182e-07 0. 0. 0. 0. 0. 0. 0. 0. 0. 0. 0. 0. 0. 0. 0. 0. 0.
      0. 0. 0. 0. 0. 0. 0. 0. 0. 5.95160918e-06 7.74765704e-06
      8.34633920e-06 1.22362680e-05 1.38155001e-05 7.52171036e-06
      1.93960695e-05 3.53079813e-05 2.46865275e-05 2.08569254e-05
      1.31596462e-05 1.33269295e-05 0. 0. 0. 0. -4.32186380e-06
      -1.40930342e-05 -2.10320904e-05 -1.62878441e-05 -1.58573744e-06
      1.51312577e-06 -3.84279474e-06 -7.52227788e-06 -8.18694025e-06
      1.42458032e-06 2.07495441e-06 1.52851874e-06 4.78196853e-06
      5.19123614e-06 2.61231776e-06 2.06604509e-05 2.37702006e-05
      2.63502316e-05 2.30672595e-05 1.04241899e-05 2.30991782e-06
      1.44506672e-07 0. 0. 0. 0. 0. 0. 0. 0. 0. 0. 0. 0. 0. 0. 0. 0. 0.
      0. 0. 0. 0. 0. 0. 0. 0. 0. 5.91639264e-06 7.85330667e-06
      9.61141086e-06 1.22950778e-05 1.41336886e-05 1.03407174e-05
      2.37956046e-05 3.11226104e-05 2.84998659e-05 1.49273628e-05
      1.34384518e-05 1.28250786e-05 1.32711684e-05 5.46459887e-06 0. 0.
      -5.07349205e-06 -9.89644195e-06 -5.97919234e-06 -1.59074534e-06
      -1.99634400e-07 6.99924442e-07 -1.12788894e-05 -8.07768811e-06
      -9.83642440e-06 1.79764834e-06 -1.11412319e-05 4.73888804e-06
      6.02426417e-06 9.71867030e-06 9.50074536e-06 2.14821102e-05
      2.57520642e-05 2.63282254e-05 1.84667551e-05 5.48042317e-06
      9.72135808e-07 0. 0. 0. 0. 0. 0. 0. 0. 0. 0. 0. 0. 0. 0. 0. 0. 0.
      0. 0. 0. 0. 0. 0. 0. 0. 0. 0. 5.84595909e-06 7.78287358e-06
      9.61927526e-06 1.23675627e-05 1.43280758e-05 1.02541308e-05
      2.11301376e-05 1.39238118e-05 2.26949633e-05 1.19640399e-05
      1.28250786e-05 1.32711684e-05 1.29366008e-05 1.31038851e-05
      1.33269295e-05 1.33269295e-05 2.48407810e-06 -2.41525595e-06
      -1.96912129e-06 -7.32183736e-08 1.51639438e-06 1.26332361e-06
      -1.16081828e-05 -9.24581309e-06 -5.69118947e-06 -1.00936704e-05
      -1.10802712e-05 1.10605479e-05 2.12877894e-05 2.09954160e-05
      1.12921161e-05 2.35810749e-05 2.48094511e-05 1.87085498e-05
      1.06187208e-05 9.67756819e-07 8.62661068e-07 0. 0. 0. 0. 0. 0. 0.
      0. 0. 0. 0. 0. 0. 0. 0. 0. 0. 0. 0. 0. 0. 0. 0. 0. 0. 0. 0.
      5.66987592e-06 7.74765704e-06 1.17596392e-05 1.22971296e-05
      1.39197664e-05 1.67038361e-05 1.56221449e-05 1.86667203e-05
      3.12449156e-05 1.43883117e-05 1.24905118e-05 1.30481239e-05
      1.36057361e-05 1.34384518e-05 1.36614972e-05 1.36614972e-05
      6.67379572e-06 -3.26018949e-06 -6.91504647e-06 5.93177219e-07
      1.37866550e-06 2.27852638e-06 -8.30526733e-06 -7.49196170e-06
      -1.23246127e-05 -1.08987560e-05 -4.52140483e-07 2.30509468e-05
      2.22864310e-05 1.81181949e-05 1.86506568e-05 2.61144160e-05
      1.59732917e-05 1.07814440e-05 4.00113458e-06 9.37103891e-07 0. 0.
      0. 0. 0. 0. 0. 0. 0. 0. 0. 0. 0. 0. 0. 0. 0. 0. 0. 0. 0. 0. 0. 0.
      0. 0. 0. 0. 5.21205993e-06 7.88852321e-06 1.16461251e-05
      1.22266965e-05 1.33536287e-05 1.29647269e-05 2.38427092e-05
      1.87906007e-05 1.32499072e-05 1.44424112e-05 1.32878022e-05
      1.33826907e-05 1.28250786e-05 1.33269295e-05 1.31038851e-05
      1.31596462e-05 3.25633005e-06 -2.11325391e-06 -7.36482843e-06
      -2.91329161e-06 9.02622446e-07 2.75540003e-07 -1.08990862e-05
      -1.54717363e-05 -5.59738828e-06 6.32237925e-06 1.92213356e-05
      1.54816898e-05 1.04345263e-05 1.72557629e-05 1.81248779e-05
      1.32420037e-05 8.84422570e-06 8.43386533e-06 4.74925719e-06
      8.18871172e-07 0. 0. 0. 0. 0. 0. 0. 0. 0. 0. 0. 0. 0. 0. 0. 0. 0.
      0. 0. 0. 0. 0. 0. 0. 0. 0. 0. 0. 5.00076021e-06 8.06460685e-06
      1.16187721e-05 1.20995064e-05 1.33399526e-05 1.29462978e-05
      2.38184130e-05 1.26911254e-05 5.34525088e-06 1.20364621e-06
      4.76711148e-06 1.40836128e-05 1.32154073e-05 1.33269295e-05
      1.33269295e-05 1.23522568e-05 -2.40914687e-06 -7.29230214e-06
      -6.84904035e-06 -1.47507319e-06 -1.02919046e-07 -2.35457701e-05
      -1.64445937e-05 -2.15107025e-06 2.82986935e-06 5.52613210e-06
      2.30509468e-05 2.31464055e-05 1.90202663e-05 7.32190483e-06
      1.22242977e-06 8.51305686e-06 8.99313727e-06 8.90500269e-06
      6.53272173e-06 0. 0. 0. 0. 0. 0. 0. 0. 0. 0. 0. 0. 0. 0. 0. 0. 0.
      0. 0. 0. 0. 0. 0. 0. 0. 0. 0. 0. 0. 5.00076021e-06 8.09982339e-06
      9.45892043e-06 1.18861544e-05 1.33047351e-05 1.53983474e-05
      2.24338801e-05 1.88588201e-05 1.37698553e-05 1.63163509e-06
      9.23966923e-07 9.23966923e-07 2.09933137e-06 1.22490374e-05
      1.32118794e-05 1.21987214e-05 -3.14015188e-06 -9.10484687e-06
      -1.85909503e-05 -1.00215202e-05 -1.21481626e-05 -2.33956016e-05
      -1.20822560e-05 -1.91169465e-06 8.26051746e-06 6.75692718e-06
      2.10849994e-05 8.18664012e-06 2.31556442e-06 9.50240860e-07
      3.54751296e-06 8.71578322e-06 9.54747520e-06 9.36429660e-06
      8.34633920e-06 0. 0. 0. 0. 0. 0. 0. 0. 0. 0. 0. 0. 0. 0. 0. 0. 0.
      0. 0. 0. 0. 0. 0. 0. 0. 0. 0. 0. 0. 5.14162684e-06 7.88852321e-06
      7.92373976e-06 1.13281558e-05 1.32264386e-05 9.84932285e-06
      2.25449148e-05 1.93718188e-05 1.85428416e-05 1.51962502e-06
      1.03344166e-06 9.45861871e-07 9.19587933e-07 9.10829954e-07
      9.50240860e-07 -4.14647593e-06 -1.37415464e-05 -1.98795660e-05
      -1.92194457e-05 -1.26013601e-05 -7.07601475e-06 -9.98826908e-06
      8.57064180e-08 -1.50509877e-07 5.51321182e-06 -1.32337891e-06
      1.10122273e-05 1.39574570e-06 9.10829954e-07 9.58998839e-07
      3.21304742e-06 9.27887959e-06 8.80557945e-06 8.55763938e-06
      8.34633920e-06 0. 0. 0. 0. 0. 0. 0. 0. 0. 0. 0. 0. 0. 0. 0. 0. 0.
      0. 0. 0. 0. 0. 0. 0. 0. 0. 0. 0. 0. 0. 7.32505760e-06
      7.81809013e-06 1.18174294e-05 1.28838437e-05 1.17191767e-05
      2.32825896e-05 2.20470047e-05 2.28634999e-05 1.43769182e-06
      9.67756819e-07 1.06409459e-06 1.03782065e-06 1.02468368e-06
      9.54619850e-07 9.45861871e-07 -6.16262605e-06 -1.66269783e-05
      -1.90012161e-05 -9.75976036e-06 1.07654314e-05 -2.89209152e-06
      2.41940597e-06 -1.70597241e-06 -2.75991874e-06 -9.52516439e-06
      1.00278874e-06 9.54619850e-07 8.71419047e-07 9.72135808e-07
      9.54729057e-06 8.27590611e-06 8.31112266e-06 7.74765704e-06
      8.06460685e-06 0. 0. 0. 0. 0. 0. 0. 0. 0. 0. 0. 0. 0. 0. 0. 0. 0.
      0. 0. 0. 0. 0. 0. 0. 0. 0. 0. 0. 0. 0. 8.52242283e-06
      7.53635732e-06 1.28506790e-05 1.29310292e-05 2.30791993e-05
      2.74789072e-05 2.30509468e-05 1.91008749e-05 8.05129457e-06
      5.66583276e-06 9.15208943e-07 1.06847358e-06 1.03344166e-06
      1.01154671e-06 1.00716773e-06 9.67756819e-07 -3.83039151e-06
      4.11650944e-06 2.66610391e-06 3.27511975e-06 -6.60115074e-06
      9.49155265e-07 -8.60946693e-06 -1.04839710e-05 2.39625888e-06
      9.50240860e-07 9.41482881e-07 9.76514798e-07 4.90446894e-07
      8.45198883e-06 8.09982339e-06 7.92373976e-06 8.31112266e-06
      8.94502227e-06 0. 0. 0. 0. 0. 0. 0. 0. 0. 0. 0. 0. 0. 0. 0. 0. 0.
      0. 0. 0. 0. 0. 0. 0. 0. 0. 0. 0. 0. 0. 8.48720629e-06
      7.11375742e-06 7.81809013e-06 1.26492960e-05 1.79141498e-05
      3.09222887e-05 3.16959013e-05 2.24534542e-05 2.27589098e-05
      1.43283751e-05 1.38138257e-05 8.57226132e-06 6.79228924e-06
      6.26669498e-06 6.30101795e-06 1.05358486e-05 1.58858511e-05
      1.66630016e-05 1.12109128e-05 -5.50141567e-06 1.12072485e-06
      -7.96714085e-06 -1.64280482e-05 -1.00218012e-05 8.75798037e-07
      6.65606478e-07 1.75159602e-08 0. 0. 8.94502227e-06 8.27590611e-06
      7.85330667e-06 8.13503993e-06 8.48720629e-06 0. 0. 0. 0. 0. 0. 0.
      0. 0. 0. 0. 0. 0. 0. 0. 0. 0. 0. 0. 0. 0. 0. 0. 0. 0. 0. 0. 0. 0.
      0. 0. 8.80415519e-06 7.92373976e-06 7.67722395e-06 1.28742722e-05
      2.77596882e-05 2.61544483e-05 3.10786272e-05 3.15390498e-05
      2.30604765e-05 1.62112447e-05 1.72596756e-05 1.94924924e-05
      1.63256573e-05 1.61399130e-05 5.71400005e-06 1.59711690e-05
      1.47652599e-05 6.24781842e-06 -6.65156949e-06 -1.39330696e-05
      -1.85009085e-05 -1.39664589e-05 -1.60991840e-05 0. 0. 0. 0.
      7.60679040e-06 8.48720629e-06 7.74765704e-06 7.64200740e-06
      7.99417285e-06 8.02938939e-06 0. 0. 0. 0. 0. 0. 0. 0. 0. 0. 0. 0.
      0. 0. 0. 0. 0. 0. 0. 0. 0. 0. 0. 0. 0. 0. 0. 0. 0. 0. 0. 0.
      8.80415519e-06 7.64200740e-06 8.09982339e-06 1.27353333e-05
      2.12595060e-05 3.05222966e-05 3.07194059e-05 2.93552166e-05
      2.93464527e-05 1.16843639e-05 2.31586491e-05 2.06620462e-05
      2.12542382e-05 1.16101610e-05 1.80252955e-05 1.21550711e-05
      5.13223040e-06 -1.19053275e-05 -1.75228852e-05 -1.78954706e-05
      -1.59593837e-05 -1.72339296e-05 0. 0. 0. 8.55763938e-06
      8.48720629e-06 8.13503993e-06 7.92373976e-06 7.78287358e-06
      8.38155574e-06 0. 0. 0. 0. 0. 0. 0. 0. 0. 0. 0. 0. 0. 0. 0. 0. 0.
      0. 0. 0. 0. 0. 0. 0. 0. 0. 0. 0. 0. 0. 0. 0. 0. 0. 8.76893864e-06
      8.06460685e-06 7.64200740e-06 7.67722395e-06 1.56298756e-05
      1.98517228e-05 2.81086486e-05 2.19398244e-05 2.79596279e-05
      2.75453858e-05 2.92165678e-05 2.26815118e-05 1.77048096e-05
      1.50299738e-05 5.69395752e-06 -1.83544253e-05 -2.18222922e-05
      -2.12425803e-05 -2.72843663e-05 -1.82727927e-05 -4.77675667e-06
      -1.16423212e-06 4.15556133e-06 8.27590611e-06 8.48720629e-06
      8.38155574e-06 7.88852321e-06 7.46592377e-06 7.78287358e-06
      8.48720629e-06 0. 0. 0. 0. 0. 0. 0. 0. 0. 0. 0. 0. 0. 0. 0. 0. 0.
      0. 0. 0. 0. 0. 0. 0. 0. 0. 0. 0. 0. 0. 0. 0. 0. 0. 0.
      7.53635732e-06 8.87458918e-06 7.43070723e-06 7.67722395e-06
      7.64200740e-06 1.11866893e-05 1.50504620e-05 1.93666328e-05
      1.81843534e-05 2.87476814e-05 2.62091180e-05 2.01960302e-05
      1.07939622e-05 3.79790731e-06 -1.62676843e-05 -1.71388765e-05
      -1.74411125e-05 -1.29038172e-05 -1.31270472e-05 4.65543371e-06
      6.40120288e-06 8.27590611e-06 8.27590611e-06 8.09982339e-06
      7.28984060e-06 7.43070723e-06 7.67722395e-06 8.55763938e-06 0. 0.
      0. 0. 0. 0. 0. 0. 0. 0. 0. 0. 0. 0. 0. 0. 0. 0. 0. 0. 0. 0. 0. 0.
      0. 0. 0. 0. 0. 0. 0. 0. 0. 0. 0. 0. 0. 0. 3.41601231e-06
      8.87458918e-06 7.46592377e-06 7.00810779e-06 7.39549068e-06
      7.46592377e-06 6.76159152e-06 6.88207001e-06 5.56677696e-06
      1.71114118e-06 1.98441808e-06 -2.39971632e-06 -7.29485691e-06
      -1.17632126e-05 -1.33970307e-05 -1.18491780e-05 -1.23791979e-05
      3.79100561e-06 5.88951980e-06 7.99417285e-06 8.17025648e-06
      7.18419096e-06 7.28984060e-06 8.34633920e-06 8.55763938e-06 0. 0.
      0. 0. 0. 0. 0. 0. 0. 0. 0. 0. 0. 0. 0. 0. 0. 0. 0. 0. 0. 0. 0. 0.
      0. 0. 0. 0. 0. 0. 0. 0. 0. 0. 0. 0. 0. 0. 0. 0. 0. 5.70509292e-06
      8.80415519e-06 8.31112266e-06 6.19812545e-06 7.67722395e-06
      6.11599398e-06 3.76424487e-06 1.93089704e-06 2.08543338e-06
      1.36709184e-06 -3.69104123e-06 -7.98950987e-06 -1.15620733e-05
      -1.40355978e-05 3.00836314e-06 2.59943340e-06 4.10772145e-06
      7.18419096e-06 7.21940751e-06 7.57157386e-06 7.81809013e-06
      6.37420862e-06 0. 0. 0. 0. 0. 0. 0. 0. 0. 0. 0. 0. 0. 0. 0. 0. 0.
      0. 0. 0. 0. 0. 0. 0. 0. 0. 0. 0. 0. 0. 0. 0. 0. 0. 0. 0. 0. 0. 0.
      0. 0. 0. 0. 0. 1.44388150e-06 8.27590611e-06 8.76893864e-06
      8.66328901e-06 6.62072489e-06 6.50835682e-06 6.52608196e-06
      5.93203413e-06 3.47540936e-06 -1.16695821e-06 -8.11095288e-06
      3.46710408e-06 4.54051496e-06 6.65825883e-06 7.39549068e-06
      7.67722395e-06 7.71244049e-06 8.48720629e-06 0. 0. 0. 0. 0. 0. 0.
      0. 0. 0. 0. 0. 0. 0. 0. 0. 0. 0. 0. 0. 0. 0. 0. 0. 0. 0. 0. 0. 0.
      0. 0. 0. 0. 0. 0. 0. 0. 0. 0. 0. 0. 0. 0. 0. 0. 0. 0. 0. 0. 0.
      7.67722395e-06 8.24068957e-06 7.28984060e-06 7.04332433e-06
      7.21940751e-06 7.92373976e-06 8.27590611e-06 8.34633920e-06
      8.13503993e-06 8.38155574e-06 8.62807246e-06 4.89511058e-06 0. 0.
      0. 0. 0. 0. 0. 0. 0. 0. 0. 0. 0. 0. 0. 0. 0. 0. 0. 0. 0. 0. 0. 0.
      0. 0. 0. 0. 0. 0. 0. 0. 0. 0. 0. 0. 0. 0. 0. 0. 0. 0. 0. 0. 0. 0.
      0. 0. 0. 0. 0. 0. 0. 0. 0. 0. 0. 0. 0. 0. 0. 0. 0. 0. 0. 0. 0. 0.
      0. 0. 0. 0. 0. 0. 0. 0. 0. 0. 0. 0. 0. 0. 0. 0. 0. 0. 0. 0. 0. 0.
      0. 0. 0. 0. 0. 0. 0. 0. 0. 0. 0. 0. 0. 0. 0. 0. 0. 0. 0. 0. 0. 0.
      0. 0. 0. 0. 0. 0. 0. 0. 0. 0. 0. 0. 0. 0. 0. 0. 0. 0. 0. 0. 0. 0.
      0. 0. 0. 0. 0. 0. 0. 0. 0. 0. 0. 0. 0. 0. 0. 0. 0. 0. 0. 0. 0. 0.
      0. 0. 0. 0. 0. 0. 0. 0. 0. 0. 0. 0. 0. 0. 0. 0. 0. 0. 0. 0. 0. 0.
      0. 0. 0. 0. 0. 0. 0. 0. 0. 0. 0. 0. 0. 0. 0. 0. 0. 0. 0. 0. 0. 0.
      0. 0. 0. 0. 0. 0. 0. 0. 0. 0. 0. 0. 0. 0. 0. 0. 0. 0. 0. 0. 0. 0.
      0. 0. 0. 0. 0. 0. 0. 0. 0. 0. 0. 0. 0. 0. 0. 0. 0. 0. 0. 0. 0. 0.
      0. 0. 0. 0. 0. 0. 0. 0. 0. 0. 0. 0. 0. 0. 0. 0. 0. 0. 0. 0. 0. 0.
      0. 0. 0. 0. 0. 0. 0. 0. 0. 0. 0. 0. 0. 0. 0. 0. 0. 0. 0. 0. 0. 0.
      0. 0. 0. 0. 0. 0. 0. 0. 0. 0. 0. 0. 0. 0. 0. 0. 0. 0. 0. 0. 0. 0.
      0. 0. 0. 0. 0. 0. 0. 0. 0. 0. 0. 0. 0. 0. 0. 0. 0. 0. 0. 0. 0. 0.
      0. 0. 0. 0. 0. 0. 0. 0. 0. 0. 0. 0. 0. 0. 0. 0. 0. 0. 0. 0. 0. 0.
      0. 0. 0. 0. 0. 0. 0. 0. 0. 0. 0. 0. 0. 0. 0. 0. 0. 0. 0. 0. 0. 0.
      0. 0. 0. 0. 0. 0. 0. 0. 0. 0. 0. 0. 0. 0. 0. 0. 0. 0. 0. 0. 0. 0.
      0. 0. 0. 0. 0. 0. 0. 0. 0. 0. 0. 0. 0. 0.</_>
    <_>
      0. 0. 0. 0. 0. 0. 0. 0. 0. 0. 0. 0. 0. 0. 0. 0. 0. 0. 0. 0. 0. 0.
      0. 0. 0. 0. 0. 0. 0. 0. 0. 0. 0. 0. 0. 0. 0. 0. 0. 0. 0. 0. 0. 0.
      0. 0. 0. 0. 0. 0. 0. 0. 0. 0. 0. 0. 0. 0. 0. 0. 0. 0. 0. 0. 0. 0.
      0. 0. 0. 0. 0. 0. 0. 0. 0. 0. 0. 0. 0. 0. 0. 0. 0. 0. 0. 0. 0. 0.
      0. 0. 0. 0. 0. 0. 0. 0. 0. 0. 0. 0. 0. 0. 0. 0. 0. 0. 0. 0. 0. 0.
      0. 0. 0. 0. 0. 0. 0. 0. 0. 0. 0. 0. 0. 0. 0. 0. 0. 0. 0. 0. 0. 0.
      0. 0. 0. 0. 0. 0. 0. 0. 0. 0. 0. 0. 0. 0. 0. 0. 0. 0. 0. 0. 0. 0.
      0. 0. 0. 0. 0. 0. 0. 0. 0. 0. 0. 0. 0. 0. 0. 0. 0. 0. 0. 0. 0. 0.
      0. 0. 0. 0. 0. 0. 0. 0. 0. 0. 0. 0. 0. 0. 0. 0. 0. 0. 0. 0. 0. 0.
      0. 0. 0. 0. 0. 0. 0. 0. 0. 0. 0. 0. 0. 0. 0. -3.88984972e-07
      -2.10405506e-06 -2.93506855e-06 -3.21796665e-06 -3.04115520e-06
      4.38468049e-07 4.34098354e-07 1.73251010e-07 -3.48318372e-06
      -2.66985148e-06 -7.42607710e-07 0. 0. 0. 0. 0. 0. 0. 0. 0. 0. 0.
      0. 0. 0. 0. 0. 0. 0. 0. 0. 0. 0. 0. 0. 0. 0. 0. 0. 0. 0. 0. 0. 0.
      0. 0. 0. 0. 0. 0. 0. 0. 0. 0. 0. 0. 0. 0. 0. 0. 0. 0.
      -2.84666271e-06 -3.73071953e-06 -4.03129889e-06 -3.85448766e-06
      -3.87216869e-06 7.74031196e-06 7.98015026e-06 8.56154384e-06
      8.43112048e-06 8.56487168e-06 8.57922532e-06 2.68457916e-06
      -3.73071953e-06 -3.78376285e-06 -3.87216869e-06 -4.08434244e-06
      -1.36144740e-06 0. 0. 0. 0. 0. 0. 0. 0. 0. 0. 0. 0. 0. 0. 0. 0. 0.
      0. 0. 0. 0. 0. 0. 0. 0. 0. 0. 0. 0. 0. 0. 0. 0. 0. 0. 0. 0. 0. 0.
      0. 0. 0. 0. 0. 0. -2.12173632e-06 -3.80144411e-06 -3.90753075e-06
      -3.99593637e-06 -3.65999495e-06 6.94113078e-06 8.98817780e-06
      8.76269223e-06 8.29404144e-06 8.76602007e-06 5.58684678e-06
      2.35514494e-06 1.08767279e-06 1.27009628e-06 9.22421123e-07
      -3.75814557e-06 -1.20016621e-05 -1.17129794e-05 -1.19437072e-05
      -1.17147256e-05 -1.17576192e-05 -8.44688020e-06 -8.35934770e-06
      -1.40051907e-06 0. 0. 0. 0. 0. 0. 0. 0. 0. 0. 0. 0. 0. 0. 0. 0. 0.
      0. 0. 0. 0. 0. 0. 0. 0. 0. 0. 0. 0. 0. 0. 0. 0. 0. 0. 0. 0. 0. 0.
      -3.90753075e-06 -3.85448766e-06 -3.74840079e-06 -3.88984972e-06
      -3.83680617e-06 9.13732401e-06 8.77039020e-06 9.21470382e-06
      8.96138226e-06 5.66498329e-07 -6.96853348e-08 -4.38369455e-07
      3.60105446e-07 7.78156107e-07 -7.32104070e-07 -6.09087465e-07
      -1.16537121e-05 -1.29974123e-05 -2.22793933e-05 -1.17628306e-05
      -1.22366282e-05 -1.33694384e-05 -1.33517569e-05 -9.67233427e-06
      -9.62856848e-06 -9.97869847e-06 -9.80363347e-06 -9.45350348e-06 0.
      0. 0. 0. 0. 0. 0. 0. 0. 0. 0. 0. 0. 0. 0. 0. 0. 0. 0. 0. 0. 0. 0.
      0. 0. 0. 0. 0. 0. 0. 0. 0. 0. 0. 0. -3.76608182e-06
      -3.78376285e-06 -3.81912514e-06 -3.74840079e-06 6.46249600e-06
      9.03019554e-06 9.78507251e-06 9.80447749e-06 3.99011105e-06
      2.00906879e-06 1.49838320e-06 1.21312735e-06 2.64541973e-06
      5.51842186e-06 1.19029473e-05 1.14268769e-05 1.03891207e-05
      9.64122319e-06 1.02020585e-05 7.46556270e-06 -1.03271504e-05
      -1.82068216e-05 -1.77298552e-05 -9.38835183e-06 -2.01440980e-05
      -1.03725943e-05 -9.97869847e-06 -9.67233427e-06 -9.62856848e-06
      -1.00662301e-05 -1.01099968e-05 0. 0. 0. 0. 0. 0. 0. 0. 0. 0. 0.
      0. 0. 0. 0. 0. 0. 0. 0. 0. 0. 0. 0. 0. 0. 0. 0. 0. 0. 0. 0. 0.
      -3.78376285e-06 -3.76608182e-06 -3.73071953e-06 5.58156444e-06
      9.47887929e-06 1.04992823e-05 1.11779918e-05 7.27645011e-06
      4.53210760e-06 9.78627577e-06 1.08567383e-05 9.33389219e-06
      9.26411849e-06 -7.33367699e-07 7.28711120e-06 -8.38911001e-06
      -6.77078560e-06 -4.70426312e-06 -5.52916754e-06 -6.79075356e-06
      -6.56212524e-06 -7.14543148e-06 -7.74033560e-06 -2.06735167e-05
      -1.81342712e-05 -8.61562421e-06 -7.67393885e-06 -2.47948064e-05
      -1.00662301e-05 -9.93493177e-06 -9.80363347e-06 -9.93493177e-06
      -4.24532345e-06 0. 0. 0. 0. 0. 0. 0. 0. 0. 0. 0. 0. 0. 0. 0. 0. 0.
      0. 0. 0. 0. 0. 0. 0. 0. 0. 0. 0. 0. 0. -8.84056760e-07
      -3.73071953e-06 -3.74840079e-06 8.79139861e-06 1.25818387e-05
      1.08691320e-05 1.39233944e-05 3.57998283e-06 2.09952123e-05
      8.45259274e-06 9.09128448e-06 1.17427480e-05 -1.95261036e-05
      -2.00992963e-05 -1.92492353e-05 -2.12836039e-05 -1.78829268e-05
      -4.34432332e-06 -5.92086371e-06 -2.22518702e-06 9.27487577e-07
      -6.77733226e-07 8.21358356e-07 5.57309363e-07 1.47185304e-07
      -1.55340531e-05 -1.69080249e-05 -9.12251926e-06 -4.42873261e-06
      -1.04842693e-05 -9.36289507e-06 -1.00662301e-05 -9.67233427e-06
      -9.71610098e-06 0. 0. 0. 0. 0. 0. 0. 0. 0. 0. 0. 0. 0. 0. 0. 0. 0.
      0. 0. 0. 0. 0. 0. 0. 0. 0. 0. 0. 0. 0. -2.63448919e-06
      -3.80144411e-06 1.78368089e-06 1.40172979e-05 1.09780549e-05
      7.53672339e-06 1.92040916e-05 9.46862292e-06 1.03031498e-05
      8.00956241e-06 -9.64994160e-06 -1.90647534e-05 -2.05862907e-05
      -1.79041508e-05 -9.03060572e-06 -1.24862918e-05 -9.68342829e-06
      -7.31684622e-06 1.01658179e-05 1.72063665e-05 1.74276956e-05
      1.69223258e-05 1.69392715e-05 1.52729499e-05 1.74829693e-05
      1.59863175e-05 -4.86807494e-07 9.47676654e-06 2.50167545e-06
      -5.45494231e-06 7.81124800e-06 -6.67303993e-06 -9.93493177e-06
      -9.84739927e-06 0. 0. 0. 0. 0. 0. 0. 0. 0. 0. 0. 0. 0. 0. 0. 0. 0.
      0. 0. 0. 0. 0. 0. 0. 0. 0. 0. 0. 0. 0. -2.05101173e-06
      -3.67767620e-06 1.03863122e-05 1.31567822e-05 3.99313831e-06
      1.12108464e-05 1.04347300e-05 8.37761218e-06 -6.43521435e-06
      -1.97539939e-05 -1.85595727e-05 -1.79095205e-05 -1.06707439e-05
      -8.54668360e-06 -6.71804855e-06 -7.14589714e-06 -9.56787153e-06
      -4.61891750e-06 -4.22040193e-06 -3.90135574e-06 7.78135473e-06
      8.95215544e-06 -5.19060222e-06 -4.72546162e-06 1.49236621e-06
      1.72017117e-05 1.19215747e-05 1.63459717e-05 1.25596525e-05
      4.08875439e-06 1.08196637e-05 8.68042116e-06 -9.66925836e-06
      -9.71610098e-06 0. 0. 0. 0. 0. 0. 0. 0. 0. 0. 0. 0. 0. 0. 0. 0. 0.
      0. 0. 0. 0. 0. 0. 0. 0. 0. 0. 0. 0. 0. -3.25332894e-06
      9.72433190e-06 1.55667312e-05 2.91343031e-06 4.57804663e-06
      8.98658254e-06 -6.57443979e-06 -1.83034153e-05 -1.65490601e-05
      -1.65236488e-05 -1.37860279e-05 -9.06626701e-06 -7.79816583e-06
      -1.81362577e-06 -8.19371508e-06 -7.36014681e-06 -7.33012575e-06
      -7.34039986e-06 -7.66753692e-06 -2.97205429e-06 2.28074373e-06
      1.39421836e-05 6.22389189e-06 7.08621826e-07 -2.24794894e-06
      -2.71011686e-07 -2.01303578e-06 2.74071808e-05 1.63099539e-05
      1.10587116e-05 -1.13513011e-06 1.40337306e-05 2.20347920e-06
      -9.93493177e-06 0. 0. 0. 0. 0. 0. 0. 0. 0. 0. 0. 0. 0. 0. 0. 0. 0.
      0. 0. 0. 0. 0. 0. 0. 0. 0. 0. 0. 0. 0. 6.76808213e-06
      1.09134835e-05 5.71717601e-06 6.25938446e-06 1.28555475e-05
      -6.86621934e-06 -1.90191950e-05 -1.84248274e-05 -1.83409375e-05
      -9.12032465e-06 -1.22104884e-05 -1.41760029e-05 -9.02335250e-06
      -3.82528697e-06 9.68557652e-06 1.26104824e-05 1.27490257e-05
      1.31949073e-05 7.15866736e-06 3.80072356e-06 2.14833517e-06
      1.89171465e-06 2.18725427e-06 1.60072943e-06 -3.28691499e-06
      -2.70401779e-06 -1.39208041e-05 6.60105570e-06 9.42997849e-06
      1.19261294e-05 6.96475809e-06 1.79614435e-05 5.16925365e-06
      -1.01099968e-05 0. 0. 0. 0. 0. 0. 0. 0. 0. 0. 0. 0. 0. 0. 0. 0. 0.
      0. 0. 0. 0. 0. 0. 0. 0. 0. 0. 0. 0. 0. 1.22460779e-05
      8.26699397e-06 7.38794506e-06 7.61191950e-06 5.72406918e-07
      -1.18075659e-05 -2.17233646e-05 -1.04791097e-05 -7.63704975e-06
      -1.80231873e-05 -9.65818708e-06 3.52511506e-06 8.56525548e-06
      1.32511213e-05 1.33798894e-05 1.20495142e-05 1.26851482e-05
      9.60736634e-06 6.54162295e-06 5.86658416e-06 4.22816856e-06
      -4.14334181e-06 -7.99050758e-06 -1.24407243e-05 -6.13253178e-06
      -4.68857797e-06 -9.44570365e-06 3.75190348e-06 6.18127297e-06
      1.19512924e-05 1.31878996e-05 2.94086585e-05 1.27729209e-05
      -6.21692379e-06 0. 0. 0. 0. 0. 0. 0. 0. 0. 0. 0. 0. 0. 0. 0. 0. 0.
      0. 0. 0. 0. 0. 0. 0. 0. 0. 0. 0. 0. 1.18943371e-05 1.34727325e-05
      9.33899082e-06 9.43399482e-06 1.60515447e-05 -5.37076721e-06
      -1.85610625e-05 -1.11826475e-05 -8.22909988e-06 -5.96161863e-06
      5.07380264e-06 5.98667566e-06 1.29498785e-05 1.27413623e-05
      1.09670600e-05 1.18313819e-05 1.10765959e-05 6.43302610e-06
      5.74117803e-06 4.86239423e-06 0. 0. 0. -5.40858900e-06
      -1.76362282e-05 -2.04990920e-05 -1.00609523e-05 -1.98733096e-06
      1.51253209e-06 5.47820673e-06 1.78888040e-05 1.05637719e-05
      2.98833711e-05 2.42003134e-05 4.36572827e-06 0. 0. 0. 0. 0. 0. 0.
      0. 0. 0. 0. 0. 0. 0. 0. 0. 0. 0. 0. 0. 0. 0. 0. 0. 0. 0. 0. 0. 0.
      1.27399062e-05 1.33162239e-05 9.10620383e-06 8.97442442e-06
      1.80806910e-05 -1.65452639e-05 -7.70588213e-06 -1.17474783e-05
      1.19861279e-05 5.33806315e-06 7.53854511e-06 1.01440201e-05
      1.10631472e-05 1.33568255e-05 1.24103326e-05 9.73277292e-06
      5.75126387e-06 1.05704217e-07 0. 0. 0. 0. 0. -3.63670983e-06
      -1.88870381e-05 -2.00811992e-05 -9.93310914e-06 -1.40253296e-05
      -6.14836097e-07 4.65623089e-06 1.97417139e-05 5.84797317e-06
      3.04819314e-05 2.89547970e-05 2.46559193e-05 4.28602607e-06 0. 0.
      0. 0. 0. 0. 0. 0. 0. 0. 0. 0. 0. 0. 0. 0. 0. 0. 0. 0. 0. 0. 0. 0.
      0. 0. 0. 0. 1.30781336e-05 1.29653909e-05 9.55057385e-06
      9.49796777e-06 2.34599320e-05 -7.05480670e-06 -7.10153199e-06
      1.01565856e-05 1.43855468e-05 5.17950684e-06 1.12812804e-05
      1.31881834e-05 9.78992648e-06 1.30454973e-05 9.67272717e-06
      8.13892768e-07 0. 0. 0. 0. 0. 0. 0. -3.75402306e-06
      -1.89910297e-05 -1.99453898e-05 -2.19260546e-05 -1.02526683e-05
      -8.01927945e-06 5.65884829e-06 1.44176265e-05 6.66510914e-06
      2.64591636e-05 2.86505565e-05 2.98460509e-05 5.24201278e-06 0. 0.
      0. 0. 0. 0. 0. 0. 0. 0. 0. 0. 0. 0. 0. 0. 0. 0. 0. 0. 0. 0. 0. 0.
      0. 0. 0. 3.83324596e-06 1.27399062e-05 1.78492937e-05
      1.12004909e-05 1.00734142e-05 2.39371711e-05 6.04174966e-06
      3.93554001e-06 1.32333626e-05 1.36240424e-05 7.29304702e-06
      1.35682340e-05 1.12817497e-05 1.28206411e-05 6.08073651e-06
      8.93640646e-08 0. 0. 0. 0. 0. 0. 0. 0. -3.63670983e-06
      -2.08406564e-05 -2.04977041e-05 -2.08804777e-05 -9.10783183e-06
      -9.36373908e-06 2.23023326e-05 8.33850208e-06 1.21975618e-05
      2.28873159e-05 2.52514310e-05 7.87836052e-06 1.18479074e-05
      9.64850187e-06 0. 0. 0. 0. 0. 0. 0. 0. 0. 0. 0. 0. 0. 0. 0. 0. 0.
      0. 0. 0. 0. 0. 0. 0. 0. 0. 1.23453074e-05 1.32472469e-05
      1.86530597e-05 1.12733642e-05 1.61792723e-05 1.68611205e-05
      2.80205786e-05 1.21637104e-05 1.44442884e-05 8.03091280e-06
      8.85594181e-06 1.32741852e-05 1.26054010e-05 6.73209252e-06
      8.34064565e-07 0. 0. 0. 0. 0. 0. 0. 0. 0. -3.63670983e-06
      -2.05546785e-05 -2.04547687e-05 -2.06420646e-05 -9.10677682e-06
      3.55809425e-06 2.09358259e-05 9.27956717e-06 7.97638950e-06
      1.93978503e-05 2.55915547e-05 6.03574108e-06 1.25108245e-05
      9.15182409e-06 0. 0. 0. 0. 0. 0. 0. 0. 0. 0. 0. 0. 0. 0. 0. 0. 0.
      0. 0. 0. 0. 0. 0. 0. 0. 0. 1.28526481e-05 1.20634504e-05
      1.84950313e-05 1.16414558e-05 1.81429077e-05 2.47200023e-05
      3.04169571e-05 1.62637589e-05 1.51780805e-05 -8.71755276e-07
      1.31977995e-05 1.14950371e-05 5.60014814e-06 3.00859006e-06
      2.97880209e-08 0. 0. 0. 0. 0. 0. 0. 0. 0. -3.57805334e-06
      -2.03085565e-05 -1.98696252e-05 -1.55958405e-05 -8.51883397e-06
      1.11693607e-05 2.04762709e-05 1.19593142e-05 1.46708544e-06
      1.85936606e-05 3.60171566e-06 2.44568878e-06 1.20943259e-05
      8.21323374e-06 2.64267919e-06 0. 0. 0. 0. 0. 0. 0. 0. 0. 0. 0. 0.
      0. 0. 0. 0. 0. 0. 0. 0. 0. 0. 0. 0. 0. 1.26835348e-05
      1.33599897e-05 1.94430904e-05 1.60212712e-05 3.31898846e-05
      3.03439447e-05 3.05265676e-05 2.03354539e-05 1.86769466e-05
      6.50238280e-06 1.18972121e-05 7.59594514e-06 2.71070985e-06
      1.19152084e-07 0. 0. 0. 0. 0. 0. 0. 0. 0. 0. -4.76268951e-06
      -2.06191089e-05 -1.99314964e-05 -1.51359563e-05 3.47781656e-06
      1.57488830e-05 2.17193519e-05 1.21743878e-05 1.01258308e-06
      1.24883118e-05 2.85635929e-06 2.44070247e-06 1.15477915e-05
      7.43223382e-06 5.37418782e-06 0. 0. 0. 0. 0. 0. 0. 0. 0. 0. 0. 0.
      0. 0. 0. 0. 0. 0. 0. 0. 0. 0. 0. 0. 1.69113798e-06 1.28526481e-05
      1.34163611e-05 1.93200976e-05 1.85906829e-05 2.91554479e-05
      3.10635187e-05 3.19882565e-05 2.71181361e-05 3.37204874e-05
      5.74963178e-06 6.64272875e-06 6.49378853e-06 1.25109693e-06 0. 0.
      0. 0. 0. 0. 0. 0. 0. 0. 0. -7.23159383e-06 -2.08594556e-05
      -2.10860617e-05 -1.57208597e-05 5.90507534e-06 1.64491248e-05
      2.07936355e-05 1.11799118e-05 4.42419241e-06 -8.09472658e-06
      1.64942298e-06 1.27674366e-06 1.25102897e-05 7.00655210e-06
      5.35198069e-06 0. 0. 0. 0. 0. 0. 0. 0. 0. 0. 0. 0. 0. 0. 0. 0. 0.
      0. 0. 0. 0. 0. 0. 0. 5.80624010e-06 1.31345050e-05 1.36418457e-05
      1.88127560e-05 2.37458826e-05 3.01290238e-05 3.05112244e-05
      3.15589896e-05 2.83252211e-05 3.43119755e-05 7.56615736e-06
      7.17891317e-06 3.57456247e-06 5.95760419e-08 0. 0. 0. 0. 0. 0. 0.
      0. 0. 0. 0. -8.99382940e-06 -2.13632211e-05 -2.09988011e-05
      -1.62898250e-05 6.36128789e-06 1.72215096e-05 2.04991211e-05
      9.65297750e-06 4.55761301e-06 -8.60112232e-06 1.17135119e-06
      2.16497756e-06 1.05058425e-05 6.10533061e-06 5.37418782e-06 0. 0.
      0. 0. 0. 0. 0. 0. 0. 0. 0. 0. 0. 0. 0. 0. 0. 0. 0. 0. 0. 0. 0. 0.
      1.25144206e-05 1.34727325e-05 1.34727325e-05 1.81482574e-05
      2.45464034e-05 3.09025236e-05 3.05463000e-05 3.22903070e-05
      3.46035376e-05 2.87994862e-05 7.50658137e-06 4.34905087e-06
      5.36184359e-07 0. 0. 0. 0. 0. 0. 0. 0. 0. 0. 0. -3.23564768e-06
      -1.18656480e-05 -2.10654434e-05 -2.12940104e-05 -1.42129338e-05
      7.70455063e-06 1.86049947e-05 2.00234408e-05 9.02029660e-06
      -7.16568320e-06 -6.93299353e-06 2.88141496e-06 1.81710891e-06
      8.65033599e-06 5.49440892e-06 5.37418782e-06 0. 0. 0. 0. 0. 0. 0.
      0. 0. 0. 0. 0. 0. 0. 0. 0. 0. 0. 0. 0. 0. 0. 0. 0. 1.25144206e-05
      1.33599897e-05 1.35291039e-05 1.80918869e-05 2.39847232e-05
      3.11603653e-05 3.11567128e-05 3.79142475e-05 3.21659281e-05
      2.81776702e-05 7.44700537e-06 9.23428672e-07 0. 0. 0. 0. 0. 0. 0.
      0. 0. 0. 0. 0. -3.76608182e-06 -1.17386653e-05 -2.11986389e-05
      -1.67882499e-05 5.22085111e-06 1.16291076e-05 2.11629394e-05
      2.04514145e-05 4.28264639e-06 -1.53151486e-05 -5.80104870e-06
      2.35413427e-06 1.15413768e-05 9.90250192e-06 4.95491986e-06
      4.06395202e-06 0. 0. 0. 0. 0. 0. 0. 0. 0. 0. 0. 0. 0. 0. 0. 0. 0.
      0. 0. 0. 0. 0. 0. 0. 1.23453074e-05 1.32472469e-05 1.36982171e-05
      2.29764883e-05 2.47281732e-05 3.02156222e-05 3.14708122e-05
      3.38847312e-05 2.62885842e-05 2.74167978e-05 2.08516144e-06 0. 0.
      0. 0. 0. 0. 0. 0. 0. 0. 0. 0. -3.88984972e-07 -4.26995530e-06
      -1.97455192e-05 -2.12943141e-05 -1.56750393e-05 3.72837690e-06
      1.15864195e-05 2.04707540e-05 1.35357895e-05 2.30630258e-06
      -1.51835147e-05 -6.33540139e-06 1.89457126e-06 8.70660733e-06
      9.09929440e-06 4.10836674e-06 1.64334665e-06 0. 0. 0. 0. 0. 0. 0.
      0. 0. 0. 0. 0. 0. 0. 0. 0. 0. 0. 0. 0. 0. 0. 0. 0. 1.25707920e-05
      1.31345050e-05 1.37545885e-05 2.34877189e-05 2.49449131e-05
      3.11141412e-05 3.21182451e-05 3.40568695e-05 2.28405006e-05
      5.77887613e-06 2.26388966e-06 0. 0. 0. 0. 0. 0. 0. 0. 0. 0. 0. 0.
      -4.10202347e-06 -7.83997893e-06 -2.08852744e-05 -2.13731582e-05
      -1.90270418e-06 5.68431642e-06 9.56617259e-06 2.06803052e-05
      1.13733222e-05 -1.51927361e-06 -1.41656619e-05 -5.36338621e-06
      1.17085949e-06 1.06384550e-05 8.72123383e-06 4.21940376e-06 0. 0.
      0. 0. 0. 0. 0. 0. 0. 0. 0. 0. 0. 0. 0. 0. 0. 0. 0. 0. 0. 0. 0. 0.
      0. 1.27399062e-05 1.30217622e-05 1.36982171e-05 2.33443334e-05
      2.68632321e-05 3.12576012e-05 3.28483948e-05 3.60995546e-05
      2.51739184e-05 5.98739234e-06 6.85124462e-07 0. 0. 0. 0. 0. 0. 0.
      0. 0. 0. 0. -3.27100997e-06 -4.06666095e-06 -8.73406498e-06
      -2.15738382e-05 -2.22562230e-05 5.08069297e-06 1.04173214e-05
      2.84962425e-06 1.14921895e-05 1.11365189e-05 -1.83471348e-05
      -1.57349750e-05 -1.23399786e-06 3.09079815e-06 1.14925888e-05
      8.00685575e-06 3.99732971e-06 0. 0. 0. 0. 0. 0. 0. 0. 0. 0. 0. 0.
      0. 0. 0. 0. 0. 0. 0. 0. 0. 0. 0. 0. 0. 1.23453074e-05
      1.27399062e-05 1.36982171e-05 2.33214250e-05 2.65108047e-05
      3.07814480e-05 3.36278281e-05 3.51288836e-05 2.40742502e-05
      7.38742938e-06 2.97880209e-08 0. 0. 0. 0. 0. 0. 0. 0. 0. 0. 0.
      -4.01361785e-06 -4.01361785e-06 -8.74166471e-06 -2.10671278e-05
      1.49514926e-06 8.23000391e-06 5.97863482e-06 6.02986029e-06
      1.01612995e-05 8.24057406e-06 -1.78870105e-05 -1.86716206e-05
      5.53110112e-07 1.19854276e-05 1.21777130e-05 5.19162086e-06
      2.50943481e-06 0. 0. 0. 0. 0. 0. 0. 0. 0. 0. 0. 0. 0. 0. 0. 0. 0.
      0. 0. 0. 0. 0. 0. 0. 0. 1.29653909e-05 1.29653909e-05
      1.32226132e-05 2.41479775e-05 2.66042316e-05 3.08590133e-05
      3.22417909e-05 3.06931361e-05 2.47904063e-05 6.49378853e-06
      5.95760419e-08 0. 0. 0. 0. 0. 0. 0. 0. 0. -5.30434043e-08
      -4.13738553e-06 -4.19042908e-06 -8.40068242e-06 -1.99837887e-05
      -2.05726355e-05 5.32942158e-06 7.76832348e-06 9.60283251e-06
      2.64289201e-06 9.86482701e-06 -1.85348035e-05 -1.62497945e-05
      -1.83671200e-05 1.51811469e-06 1.14871464e-05 1.22519159e-05
      5.02805369e-06 7.99465965e-07 0. 0. 0. 0. 0. 0. 0. 0. 0. 0. 0. 0.
      0. 0. 0. 0. 0. 0. 0. 0. 0. 0. 0. 0. 0. 1.29653909e-05
      1.34727325e-05 1.80814877e-05 2.38226276e-05 2.33464725e-05
      3.13968922e-05 3.61128914e-05 2.82892324e-05 2.49468103e-05
      1.07236872e-06 0. 0. 0. 0. 0. 0. 0. 0. 0. 0. -4.13738553e-06
      -4.19042908e-06 -4.06666095e-06 -8.75302521e-06 -2.21090522e-05
      3.56636775e-07 9.15486817e-06 8.40008397e-06 -1.27184876e-05
      8.63126934e-06 9.94402399e-06 -1.89814054e-05 -1.57031318e-05
      -9.00436589e-06 1.11058789e-05 1.10018882e-05 1.08887134e-05
      7.10456561e-06 0. 0. 0. 0. 0. 0. 0. 0. 0. 0. 0. 0. 0. 0. 0. 0. 0.
      0. 0. 0. 0. 0. 0. 0. 0. 0. 1.29090195e-05 1.34163611e-05
      1.81079140e-05 2.37567037e-05 2.54193583e-05 3.18693128e-05
      3.78295190e-05 2.88167084e-05 2.68061085e-05 1.31067293e-06 0. 0.
      0. 0. 0. 0. 0. 0. 0. -3.39477788e-06 -4.24347263e-06
      -4.13738553e-06 -8.98792041e-06 -2.05288416e-05 -2.06773620e-05
      9.72683324e-07 4.14898432e-06 -4.88391152e-07 -1.80644238e-05
      8.74700345e-06 -1.16589836e-05 -1.64628764e-05 -1.71327538e-05
      1.40280481e-05 1.03768743e-05 9.68363474e-06 1.08513450e-05
      4.85690634e-06 0. 0. 0. 0. 0. 0. 0. 0. 0. 0. 0. 0. 0. 0. 0. 0. 0.
      0. 0. 0. 0. 0. 0. 0. 0. 0. 1.29090195e-05 1.33599897e-05
      1.81079140e-05 2.39765504e-05 4.26007355e-05 3.27981215e-05
      3.80246202e-05 2.92388340e-05 2.64548726e-05 1.87664534e-06 0. 0.
      0. 0. 0. 0. 0. 0. -3.14724207e-06 -3.43014017e-06 -3.65999495e-06
      -8.70376880e-06 -8.69366158e-06 -2.26230677e-05 -6.40088319e-06
      -4.91512446e-06 -2.36977621e-06 -1.58011680e-05 -4.11983638e-06
      -1.10904166e-05 -1.72652253e-05 -1.70645308e-05 -9.28094869e-06
      1.65499187e-05 1.17222435e-05 1.18863445e-05 1.16843403e-05
      4.57472197e-06 0. 0. 0. 0. 0. 0. 0. 0. 0. 0. 0. 0. 0. 0. 0. 0. 0.
      0. 0. 0. 0. 0. 0. 0. 0. 0. 1.30781336e-05 1.34163611e-05
      1.84655291e-05 2.40748232e-05 3.92048751e-05 3.49760739e-05
      3.98818484e-05 2.98248269e-05 2.68545573e-05 9.83004725e-07 0. 0.
      0. 0. 0. 0. 0. -3.50086475e-06 -3.58927036e-06 -3.94289327e-06
      -4.77006733e-06 -8.75681235e-06 -1.46290713e-05 -3.20267645e-05
      -4.99478301e-06 -3.55122938e-06 -1.14414761e-05 -1.85117660e-05
      -2.99084672e-06 -1.26112218e-05 -1.73814151e-05 -7.48193770e-06
      1.27623389e-05 2.05797460e-05 1.16945930e-05 1.02924187e-05
      9.73456099e-06 2.82033830e-06 0. 0. 0. 0. 0. 0. 0. 0. 0. 0. 0. 0.
      0. 0. 0. 0. 0. 0. 0. 0. 0. 0. 0. 0. 0. 0. 1.20070790e-05
      1.34727325e-05 1.82982076e-05 2.40874797e-05 2.89204436e-05
      3.50087357e-05 4.03701088e-05 2.70772834e-05 2.59286408e-05
      1.19152084e-07 0. 0. 0. 0. 0. 0. -3.96057430e-06 -4.01361785e-06
      -3.92521224e-06 -5.36864081e-06 -8.98792041e-06 -1.50129354e-05
      -3.28808601e-05 -6.73315208e-06 -7.40839323e-06 -1.09486962e-06
      -1.43331908e-05 -3.87267437e-06 -6.89654826e-06 -1.32669393e-05
      -7.50795152e-06 -4.33953255e-06 1.29820710e-05 2.14551419e-05
      1.04591927e-05 1.20358191e-05 8.70500389e-06 2.22073879e-08 0. 0.
      0. 0. 0. 0. 0. 0. 0. 0. 0. 0. 0. 0. 0. 0. 0. 0. 0. 0. 0. 0. 0. 0.
      0. 0. 1.20634504e-05 1.35291039e-05 1.79000890e-05 2.39102337e-05
      2.80996373e-05 3.57130775e-05 3.94623457e-05 2.93774137e-05
      2.48637352e-05 0. 0. 0. 0. 0. 0. -3.96057430e-06 -4.22579114e-06
      -4.10202347e-06 -4.11970450e-06 -1.85071258e-05 -1.98731541e-05
      -3.28715105e-05 -1.35132741e-05 -6.56507791e-06 -9.41271901e-06
      -1.39350823e-05 -1.88182858e-05 -4.00454337e-06 -2.45204064e-05
      -2.37916174e-06 -7.82705865e-06 1.17252230e-05 1.51120903e-05
      2.08300444e-05 1.22221281e-05 1.19984506e-05 5.18457455e-06 0. 0.
      0. 0. 0. 0. 0. 0. 0. 0. 0. 0. 0. 0. 0. 0. 0. 0. 0. 0. 0. 0. 0. 0.
      0. 0. 9.30125861e-06 1.21761932e-05 1.34163611e-05 1.79459039e-05
      2.38905395e-05 2.63508009e-05 3.55729608e-05 3.88550579e-05
      2.76224091e-05 2.69526299e-05 2.19271624e-05 0. 0. 0. 0.
      -3.88984972e-06 -4.20811011e-06 -4.24347263e-06 -1.29065638e-05
      -1.87549977e-05 -2.82016390e-05 -3.05458088e-05 -1.15841540e-05
      -6.84913402e-06 -9.24207143e-06 -1.46904376e-05 -1.55649213e-05
      -4.68108010e-06 -1.03402954e-05 -1.27743815e-05 -5.66595918e-06
      1.23453074e-05 1.22380288e-05 1.96301444e-05 2.07601170e-05
      1.04646351e-05 1.02420263e-05 4.82007226e-06 0. 0. 0. 0. 0. 0. 0.
      0. 0. 0. 0. 0. 0. 0. 0. 0. 0. 0. 0. 0. 0. 0. 0. 0. 0. 0.
      9.41400140e-06 1.22889360e-05 1.34163611e-05 1.78366809e-05
      2.38923531e-05 1.17432919e-05 3.74926713e-05 4.08491069e-05
      2.74026952e-05 2.42344559e-05 1.92089192e-05 0. 0. 0.
      -3.96057430e-06 -9.94148468e-06 -1.32138011e-05 -1.38694213e-05
      -1.93803226e-05 -3.37724050e-05 -3.34991710e-05 -1.02850254e-05
      -7.59489467e-06 -8.27479835e-06 -2.00887807e-05 -1.40574330e-05
      -1.22911861e-05 7.86932651e-06 -1.34541133e-05 -1.20244731e-05
      -2.27198279e-06 1.20932391e-05 1.58093862e-05 2.21763221e-05
      1.82463991e-05 1.16106721e-05 8.47534920e-06 4.13057433e-06 0. 0.
      0. 0. 0. 0. 0. 0. 0. 0. 0. 0. 0. 0. 0. 0. 0. 0. 0. 0. 0. 0. 0. 0.
      0. 0. 9.52674418e-06 1.24016788e-05 1.33599897e-05 1.77503643e-05
      2.38275443e-05 1.19622164e-05 1.93722062e-05 3.77985889e-05
      2.72684792e-05 2.49345085e-05 2.13835137e-05 2.16553381e-05 0.
      -1.37381221e-05 -1.38534861e-05 -1.35740811e-05 -2.41044072e-05
      -3.29763316e-05 -3.40089609e-05 -3.43104512e-05 -8.74167745e-06
      -6.27395639e-06 -8.68401094e-06 -2.15226937e-05 -2.11773695e-05
      -2.43450495e-06 6.32710953e-06 -1.36481967e-05 -1.37493498e-05
      -1.40855427e-05 3.59079195e-06 1.76274007e-05 1.99793740e-05
      2.40479312e-05 1.97463978e-05 8.71418797e-06 5.40718293e-06
      7.32843773e-07 0. 0. 0. 0. 0. 0. 0. 0. 0. 0. 0. 0. 0. 0. 0. 0. 0.
      0. 0. 0. 0. 0. 0. 0. 0. 0. 9.47037279e-06 1.25707920e-05
      1.48856625e-05 1.77961774e-05 2.42384049e-05 1.33955127e-05
      1.84707133e-05 3.43310021e-05 3.29621435e-05 2.21890350e-05
      2.18365549e-05 3.11668441e-06 -9.48256869e-08 -1.78671507e-05
      -2.74068279e-05 -2.79479245e-05 -3.34867109e-05 -3.38302743e-05
      -1.16546635e-05 -7.66968788e-06 -7.90398281e-06 -8.99562110e-06
      -2.36127398e-05 -1.08678814e-05 3.13578039e-06 6.94711662e-06
      -1.43844527e-05 -1.38022024e-05 -1.37617517e-05 7.99787358e-06
      6.00908606e-06 1.78455321e-05 2.34784275e-05 2.43738741e-05
      1.74679008e-05 6.54777750e-06 4.93004018e-06 0. 0. 0. 0. 0. 0. 0.
      0. 0. 0. 0. 0. 0. 0. 0. 0. 0. 0. 0. 0. 0. 0. 0. 0. 0. 0. 0.
      9.35763001e-06 1.24580492e-05 1.48821437e-05 1.78719365e-05
      2.47667485e-05 1.29549844e-05 7.39658890e-06 -1.82859719e-06
      1.33763388e-05 -3.33897970e-06 -3.44100204e-06 -5.49583456e-06
      -6.17363594e-06 -6.95112521e-06 -5.35408117e-06 -1.15359153e-05
      -1.15451485e-05 -1.09179155e-05 -1.02075583e-05 -9.12850828e-06
      -9.25995028e-06 -1.52071671e-05 -1.24201288e-05 2.17994398e-06
      6.84671568e-06 -1.37147008e-05 -1.31233483e-05 -1.18752241e-05
      1.27245530e-05 1.17309182e-05 6.00719613e-06 2.13092499e-05
      2.34330455e-05 2.09722693e-05 1.34831680e-05 4.90783259e-06
      4.37485551e-06 0. 0. 0. 0. 0. 0. 0. 0. 0. 0. 0. 0. 0. 0. 0. 0. 0.
      0. 0. 0. 0. 0. 0. 0. 0. 0. 0. 9.07577396e-06 1.24016788e-05
      1.74948036e-05 1.77591937e-05 2.12659415e-05 4.95556242e-06
      -7.75977605e-06 -1.14810764e-05 9.37636742e-06 -2.48272300e-08
      -8.04838328e-06 -7.07988602e-06 -6.60016485e-06 -7.66739140e-06
      -1.02317235e-05 -1.21199255e-05 -1.18931603e-05 -9.31680279e-06
      3.54143549e-06 -1.55997222e-05 -1.62403867e-05 -6.89962826e-06
      2.19350272e-06 3.01569094e-06 -1.36618482e-05 -1.45415552e-05
      -1.04144228e-05 1.36177241e-05 1.31415854e-05 7.56615736e-06
      1.18040289e-05 2.41632224e-05 1.96624587e-05 1.79852468e-05
      9.53539347e-06 4.75238085e-06 0. 0. 0. 0. 0. 0. 0. 0. 0. 0. 0. 0.
      0. 0. 0. 0. 0. 0. 0. 0. 0. 0. 0. 0. 0. 0. 0. 0. 8.34294678e-06
      2.69223165e-06 6.69401788e-06 7.09879259e-06 9.90929584e-06
      4.02069873e-06 -4.54201836e-06 -1.10413257e-05 -1.57276827e-05
      -3.45736316e-06 -6.72867282e-06 -6.75296769e-06 -6.69261635e-06
      -1.15351932e-05 -1.26257000e-05 -1.09345510e-05 2.14260012e-06
      -1.44661981e-05 -1.64357116e-05 -2.96076837e-06 2.44498892e-06
      7.77669584e-07 -1.59417675e-06 -1.32460045e-05 -1.12857797e-05
      -7.17931789e-06 1.30916251e-05 1.03347875e-05 5.36703647e-06
      1.11594782e-05 1.15835564e-05 1.93701035e-05 1.72641321e-05
      1.67372527e-05 1.08848926e-05 4.15278146e-06 0. 0. 0. 0. 0. 0. 0.
      0. 0. 0. 0. 0. 0. 0. 0. 0. 0. 0. 0. 0. 0. 0. 0. 0. 0. 0. 0. 0.
      8.00471935e-06 2.88655542e-06 7.24685469e-06 7.47221338e-06
      8.52259836e-06 4.21071172e-06 -5.12304405e-06 -1.57543727e-05
      -2.20525471e-05 -2.31505037e-05 -1.84037672e-05 -5.07572850e-06
      -1.32784280e-05 -1.22622114e-05 -1.73228018e-05 -1.67344770e-05
      -6.99672319e-06 -3.06747711e-06 -2.37785434e-06 3.58525710e-07
      1.35769176e-06 -2.00350787e-05 -1.33728654e-05 -7.15053102e-06
      -8.42198733e-06 1.31670722e-05 1.36177241e-05 1.75035275e-05
      1.21408793e-05 7.25564360e-06 4.87153329e-06 1.68944098e-05
      1.74956986e-05 1.74154138e-05 1.33293415e-05 0. 0. 0. 0. 0. 0. 0.
      0. 0. 0. 0. 0. 0. 0. 0. 0. 0. 0. 0. 0. 0. 0. 0. 0. 0. 0. 0. 0. 0.
      8.00471935e-06 2.94292681e-06 4.87714806e-06 6.90837214e-06
      8.37869447e-06 -1.60935804e-06 -8.85067038e-06 -1.51785844e-05
      -1.84349537e-05 -2.43684590e-05 -2.61524274e-05 -1.94308632e-05
      -3.15381367e-05 -1.48338240e-05 -1.53213259e-05 -1.77641014e-05
      -1.84467372e-05 -2.04005437e-06 -1.73507324e-05 -2.05380511e-05
      -2.02865649e-05 -1.94039949e-05 -9.26616940e-06 1.66115478e-05
      1.83754582e-05 1.72468481e-05 1.71752217e-05 7.65751520e-06
      5.10386008e-06 4.81900315e-06 8.94606183e-06 1.70669355e-05
      1.85957997e-05 1.71779375e-05 1.33599897e-05 0. 0. 0. 0. 0. 0. 0.
      0. 0. 0. 0. 0. 0. 0. 0. 0. 0. 0. 0. 0. 0. 0. 0. 0. 0. 0. 0. 0. 0.
      8.23020491e-06 1.14454751e-05 3.23003133e-06 5.61535035e-06
      8.22570473e-06 -2.61022819e-06 -1.27809653e-05 -1.39956273e-05
      -1.52545626e-05 -2.35784737e-05 -4.64568438e-05 -4.69055267e-05
      -3.43179563e-05 -3.38407808e-05 -3.37611673e-05 -3.24982211e-05
      -3.03375909e-05 -2.86804134e-05 -2.89318996e-05 -2.70698802e-05
      -1.56495917e-05 -5.28151941e-06 1.76001122e-05 1.83797656e-05
      1.73615954e-05 1.38086334e-05 1.23121017e-05 5.08656103e-06
      4.61913669e-06 4.86341787e-06 8.34989078e-06 1.82114509e-05
      1.60556283e-05 1.36982171e-05 1.33599897e-05 0. 0. 0. 0. 0. 0. 0.
      0. 0. 0. 0. 0. 0. 0. 0. 0. 0. 0. 0. 0. 0. 0. 0. 0. 0. 0. 0. 0. 0.
      0. 1.17252230e-05 2.01052808e-06 6.37786616e-06 9.21019000e-06
      -1.12904797e-06 4.99015073e-07 -3.68707305e-07 -1.83655302e-05
      -4.57389506e-05 -4.38737952e-05 -4.59111216e-05 -4.25110775e-05
      -4.26938277e-05 -4.45516343e-05 -3.98574412e-05 -3.74488736e-05
      -3.62350002e-05 -2.87428520e-05 -2.82170167e-05 2.48243646e-06
      4.25965163e-06 4.28779322e-06 4.12557984e-06 -1.70514213e-07
      -2.45526394e-06 -8.93343804e-06 -8.53249730e-06 -9.59966019e-06
      -8.97157679e-06 4.87412672e-06 -4.78399841e-07 -3.63371981e-07
      -1.26531222e-06 -6.40657618e-07 -1.34323645e-05 -1.35496775e-05
      -8.32923888e-06 -7.62535933e-07 0. 0. 0. 0. 0. 0. 0. 0. 0. 0. 0.
      0. 0. 0. 0. 0. 0. 0. 0. 0. 0. 0. 0. 0. 0. 0. 1.36418457e-05
      2.25981762e-06 8.50410743e-06 9.27660676e-06 -1.41815872e-06
      -9.18379737e-06 -2.34117542e-05 -2.59175140e-05 -2.86328741e-05
      -2.82718702e-05 -4.85019518e-05 -4.59983494e-05 -4.65996673e-05
      -4.28812018e-05 -4.07345760e-05 -4.22587545e-05 -2.56730491e-05
      -1.72743748e-05 -1.60305026e-05 -1.14284549e-05 -9.61881778e-06
      -7.34347987e-06 -1.14520908e-05 -1.62501146e-05 -1.68900769e-05
      -2.12361992e-05 -1.90741357e-05 -1.87056157e-05 -2.04807420e-05
      -6.46095395e-06 -8.07505603e-06 -2.73448535e-08 1.04438664e-06
      1.88309957e-06 -1.24938579e-05 -1.23765449e-05 -8.73983481e-06
      -3.75402306e-06 0. 0. 0. 0. 0. 0. 0. 0. 0. 0. 0. 0. 0. 0. 0. 0. 0.
      0. 0. 0. 0. 0. 0. 0. 0. 0. 1.35854752e-05 1.13869955e-05
      1.25144206e-05 1.71412194e-05 -1.27618532e-05 -1.11279678e-05
      -1.15222037e-05 -2.53248636e-05 -2.37173554e-05 -2.86348932e-05
      -2.47186490e-05 -2.61030436e-05 -2.25220047e-05 -3.51864146e-05
      -1.53267993e-05 -1.26296973e-05 -8.52212816e-06 -7.29106296e-06
      -8.16539068e-06 -1.08785798e-05 -9.03370346e-06 -1.21646426e-05
      -1.62373344e-05 -1.55808120e-05 -2.15250511e-05 -2.37790282e-05
      -2.68768108e-05 -2.70876299e-05 -2.72497218e-05 -1.32878349e-05
      -1.45572476e-05 -1.55093057e-05 -1.49391362e-05 -1.42841955e-05
      -2.59701937e-05 -2.32946986e-05 -1.89066777e-05 -1.40670554e-05
      -1.03725943e-05 -6.56493285e-07 0. 0. 0. 0. 0. 0. 0. 0. 0. 0. 0.
      0. 0. 0. 0. 0. 0. 0. 0. 0. 0. 0. 0. 0. 0. 1.40928159e-05
      1.23829814e-05 -8.19589877e-06 -5.67543429e-06 -1.67911048e-06
      -3.73476496e-06 -1.19985771e-05 -1.36441622e-05 -2.57994543e-05
      -2.97928746e-05 -2.16442513e-05 2.63635854e-07 -6.72969975e-07
      -2.57806664e-06 -5.01419163e-06 -1.21383000e-05 -1.48420550e-05
      -1.57315280e-05 -1.39633785e-05 -1.73011267e-05 -2.05378437e-05
      -2.06927361e-05 -2.86792474e-05 -2.93179837e-05 -2.90370263e-05
      -2.80563545e-05 -2.87944204e-05 -1.81837513e-05 -1.73076787e-05
      -1.85920708e-05 -1.84892779e-05 -1.82766598e-05 -1.70154199e-05
      -2.64972477e-05 -2.48220604e-05 -1.91273193e-05 -1.36293938e-05
      -1.04163601e-05 -1.04601268e-05 -1.05476593e-05 -1.08102558e-05
      -3.89519346e-06 0. 0. 0. 0. 0. 0. 0. 0. 0. 0. 0. 0. 0. 0. 0. 0. 0.
      0. 0. 0. 0. 0. -2.66204347e-06 9.26249595e-06 -1.03285647e-05
      -1.21596686e-05 -5.74529486e-06 -4.61175523e-06 -2.46576604e-07
      -4.50069865e-06 -4.03574586e-06 5.92098388e-07 -2.47466887e-05
      -2.12186278e-05 -2.66294264e-05 -2.65522922e-05 -2.84216603e-05
      -2.50937173e-05 -2.41733142e-05 -2.64599821e-05 -2.70009368e-05
      -3.01831478e-05 -3.98611337e-05 -4.38430652e-05 -4.95425120e-05
      -4.95265813e-05 -5.04362506e-05 -5.08486846e-05 -3.71394344e-05
      -3.74673873e-05 -3.88439694e-05 -3.93620030e-05 -3.73204166e-05
      -2.49084314e-05 -3.24092653e-05 -2.92751993e-05 -2.62429839e-05
      -1.95126595e-05 -1.40995517e-05 -1.02850618e-05 -9.49726928e-06
      -9.45350348e-06 -1.00224643e-05 -9.80363347e-06 -6.91506284e-06
      -2.27584337e-06 0. 0. 0. 0. 0. 0. 0. 0. 0. 0. 0. 0. 0. 0. 0. 0. 0.
      0. 0. -4.72298052e-06 -4.61563968e-06 -4.63710785e-06
      -9.50199865e-06 -1.09023786e-05 -1.33177700e-05 -1.44564692e-05
      -6.33156606e-06 -2.70974147e-06 1.63422624e-06 -2.71517735e-07
      -2.33411447e-06 -9.61184355e-07 -1.05672086e-07 -8.02469549e-06
      -1.20424556e-05 -1.31080706e-05 -1.55506059e-05 -1.93814722e-05
      -2.18804325e-05 -3.06177317e-05 -3.61985658e-05 -3.61268358e-05
      -3.60589038e-05 -3.65565174e-05 -3.01881082e-05 -2.33537012e-05
      -2.29015186e-05 -2.19582071e-05 -2.30236346e-05 -2.41664038e-05
      -2.47591615e-05 -2.19543235e-05 -3.56133532e-05 -3.39332291e-05
      -3.15830875e-05 -2.96235830e-05 -3.00575430e-05 -2.66532170e-05
      -1.89958464e-05 -9.97869847e-06 -1.03288276e-05 -9.32220428e-06
      -5.55831002e-06 -1.66311634e-06 0. 0. 0. 0. 0. 0. 0. 0. 0. 0. 0.
      0. 0. 0. 0. 0. 0. 0. 0. -4.91619312e-06 -5.10940617e-06
      -5.21674656e-06 -5.43142733e-06 -1.16211822e-05 -9.24905635e-06
      -1.21665034e-05 -1.06054649e-05 -1.14377635e-05 -7.96689619e-06
      -5.65431537e-06 -3.40956626e-06 -5.09987967e-06 8.50697120e-07
      -8.60167916e-07 1.73144727e-07 -2.77083768e-06 -3.92267339e-06
      -8.94694585e-06 -9.40999416e-06 -8.81194319e-06 -9.26993562e-06
      -9.65023082e-06 -1.03043485e-05 -1.08771274e-05 -1.04169503e-05
      -1.36372864e-05 -1.42943700e-05 -1.55637481e-05 -1.48918198e-05
      -1.40719467e-05 -1.91247145e-05 -3.41601080e-05 -3.77443394e-05
      -3.38023638e-05 -2.92670920e-05 -2.76413230e-05 -2.77503987e-05
      -2.55493069e-05 -1.73586559e-05 -9.84739927e-06 -8.49064691e-06
      -8.44688020e-06 -4.42038800e-06 -5.25194650e-07 0. 0. 0. 0. 0. 0.
      0. 0. 0. 0. 0. 0. 0. 0. 0. 0. 0. 0. 0. -4.68004419e-06
      -5.15234206e-06 -4.78738457e-06 -5.40995916e-06 -5.45289549e-06
      -1.00338357e-05 -1.77054735e-05 -9.53326071e-06 -1.21040021e-05
      -1.25015131e-05 -1.23414657e-05 -1.19905308e-05 -1.28409147e-05
      -1.19699316e-05 -1.21067733e-05 -1.27140092e-05 -1.14323611e-05
      -1.08474624e-05 -9.49466903e-06 -8.63345667e-06 -9.89469299e-06
      -1.12000180e-05 -1.17345353e-05 -1.17768841e-05 -1.09402172e-05
      -1.13872411e-05 -1.13159786e-05 -1.31029246e-05 -1.25340912e-05
      -1.04647024e-05 -9.75026705e-06 -2.18986734e-05 -2.27369619e-05
      -2.30078713e-05 -1.94226795e-05 -1.75682489e-05 -1.64304402e-05
      -1.66819264e-05 -1.39994063e-05 -1.77458223e-05 -1.04163601e-05
      -1.01537626e-05 -7.30895863e-06 -3.06363540e-06 0. 0. 0. 0. 0. 0.
      0. 0. 0. 0. 0. 0. 0. 0. 0. 0. 0. 0. 0. 0. -4.72298052e-06
      -4.61563968e-06 -4.93766129e-06 -5.45289549e-06 -4.63710785e-06
      -4.55123563e-06 -4.59417151e-06 -4.68004419e-06 4.25888811e-06
      -2.18115474e-06 -3.74219235e-06 -7.67855181e-06 -5.50008372e-06
      -5.72556883e-06 -5.64378388e-06 -6.69132623e-06 -5.94243375e-06
      -5.52972506e-06 -5.81874565e-06 -5.76646153e-06 -1.29849432e-05
      -8.83737266e-06 -8.97611699e-06 -9.25797303e-06 -1.01888272e-05
      -9.62511422e-06 -9.56874283e-06 -9.00503073e-06 -8.61043191e-06
      -1.10054825e-05 -2.12086816e-05 -2.07057092e-05 -1.82746735e-05
      -1.59274678e-05 -1.62627839e-05 -1.78555292e-05 -1.79393592e-05
      -1.73525568e-05 -1.32449468e-05 -7.29310386e-06 0. 0. 0. 0. 0. 0.
      0. 0. 0. 0. 0. 0. 0. 0. 0. 0. 0. 0. 0. 0. 0. 0. 0. 0. 0.
      -2.74791591e-06 -4.91619312e-06 -4.91619312e-06 -4.70151235e-06
      -4.70151235e-06 -4.65857602e-06 -4.65857602e-06 -4.78738457e-06
      -4.59417151e-06 7.22583025e-07 1.32472469e-05 1.40364446e-05
      1.38673313e-05 1.05977979e-05 1.13869955e-05 1.25707920e-05
      1.25144206e-05 1.21198218e-05 1.09360253e-05 1.07105407e-05
      1.08796539e-05 1.13306241e-05 1.11051395e-05 1.18379658e-05
      1.22889360e-05 1.23453074e-05 1.35854752e-05 0. 0. 0. 0.
      -5.44887052e-06 -1.07300839e-05 -2.02027350e-05 -1.89453040e-05
      -1.86938178e-05 -1.87776459e-05 -1.60112977e-05 -8.55053531e-06 0.
      0. 0. 0. 0. 0. 0. 0. 0. 0. 0. 0. 0. 0. 0. 0. 0. 0. 0. 0. 0. 0. 0.
      0. 0. 0. 0. 0. 0. 0. 0. 0. 0. 0. 0. 0. 0. 0. 1.22889360e-05
      1.31908764e-05 1.16688516e-05 1.12742528e-05 1.15561097e-05
      1.26835348e-05 1.32472469e-05 1.33599897e-05 1.30217622e-05
      1.34163611e-05 1.38109599e-05 7.83560608e-06 0. 0. 0. 0. 0. 0. 0.
      0. 0. 0. 0. 0. 0. 0. 0. 0. 0. 0. 0. 0. 0. 0. 0. 0. 0. 0. 0. 0. 0.
      0. 0. 0. 0. 0. 0. 0. 0. 0. 0. 0. 0. 0. 0. 0. 0. 0. 0. 0. 0. 0. 0.
      0. 0. 0. 0. 0. 0. 0. 0. 0. 0. 0. 0. 0. 0. 0. 0. 0. 0. 0. 0. 0. 0.
      0. 0. 0. 0. 0. 0. 0. 0. 0. 0. 0. 0. 0. 0. 0. 0. 0. 0. 0. 0. 0. 0.
      0. 0. 0. 0. 0. 0. 0. 0. 0. 0. 0. 0. 0. 0. 0. 0. 0. 0. 0. 0. 0. 0.
      0. 0. 0. 0. 0. 0. 0. 0. 0. 0. 0. 0. 0. 0. 0. 0. 0. 0. 0. 0. 0. 0.
      0. 0. 0. 0. 0. 0. 0. 0. 0. 0. 0. 0. 0. 0. 0. 0. 0. 0. 0. 0. 0. 0.
      0. 0. 0. 0. 0. 0. 0. 0. 0. 0. 0. 0. 0. 0. 0. 0. 0. 0. 0. 0. 0. 0.
      0. 0. 0. 0. 0. 0. 0. 0. 0. 0. 0. 0. 0. 0. 0. 0. 0. 0. 0. 0. 0. 0.
      0. 0. 0. 0. 0. 0. 0. 0. 0. 0. 0. 0. 0. 0. 0. 0. 0. 0. 0. 0. 0. 0.
      0. 0. 0. 0. 0. 0. 0. 0. 0. 0. 0. 0. 0. 0. 0. 0. 0. 0. 0. 0. 0. 0.
      0. 0. 0. 0. 0. 0. 0. 0. 0. 0. 0. 0. 0. 0. 0. 0. 0. 0. 0. 0. 0. 0.
      0. 0. 0. 0. 0. 0. 0. 0. 0. 0. 0. 0. 0. 0. 0. 0. 0. 0. 0. 0. 0. 0.
      0. 0. 0. 0. 0. 0. 0. 0. 0. 0. 0. 0. 0. 0. 0. 0. 0. 0. 0. 0. 0. 0.
      0. 0. 0. 0. 0. 0. 0. 0. 0. 0. 0. 0. 0. 0. 0. 0. 0. 0. 0. 0. 0. 0.
      0. 0. 0. 0. 0. 0. 0. 0. 0. 0. 0. 0. 0. 0. 0. 0. 0. 0. 0. 0. 0. 0.
      0. 0. 0. 0. 0. 0. 0. 0. 0. 0. 0. 0. 0. 0. 0. 0. 0. 0. 0. 0. 0. 0.
      0. 0. 0. 0. 0. 0. 0. 0. 0. 0. 0. 0. 0. 0. 0. 0. 0. 0. 0. 0. 0. 0.
      0. 0. 0. 0. 0. 0. 0. 0. 0.</_>
    <_>
      0. 0. 0. 0. 0. 0. 0. 0. 0. 0. 0. 0. 0. 0. 0. 0. 0. 0. 0. 0. 0. 0.
      0. 0. 0. 0. 0. 0. 0. 0. 0. 0. 0. 0. 0. 0. 0. 0. 0. 0. 0. 0. 0. 0.
      0. 0. 0. 0. 0. 0. 0. 0. 0. 0. 0. 0. 0. 0. 0. 0. 0. 0. 0. 0. 0. 0.
      0. 0. 0. 0. 0. 0. 0. 0. 0. 0. 0. 0. 0. 0. 0. 0. 0. 0. 0. 0. 0. 0.
      0. 0. 0. 0. 0. 0. 0. 0. 0. 0. 0. 0. 0. 0. 0. 0. 0. 0. 0. 0. 0. 0.
      0. 0. 0. 0. 0. 0. 0. 0. 0. 0. 0. 0. 0. 0. 0. 0. 0. 0. 0. 0. 0. 0.
      0. 0. 0. 0. 0. 0. 0. 0. 0. 0. 0. 0. 0. 0. 0. 0. 0. 0. 0. 0. 0. 0.
      0. 0. 0. 0. 0. 0. 0. 0. 0. 0. 0. 0. 0. 0. 0. 0. 0. 0. 0. 0. 0. 0.
      0. 0. 0. 0. 0. 0. 0. 0. 0. 0. 0. 0. 0. 0. 0. 0. 0. 0. 0. 0. 0. 0.
      0. 0. 0. 0. 0. 0. 0. 0. 0. 0. 0. 0. 0. 0. 0. -1.25473480e-06
      -6.78697461e-06 -9.46754426e-06 -1.03800785e-05 -9.80974437e-06
      -1.09504126e-05 -1.16918463e-05 -1.18059133e-05 -1.12355792e-05
      -8.61204353e-06 -2.39540282e-06 0. 0. 0. 0. 0. 0. 0. 0. 0. 0. 0.
      0. 0. 0. 0. 0. 0. 0. 0. 0. 0. 0. 0. 0. 0. 0. 0. 0. 0. 0. 0. 0. 0.
      0. 0. 0. 0. 0. 0. 0. 0. 0. 0. 0. 0. 0. 0. 0. 0. 0. 0.
      -9.18237765e-06 -1.20340474e-05 -1.30036151e-05 -1.24332810e-05
      -1.24903145e-05 -1.24903145e-05 -1.22621805e-05 -1.22051470e-05
      -1.22621805e-05 -1.23762475e-05 -1.21481144e-05 -1.24332810e-05
      -1.20340474e-05 -1.22051470e-05 -1.24903145e-05 -1.31747156e-05
      -4.39157157e-06 0. 0. 0. 0. 0. 0. 0. 0. 0. 0. 0. 0. 0. 0. 0. 0. 0.
      0. 0. 0. 0. 0. 0. 0. 0. 0. 0. 0. 0. 0. 0. 0. 0. 0. 0. 0. 0. 0. 0.
      0. 0. 0. 0. 0. 0. -6.84400766e-06 -1.22621805e-05 -1.26043815e-05
      -1.28895481e-05 -1.18059133e-05 -1.19770139e-05 -1.19199804e-05
      -1.19199804e-05 -1.19770139e-05 -1.20910809e-05 -1.22051470e-05
      -1.23192140e-05 -1.20910809e-05 -1.24332810e-05 -1.28895481e-05
      -1.24332810e-05 -1.17488798e-05 -1.18059133e-05 -1.28325146e-05
      -1.23762475e-05 -1.20910809e-05 0. 0. 0. 0. 0. 0. 0. 0. 0. 0. 0.
      0. 0. 0. 0. 0. 0. 0. 0. 0. 0. 0. 0. 0. 0. 0. 0. 0. 0. 0. 0. 0. 0.
      0. 0. 0. 0. 0. 0. 0. 0. 0. -1.26043815e-05 -1.24332810e-05
      -1.20910809e-05 -1.25473480e-05 -1.23762475e-05 -1.08933791e-05
      -1.13496462e-05 -1.10074461e-05 -1.04941455e-05 -1.02089780e-05
      -1.10074461e-05 -1.13496462e-05 -1.11785466e-05 -1.13496462e-05
      -1.26754767e-05 -1.33050644e-05 -2.41650014e-05 -2.45109022e-05
      -2.22007020e-05 -1.18629468e-05 -1.19199804e-05 -1.24903145e-05
      -1.24332810e-05 0. 0. 0. 0. 0. 0. 0. 0. 0. 0. 0. 0. 0. 0. 0. 0. 0.
      0. 0. 0. 0. 0. 0. 0. 0. 0. 0. 0. 0. 0. 0. 0. 0. 0. 0. 0. 0. 0. 0.
      0. -1.21481144e-05 -1.22051470e-05 -1.23192140e-05 -1.20910809e-05
      -1.15207467e-05 -1.21481144e-05 -1.13496462e-05 -1.08579525e-05
      -1.33194308e-05 -1.61665739e-05 -1.77939073e-05 -2.04890202e-05
      -3.01155869e-05 -2.92719033e-05 -2.34352938e-05 -2.37168751e-05
      -2.47419957e-05 -2.37709482e-05 -2.44538696e-05 -2.58240852e-05
      -3.22086053e-05 -3.57524405e-05 -3.36090197e-05 -2.36958094e-05
      -2.04140852e-05 0. 0. 0. 0. 0. 0. 0. 0. 0. 0. 0. 0. 0. 0. 0. 0. 0.
      0. 0. 0. 0. 0. 0. 0. 0. 0. 0. 0. 0. 0. 0. 0. 0. 0. 0. 0. 0. 0.
      -1.22051470e-05 -1.21481144e-05 -1.20340474e-05 -1.16348137e-05
      -1.10644796e-05 -1.21410785e-05 -1.46560669e-05 -1.03366019e-05
      -7.95602227e-06 -7.77763580e-06 -1.78302253e-05 -1.96331675e-05
      -1.99662281e-05 -1.97487152e-05 -2.11452079e-05 -2.74600570e-05
      -2.45621868e-05 -1.67860890e-05 -2.21996379e-05 -3.39344042e-05
      -3.40089282e-05 -3.55937264e-05 -3.53636824e-05 -3.73799885e-05
      -2.80201693e-05 -2.38430111e-05 -1.51747099e-05 -1.15399880e-05 0.
      0. 0. 0. 0. 0. 0. 0. 0. 0. 0. 0. 0. 0. 0. 0. 0. 0. 0. 0. 0. 0. 0.
      0. 0. 0. 0. 0. 0. 0. 0. 0. 0. 0. 0. -2.85166993e-06
      -1.20340474e-05 -1.20910809e-05 -1.14637132e-05 -1.18059133e-05
      -1.82717813e-05 -8.08415916e-06 -8.02737668e-06 -8.09366520e-06
      -1.97487152e-05 -2.05626093e-05 -2.03400305e-05 -3.06510192e-05
      -3.14458666e-05 -3.12523516e-05 -3.09198222e-05 -2.20877919e-05
      -1.72902382e-05 -1.84475484e-05 -1.85963618e-05 -1.90914507e-05
      -2.60718880e-05 -3.00961419e-05 -3.47043169e-05 -3.44738728e-05
      -1.86156176e-05 -2.37534077e-05 -2.44711537e-05 -1.20186050e-05
      -1.03700349e-05 0. 0. 0. 0. 0. 0. 0. 0. 0. 0. 0. 0. 0. 0. 0. 0. 0.
      0. 0. 0. 0. 0. 0. 0. 0. 0. 0. 0. 0. 0. 0. 0. 0. 0. -8.49797652e-06
      -1.22621805e-05 -1.15207467e-05 -1.19199804e-05 -1.68389106e-05
      -7.63492699e-06 -7.67060374e-06 -1.92814605e-05 -2.03586769e-05
      -2.14237025e-05 -3.04889909e-05 -3.09903771e-05 -3.12698539e-05
      -3.06253605e-05 -2.93846824e-05 -2.11902116e-05 -1.69305931e-05
      -1.76068315e-05 -1.35989012e-05 -1.64281118e-05 -1.74596844e-05
      -1.87185833e-05 -2.85667193e-05 -3.77260258e-05 -2.26118827e-05
      -1.47830733e-05 -1.26429659e-05 -1.69733030e-05 -1.11677300e-05
      -1.15399880e-05 0. 0. 0. 0. 0. 0. 0. 0. 0. 0. 0. 0. 0. 0. 0. 0. 0.
      0. 0. 0. 0. 0. 0. 0. 0. 0. 0. 0. 0. 0. 0. 0. 0. 0. -6.61587410e-06
      -1.18629468e-05 -1.15207467e-05 -1.21717276e-05 -7.70628139e-06
      -7.47863714e-06 -1.96909423e-05 -2.00740196e-05 -3.13410092e-05
      -3.07496230e-05 -2.97260576e-05 -3.00247848e-05 -3.00029606e-05
      -2.94810416e-05 -2.40400459e-05 -1.91646905e-05 -9.85949646e-06
      9.77749664e-07 -4.85653402e-07 -6.62211778e-06 -5.86882879e-06
      -9.27835845e-06 -2.78748848e-05 -3.23203531e-05 -2.51206839e-05
      -1.16320907e-05 -1.42599820e-05 -1.61594180e-05 -1.28972279e-05
      -1.13804490e-05 0. 0. 0. 0. 0. 0. 0. 0. 0. 0. 0. 0. 0. 0. 0. 0. 0.
      0. 0. 0. 0. 0. 0. 0. 0. 0. 0. 0. 0. 0. 0. 0. 0. 0. -1.04941455e-05
      -1.20910809e-05 -1.08363456e-05 -1.32586229e-05 -7.56357258e-06
      -2.01446146e-05 -3.05542490e-05 -3.11450494e-05 -2.81610537e-05
      -2.48150372e-05 -2.28471636e-05 -2.25097119e-05 -2.21814462e-05
      -1.07383321e-05 -1.60446371e-06 -1.80067298e-06 -1.28615818e-06
      1.48694835e-06 1.22966696e-06 -9.22977279e-07 2.83311488e-06
      -4.58514933e-06 -1.49329808e-05 -2.02702922e-05 -9.66803327e-06
      -8.67761355e-06 -1.61633452e-05 -1.21021903e-05 -1.27985759e-05
      -1.10081910e-05 -1.16463470e-05 0. 0. 0. 0. 0. 0. 0. 0. 0. 0. 0.
      0. 0. 0. 0. 0. 0. 0. 0. 0. 0. 0. 0. 0. 0. 0. 0. 0. 0. 0. 0. 0. 0.
      -3.07980349e-06 -9.46754426e-06 -1.00378784e-05 -4.70939403e-06
      -1.66254958e-05 -3.12622142e-05 -3.14537101e-05 -2.42761580e-05
      -2.28287881e-05 -2.22070612e-05 -1.99788119e-05 -1.06359330e-05
      -9.26338453e-06 -4.05227922e-07 7.24273832e-06 1.05036288e-05
      1.77061611e-05 1.51770846e-05 8.66944083e-06 4.75450042e-06
      5.42521775e-06 -3.72440786e-06 -8.41309156e-06 -1.93059550e-05
      -8.66701703e-06 -9.61961359e-06 -1.98893231e-05 -1.45492886e-05
      -1.37103380e-05 -1.12740890e-05 -1.17527061e-05 0. 0. 0. 0. 0. 0.
      0. 0. 0. 0. 0. 0. 0. 0. 0. 0. 0. 0. 0. 0. 0. 0. 0. 0. 0. 0. 0. 0.
      0. 0. 0. 0. 0. -3.59310411e-06 -6.50180755e-06 -5.53223981e-06
      -2.64011487e-06 -2.58361833e-05 -3.12129559e-05 -3.03465531e-05
      -2.32231851e-05 -2.08342790e-05 -1.14336281e-05 -9.41280086e-06
      -4.50635213e-07 3.21832795e-06 8.35025639e-06 8.48072887e-06
      1.14976892e-05 1.44610858e-05 1.73582339e-05 1.43000070e-05
      1.17616692e-05 1.24526005e-05 -3.08767153e-06 -8.26301311e-06
      -1.04209848e-05 -6.82581685e-06 -1.00512980e-05 -1.66102436e-05
      -9.83463724e-06 -1.28633174e-05 -1.20717841e-05 -1.15931671e-05 0.
      0. 0. 0. 0. 0. 0. 0. 0. 0. 0. 0. 0. 0. 0. 0. 0. 0. 0. 0. 0. 0. 0.
      0. 0. 0. 0. 0. 0. 0. 0. 0. 0. 0. 0. 0. -4.46975992e-06
      -3.05236354e-05 -3.07691407e-05 -2.90353946e-05 -2.24263204e-05
      -8.34920775e-06 0. 0. 2.21803680e-06 6.17571050e-06 7.61091087e-06
      4.04465527e-06 3.90182004e-06 1.06160305e-05 1.38679106e-05
      1.49356283e-05 1.17851705e-05 1.21233570e-05 2.66108373e-06
      -3.93248729e-06 -1.94492964e-06 -8.68505776e-06 -1.05379731e-05
      -7.54211669e-06 -2.02308111e-05 -1.24186108e-05 -1.26567611e-05
      -1.16995270e-05 0. 0. 0. 0. 0. 0. 0. 0. 0. 0. 0. 0. 0. 0. 0. 0. 0.
      0. 0. 0. 0. 0. 0. 0. 0. 0. 0. 0. 0. 0. 0. 0. 0. 0. 0. 0.
      -7.41821668e-06 -3.08323833e-05 -3.00530628e-05 -2.79249198e-05
      -1.23478012e-05 0. 0. 0. 0. 4.34909175e-08 0. 1.97376707e-07
      4.96731400e-06 1.66623795e-05 1.48391628e-05 1.18952548e-05
      1.18252328e-05 1.17630580e-05 2.67351857e-06 -8.83568305e-07
      -4.31000535e-06 -7.94446805e-06 -9.27382735e-06 -1.19250781e-05
      -2.92722216e-05 -1.09550110e-05 -1.26567611e-05 -1.19654251e-05 0.
      0. 0. 0. 0. 0. 0. 0. 0. 0. 0. 0. 0. 0. 0. 0. 0. 0. 0. 0. 0. 0. 0.
      0. 0. 0. 0. 0. 0. 0. 0. 0. 0. 0. 0. 0. -3.39809844e-06
      -2.64728224e-05 -2.84281814e-05 -1.50461847e-05 -1.10347382e-05 0.
      0. 0. 0. 0. 0. 6.57922357e-08 3.35540403e-06 1.64343310e-05
      1.42927474e-05 9.66054267e-06 1.17568716e-05 1.15952798e-05
      2.67351857e-06 2.29106445e-06 -2.69637985e-06 -7.27075167e-06
      -8.91190939e-06 -1.17559766e-05 -3.15981488e-05 -1.08486520e-05
      -1.24440421e-05 -1.20186050e-05 0. 0. 0. 0. 0. 0. 0. 0. 0. 0. 0.
      0. 0. 0. 0. 0. 0. 0. 0. 0. 0. 0. 0. 0. 0. 0. 0. 0. 0. 0. 0. 0. 0.
      0. 0. 0. -2.23354596e-06 -1.53644942e-05 -2.19338090e-05
      -1.18707294e-05 -1.05725503e-05 0. 0. 0. 0. 0. 0. 9.86883535e-08
      7.63189928e-06 1.67928520e-05 1.59002102e-05 1.35846640e-05
      1.17257532e-05 1.16387710e-05 2.62377876e-06 1.59082028e-05
      -9.06614969e-06 -7.53786890e-06 -8.13431689e-06 -1.26606728e-05
      -3.19720020e-05 -1.09018320e-05 -1.20186050e-05 -1.19654251e-05 0.
      0. 0. 0. 0. 0. 0. 0. 0. 0. 0. 0. 0. 0. 0. 0. 0. 0. 0. 0. 0. 0. 0.
      0. 0. 0. 0. 0. 0. 0. 0. 0. 0. 0. 0. 0. 0. -1.44433750e-06
      -1.18435673e-05 -1.17280206e-05 -1.00525886e-05 0. 0. 0. 0. 0. 0.
      3.28961193e-07 7.07266554e-06 1.48954723e-05 1.73582339e-05
      1.21138219e-05 1.21171079e-05 8.82429595e-06 2.61134392e-06
      1.85897952e-05 -7.03129899e-06 -7.69619783e-06 -6.43163548e-06
      -1.63021195e-05 -3.23748391e-05 -1.10613710e-05 -1.09550110e-05
      -1.20717841e-05 0. 0. 0. 0. 0. 0. 0. 0. 0. 0. 0. 0. 0. 0. 0. 0. 0.
      0. 0. 0. 0. 0. 0. 0. 0. 0. 0. 0. 0. 0. 0. 0. 0. 0. 0. 0. 0.
      -2.31093992e-07 -9.47485387e-06 -1.11502850e-05 -9.35930711e-06 0.
      0. 0. 0. 0. 0. 5.92130107e-07 7.86217242e-06 1.70432031e-05
      1.69305840e-05 1.06333646e-05 1.21419780e-05 3.35674963e-06
      2.61134392e-06 2.05347769e-05 -7.50558138e-06 -6.07937091e-06
      -8.30309182e-06 -2.23821680e-05 -3.26495392e-05 -1.10613710e-05
      -1.07422929e-05 -1.21249641e-05 0. 0. 0. 0. 0. 0. 0. 0. 0. 0. 0.
      0. 0. 0. 0. 0. 0. 0. 0. 0. 0. 0. 0. 0. 0. 0. 0. 0. 0. 0. 0. 0. 0.
      0. 0. 0. 0. 0. -5.54625603e-06 -7.91496950e-06 -6.47063189e-06 0.
      0. 0. 0. 0. 0. 1.15136413e-06 7.63189928e-06 1.64711510e-05
      1.74017259e-05 1.25516472e-05 1.21793464e-05 3.58057900e-06
      2.71082354e-06 1.82715848e-05 -8.75683509e-06 -6.73299519e-06
      -8.18832632e-06 -3.46827437e-05 -2.19842132e-05 -1.09018320e-05
      -1.09550110e-05 -1.21781441e-05 0. 0. 0. 0. 0. 0. 0. 0. 0. 0. 0.
      0. 0. 0. 0. 0. 0. 0. 0. 0. 0. 0. 0. 0. 0. 0. 0. 0. 0. 0. 0. 0. 0.
      0. 0. 0. 0. 0. 0. 0. 0. 0. 0. 0. 0. 0. 0. 2.69748170e-06
      1.08418562e-05 1.75723544e-05 1.43412744e-05 1.31964316e-05
      1.18686603e-05 3.49978313e-06 2.83810027e-06 1.12003981e-05
      -8.79678464e-06 -8.71697102e-06 -8.05663331e-06 -3.60969025e-05
      -1.67495346e-05 -1.09018320e-05 -1.12209100e-05 -1.20186050e-05 0.
      0. 0. 0. 0. 0. 0. 0. 0. 0. 0. 0. 0. 0. 0. 0. 0. 0. 0. 0. 0. 0. 0.
      0. 0. 0. 0. 0. 0. 0. 0. 0. 0. 0. 0. 0. 0. 0. 0. 0. 0. 0. 0. 0. 0.
      0. 0. 2.89485843e-06 1.42531144e-05 1.67131293e-05 1.54458121e-05
      1.20616287e-05 1.16946339e-05 2.58647378e-06 1.23633872e-05
      8.59530792e-06 -8.87618990e-06 -8.11612426e-06 -9.03787077e-06
      -3.72882605e-05 -1.15931671e-05 -1.11677300e-05 -1.18590660e-05
      -1.19122451e-05 0. 0. 0. 0. 0. 0. 0. 0. 0. 0. 0. 0. 0. 0. 0. 0. 0.
      0. 0. 0. 0. 0. 0. 0. 0. 0. 0. 0. 0. 0. 0. 0. 0. 0. 0. 0. 0. 0. 0.
      0. 0. 0. 0. 0. 0. 0. 0. 3.78305367e-06 1.59866031e-05
      1.63969871e-05 1.62152410e-05 1.13590786e-05 1.18685348e-05
      2.54916904e-06 7.56595819e-06 2.38348844e-06 -7.91488310e-06
      -9.62831109e-06 -9.80954792e-06 -3.52081552e-05 -1.16995270e-05
      -1.12209100e-05 -1.24972221e-05 -1.15399880e-05 0. 0. 0. 0. 0. 0.
      0. 0. 0. 0. 0. 0. 0. 0. 0. 0. 0. 0. 0. 0. 0. 0. 0. 0. 0. 0. 0. 0.
      0. 0. 0. 0. 0. 0. 0. 0. 0. 0. 0. 0. 0. 0. 0. 0. 0. 0.
      3.28961178e-08 4.90152161e-06 1.50526930e-05 1.71597458e-05
      1.59403662e-05 1.14957375e-05 1.21854691e-05 2.73569344e-06
      1.08772701e-05 1.46869490e-06 -8.76436206e-06 -8.54707105e-06
      -9.59425961e-06 -2.24476389e-05 -1.14868080e-05 -1.09550110e-05
      -1.27099402e-05 -1.05295740e-05 0. 0. 0. 0. 0. 0. 0. 0. 0. 0. 0.
      0. 0. 0. 0. 0. 0. 0. 0. 0. 0. 0. 0. 0. 0. 0. 0. 0. 0. 0. 0. 0. 0.
      0. 0. 0. 0. 0. 0. 0. 0. 0. 0. 0. 0. 0. 9.86883535e-08
      4.80283325e-06 1.43724692e-05 1.77390575e-05 1.15534758e-05
      1.16573292e-05 1.21855319e-05 1.41878388e-06 1.19589986e-05
      -5.67516190e-06 -9.48982688e-06 -1.02546192e-05 -1.04671681e-05
      -2.15274031e-05 -1.15399880e-05 -1.09018320e-05 -1.29226592e-05
      -1.03700349e-05 0. 0. 0. 0. 0. 0. 0. 0. 0. 0. 0. 0. 0. 0. 0. 0. 0.
      0. 0. 0. 0. 0. 0. 0. 0. 0. 0. 0. 0. 0. 0. 0. 0. 0. 0. 0. 0. 0. 0.
      0. 0. 0. 0. 0. 0. 0. 7.56610746e-07 7.46741898e-06 1.65648034e-05
      1.75745772e-05 1.32406612e-05 1.15765333e-05 1.19307724e-05
      -1.05209247e-05 5.96521659e-06 -7.84025633e-06 -8.81763754e-06
      -7.29510430e-06 -5.99691475e-06 -1.66638401e-05 -1.19654251e-05
      -1.12209100e-05 -1.27631201e-05 -1.00509569e-05 0. 0. 0. 0. 0. 0.
      0. 0. 0. 0. 0. 0. 0. 0. 0. 0. 0. 0. 0. 0. 0. 0. 0. 0. 0. 0. 0. 0.
      0. 0. 0. 0. 0. 0. 0. 0. 0. 0. 0. 0. 0. 0. 0. 0. 0. 0.
      8.55299049e-07 5.59234013e-06 1.54335175e-05 1.77496531e-05
      1.45235172e-05 1.14586210e-05 1.42302167e-06 -1.05063382e-05
      6.22715152e-06 -1.13558326e-05 -1.03949333e-05 -1.08936683e-05
      -1.98403322e-05 -2.43282520e-05 -1.11145500e-05 -1.22313231e-05
      -1.24972221e-05 -1.11677300e-05 0. 0. 0. 0. 0. 0. 0. 0. 0. 0. 0.
      0. 0. 0. 0. 0. 0. 0. 0. 0. 0. 0. 0. 0. 0. 0. 0. 0. 0. 0. 0. 0. 0.
      0. 0. 0. 0. 0. 0. 0. 0. 0. 0. 0. 0. 0. 1.97376707e-07
      8.05954915e-06 1.68904298e-05 1.71904194e-05 1.52415359e-05
      1.15331686e-05 -7.23681637e-07 3.88320041e-06 5.39014991e-06
      -9.62764443e-06 -8.82513996e-06 1.79067104e-06 -2.07255816e-05
      -2.48784236e-05 -1.19122451e-05 -1.25504012e-05 -1.15931671e-05
      -1.22313231e-05 0. 0. 0. 0. 0. 0. 0. 0. 0. 0. 0. 0. 0. 0. 0. 0. 0.
      0. 0. 0. 0. 0. 0. 0. 0. 0. 0. 0. 0. 0. 0. 0. 0. 0. 0. 0. 0. 0. 0.
      0. 0. 0. 0. 0. 0. 0. 1.31584471e-07 8.35561423e-06 1.74346205e-05
      1.75756886e-05 1.42286208e-05 -2.04266257e-06 -1.35619052e-06
      5.95945085e-06 -6.02992668e-06 -7.68209975e-06 -1.11208865e-05
      4.43954332e-06 -1.72103482e-05 -1.79226354e-05 -1.14868080e-05
      -1.24972221e-05 -1.05827539e-05 -1.28163001e-05 0. 0. 0. 0. 0. 0.
      0. 0. 0. 0. 0. 0. 0. 0. 0. 0. 0. 0. 0. 0. 0. 0. 0. 0. 0. 0. 0. 0.
      0. 0. 0. 0. 0. 0. 0. 0. 0. 0. 0. 0. 0. 0. 0. 0. 0. 0.
      1.31584477e-06 6.34895059e-06 1.47521814e-05 1.60797317e-05
      -3.01775003e-07 -1.92801031e-06 -8.94844788e-07 4.35846778e-06
      -9.42103725e-06 -9.52189566e-06 2.20954894e-06 4.94564210e-06
      -2.36855030e-05 -1.15399880e-05 -1.16995270e-05 -1.28163001e-05
      -1.07954720e-05 -6.91335663e-06 0. 0. 0. 0. 0. 0. 0. 0. 0. 0. 0.
      0. 0. 0. 0. 0. 0. 0. 0. 0. 0. 0. 0. 0. 0. 0. 0. 0. 0. 0. 0. 0. 0.
      0. 0. 0. 0. 0. 0. 0. 0. 0. 0. 0. 0. 0. 2.36852043e-06
      8.35561423e-06 1.90002938e-05 1.50963524e-06 -7.64556944e-07
      -1.20996026e-06 -9.35596927e-06 -7.82184725e-06 -1.00962261e-05
      -6.12547274e-06 3.98108705e-06 4.81475672e-06 -2.59558001e-05
      -1.13272690e-05 -1.25504012e-05 -1.15399880e-05 -1.20717841e-05 0.
      0. 0. 0. 0. 0. 0. 0. 0. 0. 0. 0. 0. 0. 0. 0. 0. 0. 0. 0. 0. 0. 0.
      0. 0. 0. 0. 0. 0. 0. 0. 0. 0. 0. 0. 0. 0. 0. 0. 0. 0. 0. 0. 0. 0.
      0. 0. 4.11201472e-06 1.10074479e-05 4.95875838e-06 6.57477813e-06
      8.67156473e-07 -8.64461708e-06 -7.98347446e-06 -8.88170052e-06
      -7.17352259e-06 4.32906199e-06 2.93258449e-06 -1.40159691e-05
      -1.21781441e-05 -1.17527061e-05 -1.26567611e-05 -1.19654251e-05
      -1.30290182e-05 0. 0. 0. 0. 0. 0. 0. 0. 0. 0. 0. 0. 0. 0. 0. 0. 0.
      0. 0. 0. 0. 0. 0. 0. 0. 0. 0. 0. 0. 0. 0. 0. 0. 0. 0. 0. 0. 0. 0.
      0. 0. 0. 0. 0. 0. 0. 0. 5.06600236e-06 3.60115814e-06
      5.92152173e-06 4.37217068e-06 -1.82279973e-06 -8.64181675e-06
      -3.15715283e-06 -6.16901434e-06 4.64185950e-06 3.67906182e-06
      1.57764657e-06 -2.63812362e-05 -1.15399880e-05 -1.26035811e-05
      -1.26035811e-05 -1.17527061e-05 0. 0. 0. 0. 0. 0. 0. 0. 0. 0. 0.
      0. 0. 0. 0. 0. 0. 0. 0. 0. 0. 0. 0. 0. 0. 0. 0. 0. 0. 0. 0. 0. 0.
      0. 0. 0. 0. 0. 0. 0. 0. 0. 0. 0. 0. 0. 0. 7.23714606e-07
      -9.45297325e-06 5.16503178e-07 5.30569241e-06 -7.56533836e-07
      -9.48038178e-06 -9.25582935e-06 -1.15613684e-05 5.65772370e-06
      4.84043176e-06 3.50103414e-06 5.91713558e-07 -1.25083561e-05
      -1.24972221e-05 -1.25504012e-05 -1.15399880e-05 -1.03700349e-05 0.
      0. 0. 0. 0. 0. 0. 0. 0. 0. 0. 0. 0. 0. 0. 0. 0. 0. 0. 0. 0. 0. 0.
      0. 0. 0. 0. 0. 0. 0. 0. 0. 0. 0. 0. 0. 0. 0. 0. 0. 0. 0. 0. 0. 0.
      0. 0. -1.22491438e-05 -5.86749866e-06 3.11730082e-06
      4.75471234e-06 -5.74789101e-06 -1.08034537e-05 -2.26554803e-05
      2.92206619e-06 5.84255667e-06 3.66300696e-06 -1.50582241e-06
      -1.43512204e-06 -1.23376831e-05 -1.26035811e-05 -1.18590660e-05
      -1.29758391e-05 0. 0. 0. 0. 0. 0. 0. 0. 0. 0. 0. 0. 0. 0. 0. 0. 0.
      0. 0. 0. 0. 0. 0. 0. 0. 0. 0. 0. 0. 0. 0. 0. 0. 0. 0. 0. 0. 0. 0.
      0. 0. 0. 0. 0. 0. 0. 0. -1.25473480e-05 -1.20936238e-05
      -6.25349321e-06 4.87364696e-06 -4.34711910e-06 -1.75576770e-05
      -2.07164794e-05 -9.66349035e-06 3.04545893e-06 3.21151492e-06
      3.63566437e-06 -1.58814487e-06 1.28206148e-05 -1.23908621e-05
      -1.18590660e-05 -1.26567611e-05 0. 0. 0. 0. 0. 0. 0. 0. 0. 0. 0.
      0. 0. 0. 0. 0. 0. 0. 0. 0. 0. 0. 0. 0. 0. 0. 0. 0. 0. 0. 0. 0. 0.
      0. 0. 0. 0. 0. 0. 0. 0. 0. 0. 0. 0. 0. 0. -1.27754811e-05
      -1.35739492e-05 -1.14728755e-05 -5.03613455e-06 -5.24198595e-06
      -1.84196961e-05 -2.18129353e-05 -9.67607048e-06 -9.15868623e-06
      3.17757781e-06 3.23003036e-07 2.41909606e-06 1.54365250e-06
      6.12868234e-06 -1.23908621e-05 -1.14336281e-05 -6.96653615e-06 0.
      0. 0. 0. 0. 0. 0. 0. 0. 0. 0. 0. 0. 0. 0. 0. 0. 0. 0. 0. 0. 0. 0.
      0. 0. 0. 0. 0. 0. 0. 0. 0. 0. 0. 0. 0. 0. 0. 0. 0. 0. 0. 0. 0. 0.
      0. -1.28325146e-05 -1.33458152e-05 -1.35739492e-05 -2.13018920e-05
      -2.77257332e-05 -1.81340602e-05 -2.09241589e-05 -8.68273310e-06
      -9.09942992e-06 -2.41456610e-06 -3.10197350e-07 1.66426287e-06
      3.86486363e-06 1.20789200e-05 -6.98481608e-06 -1.24440421e-05
      -1.29758391e-05 0. 0. 0. 0. 0. 0. 0. 0. 0. 0. 0. 0. 0. 0. 0. 0. 0.
      0. 0. 0. 0. 0. 0. 0. 0. 0. 0. 0. 0. 0. 0. 0. 0. 0. 0. 0. 0. 0. 0.
      0. 0. 0. 0. 0. 0. -7.97274242e-06 -2.06311961e-05 -2.61707919e-05
      -2.69759203e-05 -2.65744657e-05 -3.26496738e-05 -3.09321840e-05
      -1.94359345e-05 -8.32358455e-06 -8.53514030e-06 -9.58214969e-06
      2.62090339e-06 1.14058287e-06 1.67493581e-05 1.29722075e-05
      1.28465981e-05 -1.24440421e-05 -1.28694792e-05 0. 0. 0. 0. 0. 0.
      0. 0. 0. 0. 0. 0. 0. 0. 0. 0. 0. 0. 0. 0. 0. 0. 0. 0. 0. 0. 0. 0.
      0. 0. 0. 0. 0. 0. 0. 0. 0. 0. 0. 0. 0. -9.93704180e-06
      -1.18435673e-05 -1.29412638e-05 -1.29990367e-05 -1.73891294e-05
      -2.62922604e-05 -2.60678262e-05 -2.67507476e-05 -2.56500898e-05
      -3.57795434e-05 -3.05213944e-05 -2.66879360e-05 -8.66750179e-06
      -8.91913533e-06 -1.53086767e-05 -1.87626774e-05 5.23321933e-06
      1.54662939e-05 1.61682929e-05 1.19193810e-05 1.38377618e-05
      -1.30290182e-05 0. 0. 0. 0. 0. 0. 0. 0. 0. 0. 0. 0. 0. 0. 0. 0. 0.
      0. 0. 0. 0. 0. 0. 0. 0. 0. 0. 0. 0. 0. 0. 0. 0. 0. 0. 0. 0. 0. 0.
      0. 0. 0. -1.28257170e-05 -1.34612255e-05 -1.36923190e-05
      -1.72335713e-05 -2.68707354e-05 -2.68640742e-05 -2.76114297e-05
      -2.96239123e-05 -3.49872571e-05 -3.68628062e-05 -3.14084209e-05
      -1.35106329e-05 -4.37530571e-06 -1.96367946e-05 -2.12642080e-05
      -1.00761263e-05 1.35568444e-05 1.42318577e-05 1.46419325e-05
      1.31996057e-05 1.11409363e-05 0. 0. 0. 0. 0. 0. 0. 0. 0. 0. 0. 0.
      0. 0. 0. 0. 0. 0. 0. 0. 0. 0. 0. 0. 0. 0. 0. 0. 0. 0. 0. 0. 0. 0.
      0. 0. 0. 0. 0. 0. 0. 0. 0. -1.33456779e-05 -1.39234135e-05
      -1.79179715e-05 -2.74499507e-05 -2.82484179e-05 -2.83032314e-05
      -2.72010930e-05 -3.52183524e-05 -3.61702623e-05 -3.21296575e-05
      -1.73268199e-05 -2.44095645e-05 -1.59344436e-05 -1.83160375e-06
      1.02014246e-06 4.10090934e-07 1.46985121e-05 1.38477426e-05
      1.41418213e-05 1.29167429e-05 4.36398796e-06 0. 0. 0. 0. 0. 0. 0.
      0. 0. 0. 0. 0. 0. 0. 0. 0. 0. 0. 0. 0. 0. 0. 0. 0. 0. 0. 0. 0. 0.
      0. 0. 0. 0. 0. 0. 0. 0. 0. 0. 0. 0. 0. 0. -1.32879049e-05
      -1.85490389e-05 -2.73921760e-05 -2.79617707e-05 -2.84180369e-05
      -3.11870281e-05 -3.64471452e-05 -3.70383459e-05 -3.52514871e-05
      -3.41111445e-05 -1.61640983e-05 -3.67692473e-06 -2.55775467e-06
      1.36393464e-06 1.30858950e-06 1.85265435e-05 1.50308369e-05
      1.52546663e-05 1.27553021e-05 2.59542430e-05 0. 0. 0. 0. 0. 0. 0.
      0. 0. 0. 0. 0. 0. 0. 0. 0. 0. 0. 0. 0. 0. 0. 0. 0. 0. 0. 0. 0. 0.
      0. 0. 0. 0. 0. 0. 0. 0. 0. 0. 0. 0. 0. 0. -1.27101691e-06
      -2.31369195e-05 -2.50893772e-05 -2.69936827e-05 -2.85335846e-05
      -3.04843561e-05 -3.55591874e-05 -4.50092521e-05 -3.50786941e-05
      -3.51348644e-05 -3.41015475e-05 -2.65682374e-05 3.23950485e-06
      4.61701529e-06 -9.97769234e-07 1.67250079e-07 2.05785018e-05
      1.37260859e-05 2.86801951e-05 2.58394011e-05 2.62987687e-05 0. 0.
      0. 0. 0. 0. 0. 0. 0. 0. 0. 0. 0. 0. 0. 0. 0. 0. 0. 0. 0. 0. 0. 0.
      0. 0. 0. 0. 0. 0. 0. 0. 0. 0. 0. 0. 0. 0. 0. 0. 0. 0. 0. 0.
      -2.36976321e-05 -2.58863656e-05 -2.63374513e-05 -2.90969165e-05
      -4.69272672e-05 -4.73205146e-05 -3.52126153e-05 -3.45350345e-05
      -3.41716514e-05 -3.09395946e-05 -1.99332790e-05 -8.39881977e-06
      -8.52990979e-06 -1.07001706e-05 -2.75418643e-06 2.47381086e-05
      2.74888516e-05 2.92363493e-05 2.57245592e-05 2.57245592e-05 0. 0.
      0. 0. 0. 0. 0. 0. 0. 0. 0. 0. 0. 0. 0. 0. 0. 0. 0. 0. 0. 0. 0. 0.
      0. 0. 0. 0. 0. 0. 0. 0. 0. 0. 0. 0. 0. 0. 0. 0. 0. 0. 0.
      -1.16918463e-05 -1.30606486e-05 -1.38591158e-05 -3.30118310e-05
      -4.72568863e-05 -4.67405043e-05 -4.65181110e-05 -3.74072952e-05
      -3.40933257e-05 -3.55232805e-05 -2.76186474e-05 -2.21256378e-05
      -9.49429705e-06 -8.68041116e-06 -1.24147200e-05 -2.64175901e-06
      2.17870129e-05 1.16605825e-05 1.61269782e-05 1.14023742e-05
      1.27790645e-05 -1.38078658e-05 -1.31723573e-05 -1.38078658e-05
      -1.36923190e-05 -1.36345452e-05 -1.35189985e-05 -1.34612255e-05
      -1.34612255e-05 -1.33456779e-05 -1.32301311e-05 -1.33456779e-05
      -8.20383684e-06 -7.51055495e-07 0. 0. 0. 0. 0. 0. 0. 0. 0. 0. 0.
      0. 0. 0. 0. 0. 0. 0. 0. 0. 0. 0. 0. 0. 0. 0. 0. 0. 0. 0.
      -1.92626285e-05 -2.44295352e-05 -3.30788316e-05 -3.46817869e-05
      -3.49424154e-05 -3.43040592e-05 -4.83009535e-05 -4.74345688e-05
      -4.78983675e-05 -4.06888139e-05 -3.93186237e-05 -3.50951668e-05
      -1.47164192e-05 -1.40233878e-05 -1.12946109e-05 -1.30205744e-05
      9.93018693e-06 4.08276219e-06 5.56037821e-06 2.12696659e-06
      -1.94682252e-05 -2.00748782e-05 -1.32301311e-05 -1.29990367e-05
      -1.21902085e-05 -1.18435673e-05 -1.18435673e-05 -1.19591141e-05
      -1.20746608e-05 -1.22479814e-05 -1.23057553e-05 -1.21902085e-05
      -8.60825094e-06 -3.69750387e-06 0. 0. 0. 0. 0. 0. 0. 0. 0. 0. 0.
      0. 0. 0. 0. 0. 0. 0. 0. 0. 0. 0. 0. 0. 0. 0. 0. 0. 0. 0.
      -1.90335504e-05 -3.21305488e-05 -3.38236750e-05 -3.50811715e-05
      -3.43734973e-05 -3.46823581e-05 -3.30750554e-05 -3.42827043e-05
      -2.64505434e-05 -3.79862613e-05 -2.66922343e-05 -2.61648711e-05
      -1.75661189e-05 -1.63815384e-05 -1.44220558e-05 3.90688774e-06
      8.82321046e-07 1.15072737e-06 1.81121948e-06 -3.89163887e-07
      -2.53627022e-05 -2.65759463e-05 -2.59470980e-05 -2.58878445e-05
      -2.55441646e-05 -2.66840925e-05 -2.66277984e-05 -2.68596341e-05
      -2.69181473e-05 -2.67455671e-05 -2.12659197e-05 -1.28790498e-05
      -8.31938360e-06 -3.46640991e-06 0. 0. 0. 0. 0. 0. 0. 0. 0. 0. 0.
      0. 0. 0. 0. 0. 0. 0. 0. 0. 0. 0. 0. 0. 0. 0. 0. 0. -4.99481189e-07
      -1.79362960e-05 -2.05972974e-05 -2.43695304e-05 -3.31253068e-05
      -3.46427296e-05 -3.44000218e-05 -3.30669973e-05 -3.51014351e-05
      -2.66600000e-05 -1.36880153e-05 -1.34028487e-05 -1.28325146e-05
      -3.57962790e-06 -1.58823259e-05 -1.67895068e-05 -1.47082483e-05
      1.07652122e-05 1.62321169e-06 2.44465423e-06 2.58195541e-07
      -4.56235148e-06 -3.10951036e-05 -3.08333983e-05 -2.78911230e-05
      -2.98585346e-05 -3.02987537e-05 -3.04903479e-05 -3.06400907e-05
      -3.05808389e-05 -3.06720685e-05 -2.88374686e-05 -2.13871481e-05
      -1.66521349e-05 -8.66602477e-06 -3.46640991e-06 0. 0. 0. 0. 0. 0.
      0. 0. 0. 0. 0. 0. 0. 0. 0. 0. 0. 0. 0. 0. 0. 0. 0. 0. 0. 0. 0.
      -4.42397641e-06 -8.02737668e-06 -1.93196411e-05 -2.12549730e-05
      -2.03159143e-05 -2.20890179e-05 -2.17315719e-05 -3.51308190e-05
      -3.45513618e-05 -2.82004949e-05 -3.27897105e-05 -3.32076197e-05
