<?xml version="1.0"?>
<opencv_storage>
<opencv_ml_svm>
  <format>3</format>
  <svmType>C_SVC</svmType>
  <kernel>
    <type>LINEAR</type></kernel>
  <C>1.</C>
  <term_criteria><iterations>100</iterations></term_criteria>
  <var_count>32</var_count>
  <class_count>3</class_count>
  <class_labels type_id="opencv-matrix">
    <rows>3</rows>
    <cols>1</cols>
    <dt>i</dt>
    <data>
      0 1 2</data></class_labels>
  <sv_total>3</sv_total>
  <support_vectors>
    <_>
      1.16273495e-05 -2.56981684e-06 -1.05025974e-05 -8.71253542e-06
      -6.63308083e-06 -4.47811180e-06 -7.52620565e-07 2.76293031e-06
      3.07368209e-05 4.87249690e-06 5.57750809e-07 -1.54377881e-06
      7.48864920e-07 -5.31961996e-06 -2.63806373e-06 8.20672449e-06
      1.88558770e-05 7.64501874e-06 -3.06763900e-06 -6.24531549e-06
      -6.80356334e-06 -1.16442916e-05 -2.21941468e-06 4.61453055e-05
      1.08466711e-05 -6.70786994e-06 -1.27000940e-05 -1.01590076e-05
      8.67938070e-06 2.88432580e-06 7.14381758e-06 1.50532669e-05</_>
    <_>
      3.04916412e-05 -8.26795895e-06 -1.84350902e-05 -1.09237344e-05
      -2.94733618e-05 -6.67346740e-06 -5.16644423e-06 1.72277196e-05
      2.95707232e-05 3.65009532e-06 5.17211538e-06 8.03221428e-06
      2.20720303e-05 1.18479857e-05 4.96992197e-06 -2.87091316e-05
      -6.77887874e-06 1.46364328e-05 8.01251190e-06 3.05912204e-06
      8.00534679e-07 -1.16031315e-05 -7.77694186e-06 3.13972705e-05
      6.36934192e-06 -5.03761066e-06 -8.36645995e-06 -3.31245133e-06
      6.46624312e-06 7.87342651e-06 1.48720083e-05 2.12050418e-05</_>
    <_>
      -2.46173113e-05 4.93413972e-06 1.02536842e-05 5.73035777e-06
      -3.64342395e-06 7.80146365e-06 7.47854756e-06 1.39086160e-06
      3.32013369e-05 -1.46018999e-06 1.33022204e-05 1.31688939e-05
      8.44431543e-06 7.29092744e-06 -8.27759504e-06 -8.70676158e-05
      -5.31423975e-05 7.22937739e-06 1.47180908e-05 1.22856054e-05
      3.28388451e-05 4.08984488e-06 5.41827922e-06 -2.33253832e-05
      1.38968735e-05 3.61054958e-06 2.43133672e-05 3.14804383e-05
      1.55493817e-05 8.61274566e-06 1.74763882e-05 -5.41436930e-06</_></support_vectors>
  <uncompressed_sv_total>14</uncompressed_sv_total>
  <uncompressed_support_vectors>
    <_>
      1.78210137e+04 5.90411279e+03 4.28887451e+03 6.23974170e+03
      4.85316846e+03 7.57537256e+03 1.46590029e+04 2.70626582e+04
      2.22070957e+04 9.48631445e+03 7.20023828e+03 5.67376074e+03
      6.35845020e+03 8.81805273e+03 9.45451855e+03 1.06973721e+04
      1.49692354e+04 8.72724121e+03 7.73501416e+03 6.87557227e+03
      6.00965283e+03 5.65040479e+03 9.58013965e+03 3.78747812e+04
      1.55580928e+04 8.35943457e+03 7.03065283e+03 4.41905176e+03
      8.01219043e+03 9.50815918e+03 9.88932422e+03 1.17329336e+04</_>
    <_>
      1.70669629e+04 1.16909248e+04 1.06154463e+04 9.47480859e+03
      7.65606787e+03 1.44809307e+04 1.41860908e+04 3.54135352e+04
      3.72281250e+04 1.68808379e+04 1.51694922e+04 1.53056748e+04
      1.25183574e+04 1.24743447e+04 1.63242686e+04 1.72106426e+04
      1.56082432e+04 1.08239678e+04 7.78524756e+03 1.49637012e+04
      1.49730400e+04 1.49875479e+04 1.71324727e+04 3.17592656e+04
      3.33546250e+04 2.08624531e+04 1.74947246e+04 1.35147100e+04
      1.96260312e+04 1.09500127e+04 1.52242998e+04 1.84345684e+04</_>
    <_>
      9.71814746e+03 7.07991943e+03 3.61198755e+03 2.75629053e+03
      3.88660498e+03 5.87200488e+03 6.12901123e+03 2.87217402e+04
      3.73995625e+04 1.31729590e+04 5.69987744e+03 4.47170020e+03
      6.50282031e+03 5.60136230e+03 6.50461279e+03 8.88971680e+03
      9.40909668e+03 5.41247314e+03 5.83476465e+03 2.84731104e+03
      6.52370020e+03 3.36640723e+03 8.21942383e+03 2.52993301e+04
      3.97252617e+04 1.23518145e+04 5.20887402e+03 5.54602637e+03
      5.89347900e+03 4.44519629e+03 5.97335547e+03 1.21261758e+04</_>
    <_>
      5.76355547e+04 8.06521338e+03 6.97441016e+03 8.29427832e+03
      6.37074658e+03 1.01535645e+04 1.15919385e+04 1.47258164e+04
      2.27632656e+04 8.33508105e+03 1.06698887e+04 1.18527852e+04
      2.03649609e+04 1.05996650e+04 1.52906846e+04 3.58807266e+04
      4.44118906e+04 8.59490527e+03 1.27724434e+04 1.07214844e+04
      9.40051855e+03 1.01298086e+04 1.29792988e+04 1.14674189e+04
      1.37335283e+04 1.17568643e+04 1.27697432e+04 1.43288486e+04
      1.82958848e+04 1.05873926e+04 1.09532568e+04 3.49024922e+04</_>
    <_>
      1.48699629e+04 1.02238623e+04 1.32437441e+04 1.41525439e+04
      1.29094443e+04 1.30175840e+04 1.22628467e+04 9.37604395e+03
      1.38558164e+04 1.02055049e+04 1.17026387e+04 1.16203682e+04
      1.28167871e+04 1.34254473e+04 1.13680439e+04 1.03346963e+04
      1.59605566e+04 9.23910254e+03 1.05980088e+04 1.63643936e+04
      1.26946279e+04 1.31649023e+04 1.19613828e+04 1.61951973e+04
      1.50212910e+04 1.14055928e+04 1.08490908e+04 1.69568984e+04
      1.16580371e+04 8.88307129e+03 6.63677441e+03 1.17637598e+04</_>
    <_>
      6.06996631e+03 6.32057471e+03 1.12566982e+04 1.12762822e+04
      6.71597119e+03 4.92037939e+03 3.22940527e+03 8.00570605e+03
      1.79815117e+04 1.16065938e+04 1.12215166e+04 5.57284619e+03
      8.91539648e+03 6.79104590e+03 4.88793652e+03 4.53026562e+03
      6.04516553e+03 3.43444556e+03 2.64666113e+03 4.42870361e+03
      6.37589111e+03 1.17286709e+04 1.45889727e+04 1.47022373e+04
      1.04800547e+04 8.41579004e+03 1.20147139e+04 5.23036230e+03
      3.77433521e+03 3.71351611e+03 1.95265076e+03 6.28506396e+03</_>
    <_>
      1.13655703e+04 7.49382422e+03 8.45964551e+03 1.20311475e+04
      9.10602441e+03 1.29758115e+04 1.21145078e+04 1.52281348e+04
      2.05016777e+04 9.87884473e+03 1.48833662e+04 1.41039932e+04
      9.25413867e+03 9.03552539e+03 7.42967627e+03 7.59946143e+03
      8.99739844e+03 6.39625830e+03 8.25070508e+03 1.14892900e+04
      1.25664473e+04 1.74248477e+04 1.03179023e+04 1.53734902e+04
      1.36586455e+04 1.05947393e+04 1.25292871e+04 1.62624639e+04
      9.61072754e+03 8.38617090e+03 5.40915527e+03 9.37500391e+03</_>
    <_>
      4.42236572e+03 3.37624609e+03 2.59988477e+03 2.51332520e+03
      3.02627905e+03 4.11832666e+03 9.55396289e+03 1.50177529e+04
      1.24062871e+04 1.91924414e+03 3.00282544e+03 1.14921753e+03
      5.22688477e+02 1.42557776e+03 2.14636963e+03 1.14385559e+03
      2.15006714e+03 2.18131104e+03 3.35173853e+03 1.44784607e+03
      5.62596143e+03 4.73976953e+03 5.24942822e+03 6.02304102e+03
      1.16522969e+04 6.03910107e+03 6.96632471e+03 4.55455615e+03
      4.28920508e+03 2.81717456e+03 4.19797412e+03 5.14722705e+03</_>
    <_>
      1.30293604e+04 9.25704395e+03 8.80997559e+03 7.52763916e+03
      4.86731396e+03 7.87595557e+03 1.18916035e+04 3.09425176e+04
      1.75031836e+04 8.94318555e+03 4.22210107e+03 5.74824316e+03
      7.11354785e+03 1.14222178e+04 1.22965820e+04 9.84921582e+03
      5.43281543e+03 5.02910303e+03 8.91678516e+03 1.18663877e+04
      1.19832627e+04 1.02434707e+04 5.78825586e+03 1.12319980e+04
      2.21099180e+04 1.32737607e+04 1.14303740e+04 1.19712773e+04
      7.73796240e+03 8.24555762e+03 7.79062646e+03 9.20661133e+03</_>
    <_>
      6.27651416e+03 8.41349707e+03 1.35875674e+04 1.39469814e+04
      1.61310137e+04 1.82414766e+04 1.13485645e+04 2.58195840e+04
      2.52135020e+04 1.64721484e+04 2.01731914e+04 1.57711846e+04
      1.07495371e+04 9.44849609e+03 1.02301621e+04 8.17470703e+03
      8.61417871e+03 4.75155957e+03 6.98840332e+03 5.04154395e+03
      9.60993457e+03 1.65484453e+04 3.07430801e+04 1.62481416e+04
      3.42679727e+04 2.50470625e+04 2.39098770e+04 9.26837793e+03
      5.33593604e+03 3.15493579e+03 5.91624805e+03 5.69466846e+03</_>
    <_>
      1.75124824e+04 6.14574561e+03 5.71135742e+03 4.30736670e+03
      5.48102100e+03 7.10485889e+03 5.03825195e+03 7.97122217e+03
      1.39117822e+04 5.33254639e+03 2.64118652e+03 1.80434302e+03
      1.03343274e+03 1.68569946e+03 4.28232422e+03 1.58034902e+04
      2.44611543e+04 3.53707812e+03 4.16548096e+03 4.52991260e+03
      2.09741016e+03 1.39863562e+03 3.83965039e+03 1.27573516e+04
      1.19824014e+04 6.75912305e+03 5.30894775e+03 3.59452368e+03
      4.36015332e+03 4.17174219e+03 6.08082373e+03 1.14615850e+04</_>
    <_>
      1.23858086e+04 1.08036729e+04 1.23211045e+04 1.20394316e+04
      1.82813027e+04 1.12591553e+04 2.04487852e+04 3.03205137e+04
      2.04698203e+04 1.19524482e+04 8.76908496e+03 6.38631738e+03
      4.32768359e+03 8.14043408e+03 1.19982021e+04 2.60319863e+04
      1.79753477e+04 4.74454541e+03 7.71438428e+03 7.17214746e+03
      9.78657129e+03 1.46822354e+04 1.79943535e+04 2.94628281e+04
      2.37091621e+04 1.43440801e+04 1.33946572e+04 9.98503027e+03
      1.02673359e+04 8.44932617e+03 5.04398438e+03 9.17577441e+03</_>
    <_>
      3.07396602e+04 4.03669849e+03 6.65652588e+03 6.86973877e+03
      4.86749121e+03 6.73752734e+03 5.09756006e+03 1.07112412e+04
      1.34240977e+04 5.31582031e+03 3.57986987e+03 1.76997083e+03
      4.42858643e+03 2.18893164e+03 2.14911743e+03 3.55425352e+04
      2.38764609e+04 2.20703760e+03 2.68657031e+03 1.75984155e+03
      3.57210962e+03 4.77140381e+03 6.84688086e+03 1.88509043e+04
      8.36632715e+03 8.09700391e+03 5.06929590e+03 4.94312451e+03
      3.72220264e+03 4.22662109e+03 2.31942310e+03 1.43494551e+04</_>
    <_>
      8.33104199e+03 2.01395300e+03 9.32549866e+02 1.88448816e+03
      1.11040344e+03 2.85184839e+03 4.99646582e+03 7.58747314e+03
      5.14989014e+03 1.37239160e+03 1.70032263e+03 3.28804871e+02
      1.62667346e+03 1.45586157e+03 2.60328638e+03 8.54063477e+03
      8.73761230e+03 2.12944092e+03 1.46502234e+03 1.71047095e+03
      1.04163452e+03 3.26455737e+03 2.25507935e+03 4.62760938e+03
      6.14482324e+03 4.14825928e+03 2.27673853e+03 1.16318323e+03
      1.75355481e+03 1.19691113e+03 1.74275635e+03 6.41112891e+03</_></uncompressed_support_vectors>
  <decision_functions>
    <_>
      <sv_count>1</sv_count>
      <rho>2.0598482649569045e+00</rho>
      <alpha>
        1.</alpha>
      <index>
        0</index></_>
    <_>
      <sv_count>1</sv_count>
      <rho>1.9723114660338796e+00</rho>
      <alpha>
        1.</alpha>
      <index>
        1</index></_>
    <_>
      <sv_count>1</sv_count>
      <rho>1.1758231525967511e-01</rho>
      <alpha>
        1.</alpha>
      <index>
        2</index></_></decision_functions></opencv_ml_svm>
</opencv_storage>
