<?xml version="1.0"?>
<opencv_storage>
<opencv_ml_svm>
  <format>3</format>
  <svmType>C_SVC</svmType>
  <kernel>
    <type>LINEAR</type></kernel>
  <C>1.</C>
  <term_criteria><iterations>100</iterations></term_criteria>
  <var_count>32</var_count>
  <class_count>3</class_count>
  <class_labels type_id="opencv-matrix">
    <rows>3</rows>
    <cols>1</cols>
    <dt>i</dt>
    <data>
      0 1 2</data></class_labels>
  <sv_total>3</sv_total>
  <support_vectors>
    <_>
      9.84379085e-07 -4.01282243e-08 -1.11524628e-06 -1.98903740e-06
      -9.77794571e-07 -1.81135283e-06 -1.22546635e-06 1.69653583e-06
      8.30742579e-07 -1.56193607e-06 -4.20487339e-07 -3.12798761e-07
      -7.16833824e-07 1.52258622e-07 -1.03326904e-07 1.91537015e-06
      1.98824068e-06 8.89900036e-07 -7.93853474e-07 -1.45317006e-06
      -1.04821481e-06 -1.78787900e-06 -1.39414294e-06 3.32369927e-06
      -1.10375439e-07 -2.49561231e-06 -1.08882261e-06 -6.70488731e-08
      -8.42303734e-07 -3.01928964e-07 1.93443469e-07 2.07841094e-06</_>
    <_>
      -2.75749971e-06 -1.19504466e-06 -1.16153478e-06 -1.81260441e-06
      -6.46448768e-07 -1.37173072e-06 -9.70932092e-07 3.41379291e-06
      1.46069408e-06 1.61989263e-07 2.49376882e-07 8.91201751e-07
      8.04704484e-07 7.91388629e-07 -1.26475777e-06 -1.79749452e-06
      -5.85298920e-08 -2.13016179e-07 -8.16013767e-07 -1.37300367e-06
      -1.09155870e-07 -9.51457139e-07 -8.04843182e-07 2.69328643e-06
      1.66724121e-07 1.41163341e-07 2.84533030e-07 1.06143659e-06
      5.30851082e-07 4.89149556e-07 -6.23688038e-07 2.85682586e-06</_>
    <_>
      -1.71356396e-06 -4.09065564e-07 5.24602115e-07 3.85487823e-07
      -7.54979908e-07 7.95478968e-07 1.02071385e-06 6.37333756e-07
      3.34182937e-06 4.91781179e-07 -2.28674722e-07 -3.87147566e-07
      -4.73491554e-07 -1.69706027e-07 -8.46728653e-07 -4.60643560e-06
      -2.74179911e-06 -4.37778681e-07 5.50460925e-07 5.41980341e-07
      2.96286572e-07 4.09468953e-07 1.92007175e-08 -1.02499052e-06
      1.92348557e-06 1.51890652e-06 1.16389856e-06 -1.54482507e-07
      6.46445528e-07 5.15578449e-07 -2.99735120e-07 -1.82701910e-06</_></support_vectors>
  <uncompressed_sv_total>10</uncompressed_sv_total>
  <uncompressed_support_vectors>
    <_>
      1.42190031e+05 5.54747930e+04 3.71493711e+04 3.59349102e+04
      3.53440391e+04 5.56069961e+04 1.22177711e+05 3.44704563e+05
      2.60457688e+05 1.06963836e+05 8.43566406e+04 5.59741406e+04
      5.75227461e+04 6.13562266e+04 5.27332852e+04 9.65319375e+04
      1.41011828e+05 9.26604141e+04 4.55938555e+04 3.82902734e+04
      3.39244961e+04 5.71685938e+04 1.26833719e+05 3.28479969e+05
      2.26713219e+05 1.15463289e+05 8.76049375e+04 6.37651797e+04
      6.57037578e+04 6.12756445e+04 7.01418906e+04 1.13312867e+05</_>
    <_>
      1.72865109e+05 9.32171797e+04 4.97149922e+04 3.93507188e+04
      4.48788750e+04 6.90585547e+04 1.27303563e+05 2.46554109e+05
      6.07752375e+05 1.33140875e+05 8.14610469e+04 5.77097305e+04
      6.65729375e+04 8.00938906e+04 6.45667031e+04 1.31055305e+05
      1.43689953e+05 8.49216563e+04 4.68858867e+04 4.36925742e+04
      4.85862422e+04 7.31365234e+04 1.20203945e+05 3.30589344e+05
      5.22235906e+05 1.34050141e+05 9.52475703e+04 7.51810156e+04
      5.90689883e+04 5.39819453e+04 6.38767109e+04 1.17478570e+05</_>
    <_>
      4.85553656e+05 1.10440766e+05 7.94864219e+04 1.00121531e+05
      1.00630313e+05 1.15179008e+05 1.94265672e+05 3.23138906e+05
      4.16360938e+05 2.40752672e+05 1.51503219e+05 1.47679391e+05
      3.23245563e+05 2.35687031e+05 9.97360313e+04 3.24015719e+05
      6.23280500e+05 1.13081625e+05 9.25523672e+04 1.09803563e+05
      1.09725680e+05 1.42026563e+05 1.97966156e+05 3.16380344e+05
      3.64321875e+05 2.44689422e+05 1.72837906e+05 1.83515266e+05
      2.71764281e+05 1.94298641e+05 1.03818531e+05 5.40427375e+05</_>
    <_>
      4.77572500e+04 2.47190801e+04 3.95192969e+04 8.66505938e+04
      8.18925703e+04 9.71562422e+04 8.40260156e+04 1.17756188e+05
      4.01801406e+05 1.98789219e+05 8.49454375e+04 5.31821914e+04
      5.37253906e+04 3.22674707e+04 2.24207441e+04 1.92161855e+04
      3.68451250e+04 1.89971211e+04 2.24409824e+04 3.87222773e+04
      3.92363086e+04 8.79364688e+04 1.80070078e+05 2.08652953e+05
      3.45130156e+05 1.97701500e+05 7.90600469e+04 3.87594844e+04
      3.06743066e+04 1.77296055e+04 1.34298838e+04 1.22491885e+04</_>
    <_>
      1.14584680e+05 1.25085383e+05 1.13843508e+05 1.40367766e+05
      1.19427883e+05 1.62216031e+05 2.60812156e+05 4.95079188e+05
      5.10498344e+05 2.27090344e+05 1.61163813e+05 1.37409516e+05
      160896. 1.06845852e+05 1.13680383e+05 7.83348828e+04
      9.25133906e+04 9.12235859e+04 1.04351508e+05 1.34550516e+05
      1.37180922e+05 2.01099828e+05 2.44417063e+05 3.96207094e+05
      5.38824125e+05 2.91842219e+05 1.88487281e+05 1.38636828e+05
      1.44432313e+05 1.01929758e+05 9.63376641e+04 7.04706797e+04</_>
    <_>
      1.66581984e+05 6.65570313e+04 8.06559375e+04 9.11134063e+04
      3.80593750e+04 1.10653469e+05 1.51145125e+05 1.65752734e+05
      2.85044813e+05 1.20338117e+05 6.50503750e+04 3.21117363e+04
      5.64457969e+04 5.53098281e+04 5.01113438e+04 4.27094063e+04
      8.61769844e+04 6.23403477e+04 8.05168516e+04 8.87876875e+04
      5.68261250e+04 9.59630625e+04 1.21008758e+05 1.15333016e+05
      2.47039625e+05 1.60048188e+05 1.16003797e+05 4.68766875e+04
      9.12660703e+04 7.51419609e+04 6.52394609e+04 4.82509102e+04</_>
    <_>
      344849. 2.05711328e+05 1.77182172e+05 1.97299953e+05
      2.05712109e+05 2.64489094e+05 3.87610094e+05 4.64995219e+05
      3.63285500e+05 2.48339016e+05 1.71388563e+05 1.09189070e+05
      1.39607234e+05 1.25592484e+05 1.47909328e+05 5.04607219e+05
      2.32959656e+05 1.45975047e+05 1.54280984e+05 1.68600047e+05
      1.54555797e+05 2.45034047e+05 3.70600531e+05 4.22866500e+05
      4.44247719e+05 2.83593438e+05 2.11620516e+05 1.47090188e+05
      1.62979094e+05 1.42155781e+05 1.41421625e+05 1.57173438e+05</_>
    <_>
      1.33169063e+05 3.16500684e+04 2.61380391e+04 3.47706953e+04
      2.42751621e+04 3.71579844e+04 4.92398164e+04 5.66096484e+04
      8.79540859e+04 5.79552422e+04 3.71748789e+04 2.16014688e+04
      3.40141641e+04 3.01314199e+04 3.85797891e+04 9.67228750e+04
      9.32504063e+04 4.01307656e+04 3.11032305e+04 3.35661445e+04
      1.89930625e+04 3.92542539e+04 5.32701758e+04 5.50472383e+04
      8.12002813e+04 5.96632969e+04 4.03770273e+04 2.28481582e+04
      3.19725059e+04 2.69515156e+04 3.94464766e+04 6.85838750e+04</_>
    <_>
      568533. 3.42675563e+05 3.09343219e+05 3.36877031e+05
      2.54646656e+05 3.21947125e+05 3.84042375e+05 5.35354875e+05
      6.68737813e+05 3.59507156e+05 288300. 2.20947156e+05
      3.06710563e+05 2.61812031e+05 2.95724719e+05 5.88124563e+05
      5.38460813e+05 3.09951781e+05 2.73666906e+05 3.01541750e+05
      2.26285438e+05 2.80528406e+05 3.61417281e+05 4.64394938e+05
      7.35137438e+05 4.51566688e+05 3.47973500e+05 2.55871984e+05
      3.36122188e+05 2.94488938e+05 3.32148719e+05 3.44712938e+05</_>
    <_>
      503296. 1.19416594e+05 7.32562344e+04 1.19941656e+05
      3.08224434e+04 9.63050469e+04 1.61301359e+05 1.89554594e+05
      4.28972156e+05 1.36037969e+05 8.03882422e+04 2.21108398e+04
      1.24597914e+05 9.03289297e+04 1.35345438e+05 1.43707313e+05
      4.49627094e+05 1.17996172e+05 7.69616875e+04 1.14172945e+05
      2.43723027e+04 9.62077969e+04 1.62535844e+05 2.92248219e+05
      3.75819906e+05 1.18927125e+05 6.77501016e+04 2.44129082e+04
      1.07327672e+05 6.71078359e+04 1.03428820e+05 1.53362797e+05</_></uncompressed_support_vectors>
  <decision_functions>
    <_>
      <sv_count>1</sv_count>
      <rho>2.7906751658153806e-01</rho>
      <alpha>
        1.</alpha>
      <index>
        0</index></_>
    <_>
      <sv_count>1</sv_count>
      <rho>8.1689605049381819e-01</rho>
      <alpha>
        1.</alpha>
      <index>
        1</index></_>
    <_>
      <sv_count>1</sv_count>
      <rho>5.1920815943084275e-01</rho>
      <alpha>
        1.</alpha>
      <index>
        2</index></_></decision_functions></opencv_ml_svm>
</opencv_storage>
